tree
version=v4
num_class=1
num_tree_per_iteration=1
label_index=0
max_feature_idx=107
objective=binary sigmoid:1
feature_names=Column_0 Column_1 Column_2 Column_3 Column_4 Column_5 Column_6 Column_7 Column_8 Column_9 Column_10 Column_11 Column_12 Column_13 Column_14 Column_15 Column_16 Column_17 Column_18 Column_19 Column_20 Column_21 Column_22 Column_23 Column_24 Column_25 Column_26 Column_27 Column_28 Column_29 Column_30 Column_31 Column_32 Column_33 Column_34 Column_35 Column_36 Column_37 Column_38 Column_39 Column_40 Column_41 Column_42 Column_43 Column_44 Column_45 Column_46 Column_47 Column_48 Column_49 Column_50 Column_51 Column_52 Column_53 Column_54 Column_55 Column_56 Column_57 Column_58 Column_59 Column_60 Column_61 Column_62 Column_63 Column_64 Column_65 Column_66 Column_67 Column_68 Column_69 Column_70 Column_71 Column_72 Column_73 Column_74 Column_75 Column_76 Column_77 Column_78 Column_79 Column_80 Column_81 Column_82 Column_83 Column_84 Column_85 Column_86 Column_87 Column_88 Column_89 Column_90 Column_91 Column_92 Column_93 Column_94 Column_95 Column_96 Column_97 Column_98 Column_99 Column_100 Column_101 Column_102 Column_103 Column_104 Column_105 Column_106 Column_107
feature_infos=[0:28757] [0:28503] none [0:49201] [0:30324] [0:65535] none [0:28492] none none none [0:45246] [0:59778] none none [12:512] [332:43620] [1:21] [0:1] [0:4283477248] [0:4294967296] [120:328] [2:41359] [267:523] [0:255] [0:255] [0:4169273088] [0:4169273088] [0:3730438144] [0:1477793792] [0:4294967296] [0:1477793792] none none none [0:65281] [0:65535] [0:65535] [0:65535] [0:22532] [0:63067] none [0:1477793792] [1:1476417536] [0:4203003136] [1:22866] [0:65535] [0:1477466112] [0:1476417536] [0:1477466112] [0:1476417536] none [2:1476417536] [0:81944728] [0:81944728] [0:2973696] [0:81945088] [0:2965504] none none none none [0:4026531840] [0:7.9998126029968262] [0:89384] [0:89384] [0:49147904] [0:89600] [0:36990464] none none none none [0:3758096384] [0:7.9242935180664062] [0:76648568] [0:76648568] [0:203083776] [0:76648960] [0:106563584] none none none none [0:4261413120] [0:7.9996638298034668] [0:200228672] [0:200228672] [0:3217031168] [0:28857344] [0:93517824] none none none none [0:3758096384] [0:7.9931025505065918] [0:33559208] [0:33559208] [0:36904960] none [0:1068032] [0:3228565504] none none none none none
tree_sizes=1704 1754 1728 1747 1756 1746 1756 1740 1760 1759 1752 1758 1762 1742 1750 1755 1761 1739 1764 1746 1753 1747 1729 1761 1751 1757 1757 1742 1756 1754 1748 1739 1753 1738 1749 1762 1761 1750 1743 1744 1752 1745 1751 1752 1744 1749 1764 1764 1759 1750 1774 1739 1759 1767 1738 1759 1764 1754 1760 1763 1757 1769 1758 1760 1763 1758 1746 1759 1762 1754 1730 1736 1763 1741 1761 1753 1757 1757 1738 1753 1744 1764 1765 1764 1744 1732 1748 1735 1756 1736 1743 1750 1751 1752 1747 1775 1749 1759 1755 1747 1728 1768 1763 1745 1761 1765 1758 1742 1754 1739 1760 1768 1746 1766 1762 1761 1762 1744 1734 1749 1762 1756 1762 1765 1760 1757 1756 1765 1756 1737 1751 1757 1750 1753 1722 1775 1763 1760 1775 1771 1762 1745 1760 1758 1758 1756 1759 1765 1744 1745 1771 1747 1759 1765 1766 1757 1768 1760 1754 1751 1757 1766 1770 1753 1747 1756 1762 1757 1760 1760 1753 1756 1763 1758 1748 1762 1773 1760 1750 1751 1712 1737 1750 1754 1756 1760 1735 1736 1739 1743 1765 1774 1769 1763 1767 1747 1756 1758 1764 1758 1750 1769 1771 1734 1771 1754 1764 1759 1766 1758 1767 1755 1766 1763 1756 1771 1770 1755 1764 1763 1758 1770 1762 1763 1766 1772 1751 1752 1760 1768 1767 1765 1760 1758 1768 1758 1758 1760 1760 1776 1757 1756 1762 1771 1743 1766 1766 1766 1760 1765 1755 1747 1762 1742 1755 1743 1753 1768 1772 1745 1778 1730 1766 1775 1769 1756 1758 1754 1767 1759 1769 1744 1753 1767 1764 1761 1761 1757 1732 1753 1755 1764 1759 1768 1766 1770 1762 1771 1734 1772 1776 1778 1765 1757 1755 1740 1743 1726 1743 1758 1762 1763 1770 1778 1765 1741 1757 1765 1742 1748 1753 1740 1742 1744 1770 1752 1767 1774 1742 1760 1739 1756 1750 1751 1746 1782 1765 1773 1776 1773 1761 1761 1758 1760 1774 1759 1787 1760 1772 1768 1781 1761 1773 1782 1778 1772 1771 1770 1759 1778 1758 1773 1782 1782 1776 1765 1777 1761 1773 1760 1772 1762 1751 1769 1772 1761 1781 1772 1772 1773 1779 1774 1762 1768 1761 1767 1774 1769 1764 1754 1760 1742 1781 1763 1725 1538 1759 1757 1776 1774 1772 1764 1761 1776 1760 1764 1765 1759 1781 1760 1776 1730 1730 1760 1731 1767 1750 1761 1746 1793 1482 1511 1771 1530 1775 1757 1761 1784 1757 1759 1787 1757 1782 1763 1780 1449 1446 1789 1776 1786 1758 1765 1785 1768 1759 1778 1786 1760 1757 1739 1743 1745 1534 1775 1772 1748 1766 1770 1766 1705 1459 1319 1236 1231 1444 1659 1701 1736 1744 1776 1779 1759 1755 1779 1563 1781 1739 1773 1777 1781 1753 1709 1733 1633 1754 1459 1459 1457 1232 1460 1779 1775 1782 1776 1535 1750 1761 1414 1756 1245 1646 1560 1751 1453 1555 1764 1758 1749 1755 1756 1781 1772 1415 1784 1664 1306 1537 1233 1236 1234 1778 1540 1314 1779 1655 1333 1240 1666 1729 1475 1652 1350 1463 1447 1718 1787 1757 1754 1761 1760 1795 1787 1787 1654 1770 1756 1784 1773 1778 1686 1731 1755 1747 1756 1752 1744 1761 1751 1430 1759 1662 1668 1669 1449 1659 1245 1795 1355 1788 1801 1419 1413 1435 1135 1549 1542 1435 1613 1134 1129 1139 1141 1623 1143 1621 1749 1744 1740 1748 1752 1625 1606 1607 1606 1615 1539 1635 1340 1457 1418 1563 1717 1719 1750 1640 1633 1718 1766 1716 1612 1759 1766 1767 1767 1749 1426 1317 1693 1434 1433 1725 1700 1695 1731 1643 1679 1529 1526 1532 1219 1783 1751 1797 1784 1768 1444 1435 1330 1633 1634 1482 1486 1308 1223 1504 1649 1628 1449 1420 1541 1731 1732 1731 1776 1743 1232 1736 1757 1437 1221 1696 1767 1737 1753 1721 1754 1757 1762 1764 1741 1697 1713 1730 1695 1721 1341 1553 1551 1548 1549 1748 1782 1754 1732 1765 1743 1722 1705 1736 1723 1493 1509 1239 1415 1324 1733 1746 1745 1742 1644 1387 1321 1510 1403 1387 1680 1389 1399 1390 1680 1765 1719 1723 1661 1709 1344 1131 1154 1434 1436 1725 1739 1730 1741 1742 1682 1404 1424 1705 1711 1733 1500 1533 1532 1521 1771 1790 1794 1413 1688 1514 1720 1708 1701 1720 1660 1694 1718 1635 1703 1709 1689 1639 1721 1621 1434 1207 1436 1154 1440 1668 1425 1336 1516 1339 1313 1342 1425 1425 1227 1706 1711 1714 1694 1713 1633 1309 1212 1315 1320 1644 1592 1683 1593 1650 1698 1429 1617 1611 1517 1693 1677 1658 1685 1680 1707 1680 1674 1707 1704 1668 1667 1663 1700 1671 1338 1501 1331 1402 1339 1712 1698 1723 1710 1702 1649 1651 1661 1725 1687 1581 1126 1618 1419 1127 1296 1389 1391 1710 1383 1507 1433 1744 1741 1726 1666 1667 1635 1637 1638 1647 1698 1653 1663 1686 1708 1711 1298 1276 1512 1638 1651 1634 1647 1617 1557 1590 1670 1604 1587 1603 1685 1645 1665 1630 1647 1665 1641 1666 1662 1675 1666 1696 1689 1621 1676 1615 1632 1627 1633 1634 1608 1674 1606 1611 1592 1630 1635 1696 1620 1306 1524 1629 1524 1292 1299 1214 1214 1210 1302 1598 1612 1560 1584 1607 1617 1654 1610 1644 1688 1609 1600 1599 1603 1612 1685 1664 1665 1669 1662 1597 1732 1503 1283 1274 1562 1648 1649 1683 1617 1283 1662 1612 1301 1506 1673 1670 1626 1628 1636 1659 1631 1680 1664 1644 1593 1614 1647 1592 1593 1474 1511 1513 1621 1595 1171 1382 1177 1348 1175 1499 1621 1611 1642 1660 1602 1602 1599 1626 1619 1519 1617 1612 1631 1521 1591 1616 1594 1632 1619 1343 1618 1604 1643 1609 1622 1623 1635 1633 1638 1531 1527 1249 1524 1627 1579 1591 1624 1439 1597 1258 1086 1080 1259 1086 1589 1592 1413 1591 1597 1646 1576 1642 1639 1589 1626 1629 1629 1621 1627 1614 1614 1609 1617 1404 1406 1504 1608 1511 1504 1649 1671 1605 1629 1596 1377 1401 1404 1404 1497 1207 1187 1652 1180 1347 1364 1367 1552 1295 1316 1605 1592 1585 1599 1635 1646 1638 1489 1638 1371 1501 1592 1613 1608 1569 1325 1585 1423 1374 1618 1642 1644 1650 1644 1443 1313 1499 1410 1259 1258 1617 1584 1600 1345 1619 1555 1615 1475 1598 1559 1581 1602 1578 1486 1581 1599 1586 1479 1588 1652 1591 1592 1592 1594 1441 1438 1285 1527 1284 1632 1394 1636 1582 1476 1647 1585 1608 1601 1585 1607 1442 1435 1287 1376 1370 1583 1586 1596 1578 1584 1344 1027 1341 1341 1207 1269 1358 1251 1452 1452 1600 1603 1599 1564 1604 1605 1598 1605 1520 1540 1413 1628 1486 1418 1633 1302 1708 1664 1304 1637 1592 1681 1418 1119 1657 1606 1486 1613 1612 1604 1517 1512 1430 1489 1591 1214 1311 1212 1316 1239 1291 1288 1290 1268 1261 1322 1611 1375 1601 1133 1624 1518 1532 1658 1406 1546 1441 1609 1604 1549 1591 1578 1598 1596 1594 1261 1362 1614 1416 1531 1221 1413 1317 1314 1396 1612 1552 1325 1254 1330 1594 1591 1595 1590 1601 1119 1221 1111 1206 1118 1342 1432 1229 1228 1140 1589 1622 1438 1630 1440 1373 1285 1382 1575 1377 1292 1456 1390 1268 1265 1532 1194 1533 1529 1529 1367 1592 1589 1408 1599 1597 1321 1594 1506 1413 1359 1361 1386 1378 1196 1474 1483 1481 1480 1370 1190 1345 1189 1190 1335 1391 1413 1334 1619 1417 1135 1213 1225 1221 1220 1415 1517 1030 1511 1122 1495 1284 1608 1286 1289 1141 1598 1595 1589 1609 1203 1054 1313 1100 1303 1283 1384 1582 1283 1305 1534 1382 1543 1575 1568 1629 1501 1628 1535 1506 1602 1600 1604 1602 1601 1394 1217 1478 1388 1031 1301 926 1192 1285 1196 1432 1257 1162 1258 1135 1185 1284 1196 1189 1192 952 950 1295 953 950 1275 1234 1234 1241 1239 1302 1217 1238 1308 1208 1509 1507 1601 1600 1402 1216 1216 1036 942 1031 1619 1622 1128 1528 1528 1486 1592 1610 1490 1491 1285 1130 1285 1122 1128 1411 1392 1408 1503 1505 1230 1512 1199 1139 1395 1601 1219 1048 1126 1400 1407 1505 1215 1310 1207 1587 1494 1211 1217 1217 1114 1205 1202 1502 1367 1422 1440 1423 1291 1306 1182 1505 1503 1182 1597 1497 1495 1309 1402 1589 1320 1318 1296 1320 1329 1495 1402 1295 1384 1614 1304 1215 1122 1380 1383 1283 1461 1476 1378 1474 1578 1480 1575 1575 1573 1325 1320 1321 1317 1549 1303 1208 1303 1302 1303 1318 1313 1315 1578 1305 1305 1498 1487 1404 1404 1401 1190 1197 1311 1312 1411 1109 1309 1311 1310 1213 930 1207 1195 1402 994 1421 995 1343 1339 1223 1206 1224 1222 1001 1427 1242 1238 1217 1238 1315 1321 1222 1318 1129 1135 1137 953 947 1136 1059 1591 1322 1321 1222 1308 1147 1217 1126 1311 1488 1487 1393 1488 1091 1399 1214 1097 1387 1121 1008 904 915 910 824 1195 1341 1032 1329 1327 1110 1013 1013 828 1009 1130 1315 1297 1131 1127 1114 1015 1023 1137 1111 1184 1303 1396 1186 1095 1110 1103 1101 1104 1209 1099 1103 1013 905 906 1491 1028 1489 1576 1304 1218 1213 1214 1216 1216 1474 1571 1294 910 1571 1028 920 1027 1122 1114 1016 931 1016 831 1020 1327 1440 1377 1048 1277 897 895 896 895 893 1278 1279 1282 1279 1042 1492 1488 1487 1301 1403 938 924 1123 848 1122 1007 1215 1120 927 1119 1494 1487 1490 1028 1395 1384 1390 1393 1285 1389 1390 1185 1369 1280 1370 972 1152 1124 756 755 1117 1124 1115 1123 1111 1035 1139 1286 1137 1233 1293 1389 997 1297 1475 923 1186 918 827 1291 746 754 657 757 661 1016 815 921 629 925 1202 1197 1198 1200 1105 1114 1118 931 1118 1122 1199 920 919 918 830 1197 1295 1290 1384 1289 908 1110 1123 1013 1013 1529 1438 1410 1528 1313 1579 1573 1576 1577 1298 922 922 929 923 926 1017 1106 1291 1200 1292 629 629 629 1407 897 1214 1215 1228 1119 1027 1103 1010 1200 921 1012 1011 1013 1016 1012 1017 1396 1390 1400 1391 911 1001 1482 1290 1391 1106 1299 1331 1239 923 1297 1209 1032 1330 1034 1032 1202 1297 1296 1107 1205 1106 1108 1007 1105 1007 1213 1216 1405 1128 937 907 814 955 908 909 1020 1113 1004 1014 1006 842 1214 1307 1309 737 937 1296 1301 1300 1225 818 824 733 717 732 1296 1388 1282 1289 1285 1014 1120 1016 941 940 908 631 723 813 907 1214 1490 1214 1116 1491 1397 1196 1206 1395 1112 920 1016 1109 1109 1107 1293 1289 1292 1104 1191 1295 1318 1120 1415 1413 845 663 844 845 851 445 445 445 446 446 914 665 755 943 910 1100 1114 817 1195 814 1093 1379 1097 1282 1102 1110 826 918 1206 928 1219 1300 1296 1297 733 828 834 923 838 1019 1031 1031 940 1032 1130 1032 850 929 851 929 1089 1205 1200 1010 1206 809 900 720 810 1398 1110 1013 928 631 926 732 646 739 644 735 911 1284 821 636 1291 999 907 910 1382 907 1026 821 733 744 1131 1000 914 721 1101 1004 733 913 915 829 643 1308 1292 1481 1387 1479 1097 1094 1186 1100 915 1118 1013 918 1114 1107 744 1129 549 905 1208 920 1030 740 651 646

Tree=0
num_leaves=15
num_cat=0
split_feature=46 55 67 36 78 57 75 15 27 35 67 36 25 46
split_gain=2269.27 996.651 506.539 318.433 170.81 103.126 94.0414 66.9637 57.1022 72.7701 45.1875 65.0096 14.3406 24.6423
threshold=16720.000000000004 6144.0000000000009 1.0000000180025095e-35 1.0000000180025095e-35 768.00000000000011 1.0000000180025095e-35 1.0000000180025095e-35 260.00000000000006 1280.0000000000002 8.0000000000000018 1.0000000180025095e-35 1.0000000180025095e-35 1.0000000180025095e-35 1.0000000180025095e-35
decision_type=2 2 2 2 2 2 2 2 2 2 2 2 2 2
left_child=1 7 3 5 -3 -2 -7 8 9 -1 11 -9 13 -10
right_child=2 4 -4 -5 -6 6 -8 10 12 -11 -12 -13 -14 -15
leaf_value=0.11814831344660567 0.11748296400446803 0.11854750196883079 0.11710205660326939 0.11958451577366698 0.15640731730859225 0.12427847125835059 0.15718783103496403 0.15134673064834117 0.11709584740198616 0.15689367520371983 0.11727222131026514 0.1174000072820416 0.11773051201354749 0.12825086763282442
leaf_weight=10.417621478438377 6.7177302092313758 13.371098279953001 38.81355232000351 24.904019594192505 102.72048386931419 8.7317061275243741 505.41539753973484 17.435087203979496 42.048015013337135 8.881573885679245 12.440241128206251 8.2105591446161252 446.19255247712135 38.946132615208626
leaf_count=42 27 54 156 101 473 36 2333 79 169 41 50 33 1798 163
internal_value=0.137412 0.125275 0.151958 0.154442 0.152025 0.156114 0.156624 0.11996 0.119066 0.136034 0.132836 0.1404 0.118447 0.122428
internal_weight=1285.25 700.663 584.582 545.769 116.092 520.865 514.147 584.572 546.486 19.2992 38.0859 25.6456 527.187 80.9941
internal_count=5555 2902 2653 2497 527 2396 2369 2375 2213 83 162 112 2130 332
is_linear=0
shrinkage=1


Tree=1
num_leaves=15
num_cat=0
split_feature=46 55 64 36 78 57 75 27 35 18 68 35 54 37
split_gain=2224.18 975.693 496.794 312.454 167.575 101.205 92.3351 49.0866 72.1882 28.9468 45.8396 72.2586 89.1243 12.5197
threshold=16720.000000000004 6144.0000000000009 1.0000000180025095e-35 1.0000000180025095e-35 768.00000000000011 1.0000000180025095e-35 1.0000000180025095e-35 1280.0000000000002 8.0000000000000018 1.0000000180025095e-35 2304.0000000000005 5.5000000000000009 1.0000000180025095e-35 6.5000000000000009
decision_type=2 2 2 2 2 2 2 2 2 2 2 2 2 2
left_child=1 7 3 5 -3 -2 -7 8 -1 10 11 13 -13 -9
right_child=2 4 -4 -5 -6 6 -8 9 -10 -11 -12 12 -14 -15
leaf_value=-0.020156331271535027 -0.020788916323706323 -0.019735869166883527 -0.02116216428001081 -0.018710885211481593 0.017745222491500335 -0.01407451474037724 0.018519971875905598 -0.019605906146229736 0.018229673606831788 -0.020669124199190429 -0.021217080339354023 -0.021096541589473185 0.0082635189452725365 -0.0082661659175901677
leaf_weight=10.680362269282341 6.7267621457576743 13.388235598802565 38.866603910923004 24.934400543570518 102.58524851500988 8.7398600429296476 504.71919590234756 63.876549437642097 8.8695437163114548 350.29079936444759 93.923688769340515 15.691688194870947 29.810853525996208 12.119142547249792
leaf_count=43 27 54 156 101 473 36 2333 258 41 1409 377 63 133 51
internal_value=-0.00108333 -0.0130883 0.01333 0.0157945 0.0133964 0.0174537 0.0179606 -0.0183395 -0.00268605 -0.0188781 -0.015953 -0.0118612 -0.00186352 -0.0178239
internal_weight=1285.22 701.236 583.987 545.12 115.973 520.186 513.459 585.263 19.5499 565.713 215.422 121.498 45.5025 75.9957
internal_count=5555 2902 2653 2497 527 2396 2369 2375 84 2291 882 505 196 309
is_linear=0
shrinkage=0.01


Tree=2
num_leaves=15
num_cat=0
split_feature=30 16 35 77 56 36 75 27 35 25 35 79 17 29
split_gain=2076.5 882.512 533.254 401.256 250.141 139.381 93.2274 35.2165 86.8522 18.1129 13.0046 8.30287 7.08409 5.23997
threshold=6144.0000000000009 390.00000000000006 5.5000000000000009 18432.000000000004 768.00000000000011 1.0000000180025095e-35 1.0000000180025095e-35 1280.0000000000002 8.0000000000000018 12.500000000000002 5.5000000000000009 1213440.0000000002 5.5000000000000009 7448.0000000000009
decision_type=2 2 2 2 2 2 2 2 2 2 2 2 2 2
left_child=1 7 12 -4 -2 -5 -6 8 -1 10 13 -11 -3 -9
right_child=4 2 3 5 6 -7 -8 9 -10 11 -12 -13 -14 -15
leaf_value=-0.020372941101091925 -0.020849148196265616 -0.011602272564097982 -0.02003264524885218 0.017767388641070456 -0.014021210691638267 -0.020861734429855557 0.018317262517214012 -0.020544671354855382 0.01807650768771854 -0.020295694089202371 -0.00537158885592132 -0.01197667780511417 -0.020282780029024484 -0.014116121958960653
leaf_weight=16.924041256308556 17.458326876163483 12.04082180559635 36.776200607419014 189.63820357620716 9.0007819682359678 9.7193537056446058 426.48847460746765 22.159339219331741 8.8561639636755007 398.731804266572 13.168692156672476 13.504180580377577 71.874011725187302 38.62611597776413
leaf_count=68 70 50 148 876 37 39 1974 89 41 1603 56 56 289 159
internal_value=-0.00107274 -0.0104526 0.00257031 0.0102677 0.0161534 0.0158696 0.0176435 -0.0185945 -0.00710712 -0.0192 -0.0145468 -0.0200286 -0.0190644 -0.016506
internal_weight=1284.97 832.019 320.049 236.134 452.948 199.358 435.489 511.97 25.7802 486.19 73.9541 412.236 83.9148 60.7855
internal_count=5555 3474 1402 1063 2081 915 2011 2072 109 1963 304 1659 339 248
is_linear=0
shrinkage=0.01


Tree=3
num_leaves=15
num_cat=0
split_feature=46 55 64 40 78 75 35 63 15 27 29 64 40 25
split_gain=2138.99 935.449 478.781 212.711 161.84 100.069 72.0949 71.0117 63.0254 53.4018 68.5403 43.0035 47.9237 13.2848
threshold=16720.000000000004 6144.0000000000009 1.0000000180025095e-35 1.0000000180025095e-35 768.00000000000011 1.0000000180025095e-35 8.0000000000000018 3.240168690681458 260.00000000000006 1280.0000000000002 1.0000000180025095e-35 1085.0000000000002 1.0000000180025095e-35 1.0000000180025095e-35
decision_type=2 2 2 2 2 2 2 2 2 2 2 2 2 2
left_child=1 8 3 5 -3 -2 -5 -7 9 10 -1 12 -10 -11
right_child=2 4 -4 6 -6 7 -8 -9 11 13 -12 -13 -14 -15
leaf_value=0.017927305253877229 -0.014440507824130399 -0.019366723399865657 -0.02072188313266175 -0.017639639915647234 0.017446039999371978 -0.012590374820080914 0.016686197621070011 0.018195898023610654 0.011867832625902533 -0.015578046370622909 -0.019692154852512217 -0.020611122485012404 -0.016742030558150451 -0.020096706795180712
leaf_weight=8.8414767831563967 9.7539338618516904 13.410977885127066 38.941780909895897 24.65812636911869 102.27017426490784 7.503363922238349 8.0124727338552457 493.66682676970959 16.792014226317409 81.201918110251427 10.451828956604002 12.478639230132101 8.8507063239812833 447.66487246751785
leaf_count=41 40 54 156 100 473 31 37 2289 76 332 42 50 36 1798
internal_value=-0.00106246 -0.0128179 0.013101 0.0155292 0.0131566 0.0171117 -0.00916548 0.0177306 -0.0179461 -0.0188115 -0.0023973 -0.00545876 0.00192748 -0.0194079
internal_weight=1284.5 701.963 582.537 543.595 115.681 510.924 32.6706 501.17 586.281 548.16 19.2933 38.1214 25.6427 528.867
internal_count=5555 2902 2653 2497 527 2360 137 2320 2375 2213 83 162 112 2130
is_linear=0
shrinkage=0.01


Tree=4
num_leaves=15
num_cat=0
split_feature=46 55 64 36 75 57 75 15 27 29 64 36 90 63
split_gain=2097.6 916.323 469.811 296.429 158.098 96.2472 87.2069 61.6521 52.2289 67.2144 42.1145 61.4643 12.8832 8.56797
threshold=16720.000000000004 6144.0000000000009 1.0000000180025095e-35 1.0000000180025095e-35 1.0000000180025095e-35 1.0000000180025095e-35 1.0000000180025095e-35 260.00000000000006 1280.0000000000002 1.0000000180025095e-35 1085.0000000000002 1.0000000180025095e-35 3328.0000000000005 0.41488125920295721
decision_type=2 2 2 2 2 2 2 2 2 2 2 2 2 2
left_child=1 7 3 5 -3 -2 -7 8 9 -1 11 -9 -6 -10
right_child=2 4 -4 -5 12 6 -8 10 13 -11 -12 -13 -14 -15
leaf_value=0.017781921109305553 -0.020222190079149903 -0.020405610572468362 -0.020500999867382626 -0.01816448200461114 0.018081630785528074 -0.013570398983749364 0.018069006067307145 0.012585905205745197 -0.020584189926597909 -0.019484114398995663 -0.020391600214594682 -0.020396603188376463 0.0037871325764632204 -0.01792774577694425
leaf_weight=8.825523719191553 6.7428146600723258 12.487617671489714 38.968669131398201 24.992851987481117 96.020394951105118 8.7607807517051679 502.20713995397091 17.394443199038509 252.53678131103516 10.458823457360266 12.487874135375021 8.2383668273687345 7.0047696381807318 276.68597237765789
leaf_count=41 27 50 156 101 446 36 2333 79 1011 42 50 33 31 1119
internal_value=-0.00105239 -0.0126865 0.0129893 0.0153993 0.0130441 0.0170247 0.017522 -0.0177562 -0.0186117 -0.00237389 -0.00540487 0.00190842 0.017124 -0.0192009
internal_weight=1283.81 702.141 581.672 542.704 115.513 517.711 510.968 586.628 548.507 19.2843 38.1207 25.6328 103.025 529.223
internal_count=5555 2902 2653 2497 527 2396 2369 2375 2213 83 162 112 477 2130
is_linear=0
shrinkage=0.01


Tree=5
num_leaves=15
num_cat=0
split_feature=46 55 64 36 75 57 75 25 35 53 44 37 88 27
split_gain=2029.26 889.449 491.509 274.279 167.585 101.265 85.6175 43.149 55.7455 55.4124 24.8759 15.3999 8.32329 8.31443
threshold=16720.000000000004 6144.0000000000009 1.0000000180025095e-35 1.0000000180025095e-35 1.0000000180025095e-35 1.0000000180025095e-35 1.0000000180025095e-35 12.500000000000002 5.5000000000000009 183.00000000000003 809864.50000000012 6.5000000000000009 55296.000000000007 1280.0000000000002
decision_type=2 2 2 2 2 2 2 2 2 2 2 2 2 2
left_child=1 7 3 5 -3 -2 -7 8 11 -10 -11 -1 -6 -9
right_child=2 4 -4 -5 12 6 -8 13 9 10 -12 -13 -14 -15
leaf_value=-0.0190106001524568 -0.020027009375074813 -0.0202129932838555 -0.020289011938896952 -0.017248707736536896 0.01793925876821097 -0.013427286929671614 0.017923273517788593 -0.010406394790790838 -0.020236216891268029 0.0095756622636287373 -0.010885507212941483 -0.0068075384029897615 0.0060720957492684862 -0.019260010497861385
leaf_weight=71.311699017882347 7.2466178834438315 13.493795916438101 41.98642760515213 24.691213816404343 94.545969471335411 8.7650004774332029 486.60432530939579 11.754495814442633 13.242829248309134 22.469500750303272 7.9359027892351142 12.583529710769652 6.7213588058948508 457.59192471206188
leaf_count=287 29 54 168 100 440 36 2265 49 53 101 33 53 30 1839
internal_value=-0.00147506 -0.0127324 0.0125953 0.0152189 0.0127504 0.016819 0.0173639 -0.0176348 -0.0124353 -0.00323134 0.00418428 -0.0172024 0.0171682 -0.0190427
internal_weight=1280.94 711.651 569.294 527.307 114.761 502.616 495.369 596.89 127.543 43.6482 30.4054 83.8952 101.267 469.346
internal_count=5537 2939 2598 2430 524 2330 2301 2415 527 187 134 340 470 1888
is_linear=0
shrinkage=0.01


Tree=6
num_leaves=15
num_cat=0
split_feature=46 55 67 36 75 55 75 15 67 36 25 46 53 63
split_gain=1990.5 871.54 482.449 269.348 164.523 95.9395 87.527 61.246 43.3075 51.3658 25.4397 36.5071 51.724 36.7906
threshold=16720.000000000004 6144.0000000000009 1.0000000180025095e-35 1.0000000180025095e-35 1.0000000180025095e-35 1.0000000180025095e-35 1.0000000180025095e-35 260.00000000000006 1.0000000180025095e-35 1.0000000180025095e-35 12.500000000000002 1.0000000180025095e-35 183.00000000000003 5.8626928329467782
decision_type=2 2 2 2 2 2 2 2 2 2 2 2 2 2
left_child=1 7 3 5 -3 -2 -7 10 9 -9 11 -1 -13 -14
right_child=2 4 -4 -5 -6 6 -8 8 -10 -11 -12 12 13 -15
leaf_value=-0.020056873441839637 -0.019806706588452679 -0.020005760290235833 -0.020081429036752425 -0.017070552724942845 0.017031195666332166 -0.013481284727729271 0.017782035984600427 0.011238639839206657 -0.020015707008612226 -0.020016913157801391 -0.019332805291962463 -0.020173246128914614 0.016091904580060708 -0.006976122824949701
leaf_weight=49.455644845962524 6.9990743696689597 13.498249039053915 41.997211247682571 24.700406417250633 101.06420043110847 9.0182500779628736 485.57053935527802 18.347728639841083 12.99731186032295 7.2458330094814292 453.4677476733923 21.743991300463676 9.554267153143881 24.237331286072731
leaf_count=198 28 54 168 100 470 37 2265 83 52 29 1820 87 44 102
internal_value=-0.00146154 -0.0126058 0.0124914 0.0150959 0.012645 0.016685 0.0172074 -0.0174539 -0.00521739 0.00230744 -0.0182966 -0.0137977 -0.00817982 -0.000396106
internal_weight=1279.9 711.612 568.285 526.288 114.562 501.588 494.589 597.05 38.5909 25.5936 558.459 104.991 55.5356 33.7916
internal_count=5537 2939 2598 2430 524 2330 2302 2415 164 112 2251 431 233 146
is_linear=0
shrinkage=0.01


Tree=7
num_leaves=15
num_cat=0
split_feature=30 16 40 77 56 75 37 27 37 18 64 39 37 77
split_gain=1872.16 800.799 483.717 373.529 237.431 89.8632 71.0074 30.9563 80.7065 16.1729 37.3301 42.3711 14.9911 14.4084
threshold=6144.0000000000009 390.00000000000006 1.0000000180025095e-35 18432.000000000004 768.00000000000011 1.0000000180025095e-35 6.5000000000000009 1280.0000000000002 9.5000000000000018 1.0000000180025095e-35 526.00000000000011 5.5000000000000009 4.5000000000000009 51200.000000000007
decision_type=2 2 2 2 2 2 2 2 2 2 2 2 2 2
left_child=1 7 3 -3 -2 -6 -4 8 -1 10 11 12 -9 -13
right_child=4 2 6 -5 5 -7 -8 9 -10 -11 -12 13 -14 -15
leaf_value=-0.019025798103108046 -0.019398714619174622 -0.018966073423153967 -0.018591827753641602 0.017148576842195128 -0.01406991151602875 0.01759888640114993 0.0065535414854100736 -0.01757608987419864 0.017590353246709569 -0.019481626625400469 -0.019982822192359112 -0.0066186118688509789 -0.0067285824990676634 0.01180888414937311
leaf_weight=18.433738380670547 18.717407241463661 34.11308154463768 87.994897276163101 175.39744763076305 9.0553738176822645 409.0797768086195 12.756233662366865 43.555917665362358 8.8000157773494738 333.63157331943512 91.496057227253914 7.6009491980075863 18.734992623329163 9.2662325352430326
leaf_count=74 75 137 354 818 37 1912 57 176 41 1337 366 32 79 42
internal_value=-0.00144841 -0.0101658 0.00259714 0.0112573 0.0153455 0.0169075 -0.0153949 -0.0176168 -0.00713641 -0.0181793 -0.0156175 -0.0105402 -0.0143456 0.0034558
internal_weight=1278.63 841.781 310.262 209.511 436.853 418.135 100.751 531.519 27.2338 504.286 170.654 79.1581 62.2909 16.8672
internal_count=5537 3513 1366 955 2024 1949 411 2147 115 2032 695 329 255 74
is_linear=0
shrinkage=0.01


Tree=8
num_leaves=15
num_cat=0
split_feature=46 55 66 36 75 57 75 15 66 36 25 46 53 63
split_gain=1917.47 837.058 465.603 259.969 158.917 96.0827 81.0556 58.7344 41.6715 49.6934 24.3468 35.3209 50.171 35.5262
threshold=16720.000000000004 6144.0000000000009 10240.000000000002 1.0000000180025095e-35 1.0000000180025095e-35 1.0000000180025095e-35 1.0000000180025095e-35 260.00000000000006 1.0000000180025095e-35 1.0000000180025095e-35 12.500000000000002 1.0000000180025095e-35 183.00000000000003 5.8626928329467782
decision_type=2 2 2 2 2 2 2 2 2 2 2 2 2 2
left_child=1 7 3 5 -3 -2 -7 10 9 -9 11 -1 -13 -14
right_child=2 4 -4 -5 -6 6 -8 8 -10 -11 -12 12 13 -15
leaf_value=-0.019689632803866344 -0.019447659125738707 -0.019644787818483646 -0.019700126541855718 -0.016729121253669023 0.016763605017444054 -0.01297573590907377 0.017515208444667738 0.01106757643863733 -0.019634648961191405 -0.019679504072992432 -0.018950075926614636 -0.019815750542454536 0.015894728192665634 -0.0067949974149657576
leaf_weight=49.463846951723099 7.2495703101158133 13.499271020293234 41.992951571941376 24.706738069653511 100.61716060340405 8.7728671133518201 483.3484068363905 18.311953276395801 12.997988089919088 7.2483209967613211 453.46056777238846 21.747975572943687 9.5275626331567747 24.246693417429924
leaf_count=198 29 54 168 100 470 36 2265 83 52 29 1820 87 44 102
internal_value=-0.00143555 -0.0123675 0.0122956 0.0148645 0.0124345 0.0164327 0.0169671 -0.0171113 -0.00512206 0.00226671 -0.0179363 -0.013534 -0.00800655 -0.000336782
internal_weight=1277.19 711.121 566.071 524.078 114.116 499.371 492.121 597.005 38.5583 25.5603 558.447 104.986 55.5222 33.7743
internal_count=5537 2939 2598 2430 524 2330 2301 2415 164 112 2251 431 233 146
is_linear=0
shrinkage=0.01


Tree=9
num_leaves=15
num_cat=0
split_feature=46 55 64 36 75 55 75 15 27 29 64 36 25 46
split_gain=1881.75 820.648 457.227 255.402 156.076 91.0495 82.921 57.5378 44.817 66.1955 40.853 48.7387 12.7778 20.6509
threshold=16720.000000000004 6144.0000000000009 1.0000000180025095e-35 1.0000000180025095e-35 1.0000000180025095e-35 1.0000000180025095e-35 1.0000000180025095e-35 260.00000000000006 1280.0000000000002 1.0000000180025095e-35 1085.0000000000002 1.0000000180025095e-35 1.0000000180025095e-35 1.0000000180025095e-35
decision_type=2 2 2 2 2 2 2 2 2 2 2 2 2 2
left_child=1 7 3 5 -3 -2 -7 8 9 -1 11 -9 13 -10
right_child=2 4 -4 -5 -6 6 -8 10 12 -11 -12 -13 -14 -15
leaf_value=0.017428091259690599 -0.019240950277741978 -0.019454258668033457 -0.019509966460078364 -0.016563565195860653 0.016635703331696849 -0.013037302852213377 0.017384230169229617 0.010969289338375534 -0.019672841539731947 -0.018698681939125925 -0.019444339990973697 -0.019485651586328499 -0.01898287095193027 -0.0095453305088526782
leaf_weight=8.7743721902370471 6.9978692829608908 13.496156975626944 41.979264378547668 24.705154478549957 100.37879283726215 9.0235161781311017 482.12705893814564 18.292266845703129 40.740262895822525 11.714642465114592 12.994944050908087 7.248220592737197 455.50494769215584 41.569721966981888
leaf_count=41 28 54 168 100 470 37 2265 83 163 47 52 29 1827 173
internal_value=-0.00142309 -0.012251 0.0121993 0.0147504 0.0123363 0.0163084 0.0168207 -0.0169451 -0.0177616 -0.0031694 -0.00507455 0.00224509 -0.018315 -0.014588
internal_weight=1275.55 710.714 564.833 522.854 113.875 498.148 491.151 596.839 558.304 20.489 38.5354 25.5405 537.815 82.31
internal_count=5537 2939 2598 2430 524 2330 2302 2415 2251 88 164 112 2163 336
is_linear=0
shrinkage=0.01


Tree=10
num_leaves=15
num_cat=0
split_feature=46 55 64 36 75 75 63 15 64 36 25 46 53 36
split_gain=1872.31 830.637 438.734 271.97 146.216 100.711 60.0221 52.828 42.0421 52.0752 20.8213 28.3528 45.5321 94.9427
threshold=16720.000000000004 6144.0000000000009 1.0000000180025095e-35 1.0000000180025095e-35 1.0000000180025095e-35 1.0000000180025095e-35 3.240168690681458 260.00000000000006 1085.0000000000002 1.0000000180025095e-35 12.500000000000002 1.0000000180025095e-35 1.0000000180025095e-35 1.0000000180025095e-35
decision_type=2 2 2 2 2 2 2 2 2 2 2 2 2 2
left_child=1 7 3 5 -3 -2 -7 10 9 -9 11 -1 -13 -14
right_child=2 4 -4 -5 -6 6 -8 8 -10 -11 -12 12 13 -15
leaf_value=-0.019119771744840957 -0.014587873364740425 -0.019253996359779601 -0.019324501689481518 -0.016905105540079166 0.016528833725875457 -0.011534872511360579 0.01725615324273027 0.010627628962125511 -0.01930449870444377 -0.01931859943015303 -0.018511953626669544 -0.019514447644104628 0.01467497375027968 -0.018862751159830018
leaf_weight=48.405278995633125 10.305372774600981 12.740943327546118 40.958781480789185 25.982330858707428 102.4654473811388 7.2422762364149085 492.93729619681835 18.953904420137409 14.98841619491577 8.2460816204547864 452.74790439009666 22.739411056041718 17.719109103083611 15.93135356903076
leaf_count=194 42 51 164 105 481 30 2322 86 60 33 1819 91 81 64
internal_value=-0.00121318 -0.0120302 0.0121779 0.0145881 0.0125496 0.016196 0.0168351 -0.0167549 -0.00591205 0.00147484 -0.0175724 -0.0134897 -0.00861391 -0.00118222
internal_weight=1292.36 714.938 577.426 536.467 115.206 510.485 500.18 599.731 42.1884 27.2 557.543 104.795 56.3899 33.6505
internal_count=5623 2960 2663 2499 532 2394 2352 2428 179 119 2249 430 236 145
is_linear=0
shrinkage=0.01


Tree=11
num_leaves=15
num_cat=0
split_feature=46 55 64 36 75 75 53 25 46 36 53 87 79 74
split_gain=1838.01 814.644 430.961 267.249 143.644 99.0044 54.5735 33.6679 42.8465 63.4123 107.337 13.4677 9.40428 20.7739
threshold=16720.000000000004 6144.0000000000009 1.0000000180025095e-35 1.0000000180025095e-35 1.0000000180025095e-35 1.0000000180025095e-35 1038.5000000000002 12.500000000000002 1.0000000180025095e-35 1.0000000180025095e-35 1.0000000180025095e-35 8642.0000000000018 1213440.0000000002 4.8068981170654306
decision_type=2 2 2 2 2 2 2 2 2 2 2 2 2 2
left_child=1 7 3 5 -3 -2 -7 8 -1 10 -10 -12 -9 -14
right_child=2 4 -4 -5 -6 6 -8 12 9 -11 11 -13 13 -15
leaf_value=-0.019074498059486588 -0.014445267513595244 -0.019074420530833025 -0.019145070749655123 -0.016742393224759473 0.016406614371444979 -0.0092363463041300227 0.01713245300659234 -0.018130542915096737 -0.019257797851884879 -0.019056948757424707 0.016956377671129955 0.0033157270587259352 0.0030465228836102894 -0.019060224490287405
leaf_weight=51.86276812851429 10.30403111875057 12.733262106776236 40.930301353335381 25.973507046699524 102.19854572415352 7.8680918216705313 490.9401171952486 452.54296109080315 18.481306582689285 28.67218866944313 17.473263010382656 12.762015774846075 6.8390710055828121 10.73710276186466
leaf_count=208 42 51 164 105 481 33 2319 1821 74 115 81 56 30 43
internal_value=-0.00120302 -0.0119207 0.0120857 0.0144797 0.0124538 0.0160775 0.0167127 -0.0165976 -0.0120345 -0.00728518 -0.000311559 0.0112617 -0.0178472 -0.0104331
internal_weight=1290.32 714.302 576.016 535.086 114.932 509.112 498.808 599.371 129.252 77.3888 48.7166 30.2353 470.119 17.5762
internal_count=5623 2960 2663 2499 532 2394 2352 2428 534 326 211 137 1894 73
is_linear=0
shrinkage=0.01


Tree=12
num_leaves=15
num_cat=0
split_feature=46 55 65 36 75 75 63 15 65 36 27 29 25 46
split_gain=1804.55 799.047 423.381 262.641 141.135 97.3385 58.3106 51.0928 40.9781 50.4825 39.6747 59.0657 12.0743 17.5815
threshold=16720.000000000004 6144.0000000000009 1.0000000180025095e-35 1.0000000180025095e-35 1.0000000180025095e-35 1.0000000180025095e-35 3.240168690681458 260.00000000000006 1085.0000000000002 1.0000000180025095e-35 1280.0000000000002 1.0000000180025095e-35 1.0000000180025095e-35 1.0000000180025095e-35
decision_type=2 2 2 2 2 2 2 2 2 2 2 2 2 2
left_child=1 7 3 5 -3 -2 -7 10 9 -9 11 -1 13 -12
right_child=2 4 -4 -5 -6 6 -8 8 -10 -11 12 -13 -14 -15
leaf_value=0.017291527647249134 -0.014305529088832477 -0.018899853412147866 -0.018970679504135331 -0.016583528947062692 0.016287135049785528 -0.011373811312715197 0.017010552703771338 0.010541709332910964 -0.019003597753899263 -0.018958534009816549 -0.019121487090799187 -0.018112051069274437 -0.018391703794110578 -0.009635447204506464
leaf_weight=8.1057575643062609 10.301623299717901 12.723334938287733 40.894588842988014 25.961118087172508 101.92089286446571 7.2387239485979071 490.14468598365784 18.929535835981373 14.970368042588232 8.237750977277754 37.431743443012238 10.94673442840576 457.2793507874012 43.041019663214684
leaf_count=38 42 51 164 105 481 30 2322 86 60 33 150 44 1838 179
internal_value=-0.00119306 -0.0118135 0.0119956 0.0143736 0.0123603 0.0159616 0.0165932 -0.0164435 -0.0057735 0.00152315 -0.0172481 -0.00298598 -0.0177508 -0.0140785
internal_weight=1288.13 713.586 574.541 533.646 114.644 507.685 497.383 598.942 42.1377 27.1673 556.805 19.0525 537.752 80.4728
internal_count=5623 2960 2663 2499 532 2394 2352 2428 179 119 2249 82 2167 329
is_linear=0
shrinkage=0.01


Tree=13
num_leaves=15
num_cat=0
split_feature=46 30 64 40 15 75 63 15 37 64 40 27 35 85
split_gain=1771.98 756.681 415.992 191.567 140.827 103.989 55.0255 49.4425 47.1189 40.8878 37.2684 30.1298 66.7867 25.1161
threshold=16720.000000000004 6144.0000000000009 1.0000000180025095e-35 1.0000000180025095e-35 172.00000000000003 1.0000000180025095e-35 3.240168690681458 260.00000000000006 4.5000000000000009 1085.0000000000002 1.0000000180025095e-35 1280.0000000000002 8.0000000000000018 0.66734611988067638
decision_type=2 2 2 2 2 2 2 2 2 2 2 2 2 2
left_child=1 7 3 5 13 -2 -7 11 -5 10 -9 12 -1 -3
right_child=2 4 -4 8 -6 6 -8 9 -10 -11 -12 -13 -14 -15
leaf_value=-0.018215705814505965 -0.015108948131528044 -0.0022528319512636432 -0.01880112545838698 -0.017242377614891481 -0.018858120342602657 -0.010342144664034545 0.016839474059724555 0.0099952111011828142 0.01105452516186663 -0.018898433454000826 -0.014570443345106534 -0.017579219813575585 0.017161933438521713 0.016751130336534768
leaf_weight=15.173138469457626 10.579698354005812 7.3694913387298575 40.851865589618683 22.784408882260326 13.453011214733122 7.4558293372392646 483.52506229281425 17.828936949372295 7.7989987730979911 15.202823072671888 9.309758856892584 529.53827646374702 8.0861496180295944 96.785045057535172
leaf_count=61 43 32 164 92 54 31 2297 81 36 61 38 2136 38 459
internal_value=-0.00118338 -0.0117093 0.0119078 0.0142702 0.0114565 0.0157527 0.0164226 -0.01629 -0.00998135 -0.00582213 0.00150885 -0.0170888 -0.00585295 0.015396
internal_weight=1285.74 712.747 572.996 532.144 117.608 501.561 490.981 595.139 30.5834 42.3415 27.1387 552.798 23.2593 104.155
internal_count=5623 2960 2663 2499 545 2371 2328 2415 128 180 119 2235 99 491
is_linear=0
shrinkage=0.01


Tree=14
num_leaves=15
num_cat=0
split_feature=46 55 64 36 75 75 63 15 64 36 27 79 25 46
split_gain=1740.15 769.243 408.776 254.3 136.654 94.0725 56.4841 49.1583 39.445 48.8361 38.122 56.9338 11.9472 17.3401
threshold=16720.000000000004 6144.0000000000009 1.0000000180025095e-35 1.0000000180025095e-35 1.0000000180025095e-35 1.0000000180025095e-35 3.240168690681458 260.00000000000006 1085.0000000000002 1.0000000180025095e-35 1280.0000000000002 768.00000000000011 1.0000000180025095e-35 1.0000000180025095e-35
decision_type=2 2 2 2 2 2 2 2 2 2 2 2 2 2
left_child=1 7 3 5 -3 -2 -7 10 9 -9 11 -1 13 -12
right_child=2 4 -4 -5 -6 6 -8 8 -10 -11 12 -13 -14 -15
leaf_value=-0.017786081882914421 -0.014024978726726523 -0.018600530855351467 -0.01863621693307678 -0.01630881750844267 0.016061861602031765 -0.011161111781580699 0.016777121202730706 0.010377464763669334 -0.018663565988494134 -0.018661917033403995 -0.018791762207941293 0.017035443616425359 -0.018068948875035337 -0.0093679762312668651
leaf_weight=10.925806507468225 10.293386042118071 12.699991166591643 40.802350893616676 25.927399069070816 101.34393230080605 7.2377441227436057 487.14125123620033 18.88798296451569 14.941194877028463 8.2256616055965406 37.36207327246666 8.0655733197927457 456.36002650856972 43.031639993190765
leaf_count=44 42 51 164 105 481 30 2322 86 60 33 150 38 1838 179
internal_value=-0.00117384 -0.011607 0.0118217 0.0141688 0.0121802 0.0157395 0.0163639 -0.0161479 -0.00567071 0.00149463 -0.0169378 -0.00293335 -0.0174308 -0.0137779
internal_weight=1283.25 711.844 571.402 530.6 114.044 504.672 494.379 597.8 42.0548 27.1136 555.745 18.9914 536.754 80.3937
internal_count=5623 2960 2663 2499 532 2394 2352 2428 179 119 2249 82 2167 329
is_linear=0
shrinkage=0.01


Tree=15
num_leaves=15
num_cat=0
split_feature=46 55 64 36 75 57 75 15 27 29 64 36 55 25
split_gain=1729.89 703.069 378.704 260.384 143.994 84.1307 77.613 57.0495 41.7731 59.0271 34.1228 50.2092 10.4518 9.20644
threshold=16720.000000000004 6144.0000000000009 1.0000000180025095e-35 1.0000000180025095e-35 1.0000000180025095e-35 1.0000000180025095e-35 1.0000000180025095e-35 260.00000000000006 1280.0000000000002 1.0000000180025095e-35 1085.0000000000002 1.0000000180025095e-35 59392.000000000007 1.0000000180025095e-35
decision_type=2 2 2 2 2 2 2 2 2 2 2 2 2 2
left_child=1 7 3 5 -3 -2 -7 8 9 -1 11 -9 -6 -10
right_child=2 4 -4 -5 12 6 -8 10 13 -11 -12 -13 -14 -15
leaf_value=0.016930920573176755 -0.01859547823639595 -0.01846605340543957 -0.0184727501640937 -0.016534050778625319 0.01671914637659112 -0.01240029281794177 0.016666127672807573 0.010505977516953648 -0.014093132161051108 -0.017648173031774125 -0.018453215947628665 -0.018507922231746347 0.0036195023974785151 -0.017867144888149868
leaf_weight=8.6781680285930651 6.9803851544857016 13.928563863039015 38.510464161634445 26.434838816523552 89.645669415593147 9.2585283219814283 478.68070393800735 19.49940820038319 81.211457997560501 11.161193072795866 11.938025757670401 8.4660372436046583 6.8149323016405097 463.15302164852619
leaf_count=41 28 56 155 107 428 38 2289 89 332 45 48 34 31 1868
internal_value=-0.00141679 -0.0117302 0.0117431 0.0139801 0.0114622 0.015615 0.0161101 -0.0159711 -0.0167889 -0.00246332 -0.00436884 0.00165226 0.0158087 -0.0173086
internal_weight=1274.36 714.496 559.865 521.354 110.389 494.92 487.939 604.107 564.204 19.8394 39.9035 27.9654 96.4606 544.364
internal_count=5589 2972 2617 2462 515 2355 2327 2457 2286 86 171 123 459 2200
is_linear=0
shrinkage=0.01


Tree=16
num_leaves=15
num_cat=0
split_feature=46 55 64 36 75 55 75 15 27 29 64 36 55 25
split_gain=1699.26 690.001 372.238 256.012 141.539 79.7091 79.282 55.9789 40.9589 57.9773 33.4942 49.2823 10.3169 9.08943
threshold=16720.000000000004 6144.0000000000009 1.0000000180025095e-35 1.0000000180025095e-35 1.0000000180025095e-35 1.0000000180025095e-35 1.0000000180025095e-35 260.00000000000006 1280.0000000000002 1.0000000180025095e-35 1085.0000000000002 1.0000000180025095e-35 59392.000000000007 1.0000000180025095e-35
decision_type=2 2 2 2 2 2 2 2 2 2 2 2 2 2
left_child=1 7 3 5 -3 -2 -7 8 9 -1 11 -9 -6 -10
right_child=2 4 -4 -5 12 6 -8 10 13 -11 -12 -13 -14 -15
leaf_value=0.016810234648046683 -0.018416541289975812 -0.018308270673364734 -0.018316622691349174 -0.016385673934235508 0.016607281755753316 -0.012454261466531724 0.016555454081491148 0.010415388397535917 -0.013961956160732161 -0.017496398574514963 -0.01829536938159124 -0.01834728770249365 0.0035860971783039683 -0.017713389118077221
leaf_weight=8.6539056599140185 6.7239306420087805 13.909073948860167 38.451477289199829 26.408507108688354 89.349172383546829 9.5026000291109067 477.07061591744423 19.473316341638569 81.155927047133446 11.146372601389883 11.921556904911993 8.4556842446327192 6.8105835765600196 462.50561986863613
leaf_count=41 27 56 155 107 428 39 2289 89 332 45 48 34 31 1868
internal_value=-0.00140578 -0.0116312 0.0116613 0.0138843 0.0113808 0.0155098 0.0159844 -0.0158324 -0.0166431 -0.00244297 -0.00433157 0.00163724 0.0157001 -0.0171579
internal_weight=1271.54 713.381 558.157 519.706 110.069 493.297 486.573 603.312 563.462 19.8003 39.8506 27.929 96.1598 543.662
internal_count=5589 2972 2617 2462 515 2355 2328 2457 2286 86 171 123 459 2200
is_linear=0
shrinkage=0.01


Tree=17
num_leaves=15
num_cat=0
split_feature=30 23 15 40 56 75 37 27 78 85 15 25 27 35
split_gain=1615.87 666.376 523.247 199.877 174.482 82.5335 53.1344 26.434 69.1959 23.3829 17.2831 8.7681 9.93756 8.00977
threshold=6144.0000000000009 395.00000000000006 204.00000000000003 1.0000000180025095e-35 768.00000000000011 1.0000000180025095e-35 6.5000000000000009 1280.0000000000002 768.00000000000011 2.4458508491516118 268.00000000000006 12.500000000000002 7936.0000000000009 5.5000000000000009
decision_type=2 2 2 2 2 2 2 2 2 2 2 2 2 2
left_child=1 7 -3 9 -2 -6 -5 8 -1 -4 11 12 -9 -12
right_child=4 2 3 6 5 -7 -8 10 -10 -11 13 -13 -14 -15
leaf_value=-0.017870348915075419 -0.017756382319409427 -0.018054464931461151 -0.0013267477303850759 -0.015649461271047022 -0.01291285123242757 0.016388062293168987 0.011053287971099281 -0.0029318880487266808 0.015845283755676398 0.0161065690688692 -0.013743836853858507 -0.017588129773848521 -0.014988847512276327 0.00028204678961216183
leaf_weight=17.846651270985603 16.104259938001633 89.190118283033371 7.936174049973487 30.962001785635948 9.7404214888811094 401.95194663107395 9.6796760410070402 7.9753308147191992 9.0940568745136279 168.30289620161057 7.5154165327548954 421.42875997722149 62.390641927719116 8.4489849358797073
leaf_count=72 65 360 35 126 40 1934 45 34 43 807 31 1705 255 37
internal_value=-0.00139503 -0.00944603 0.00231779 0.0107048 0.0144242 0.0156894 -0.00925357 -0.0161809 -0.00643587 0.0153156 -0.0166946 -0.0170285 -0.0136426 -0.00630299
internal_weight=1268.57 840.771 306.071 216.881 427.797 411.692 40.6417 534.7 26.9407 176.239 507.759 491.795 70.366 15.9644
internal_count=5589 3550 1373 1013 2039 1974 171 2177 115 842 2062 1994 289 68
is_linear=0
shrinkage=0.01


Tree=18
num_leaves=15
num_cat=0
split_feature=46 55 64 36 75 55 75 15 64 36 56 29 64 35
split_gain=1641.06 664.538 360.146 247.901 137.028 77.1477 76.8249 54.0139 32.5811 47.8768 15.4766 164.715 24.5293 47.6566
threshold=16720.000000000004 6144.0000000000009 1.0000000180025095e-35 1.0000000180025095e-35 1.0000000180025095e-35 1.0000000180025095e-35 1.0000000180025095e-35 260.00000000000006 1085.0000000000002 1.0000000180025095e-35 1.0000000180025095e-35 1.0000000180025095e-35 397.00000000000006 5.5000000000000009
decision_type=2 2 2 2 2 2 2 2 2 2 2 2 2 2
left_child=1 7 3 5 -3 -2 -7 10 9 -9 -1 -12 13 -13
right_child=2 4 -4 -5 -6 6 -8 8 -10 -11 11 12 -14 -15
leaf_value=-0.018182030724113202 -0.018106025409932339 -0.018031765531023185 -0.01802843044595635 -0.016114623960206666 0.015486904912788658 -0.012229740013386763 0.016346041689756469 0.010298501606004295 -0.01804662357982284 -0.018085011127756498 0.017474702123256424 -0.015032630582623897 -0.018136700080061689 0.0067650623727878835
leaf_weight=259.89098882675171 6.7067604213953009 13.868013575673102 38.320200607180595 26.347792103886604 95.522981777787209 9.4902588278055173 473.77575460076332 19.430128648877147 11.889411166310309 8.4343367218971235 14.929504096508024 57.118071883916855 217.78076232969761 12.031491011381148
leaf_count=1050 27 56 155 107 459 39 2289 89 48 34 70 233 880 53
internal_value=-0.00138442 -0.0114428 0.0115056 0.0137025 0.0112159 0.0153109 0.0157804 -0.0155664 -0.00425507 0.00163735 -0.0163642 -0.0147903 -0.0164781 -0.0112213
internal_weight=1265.54 710.896 554.641 516.321 109.391 489.973 483.266 601.505 39.7539 27.8645 561.751 301.86 286.93 69.1496
internal_count=5589 2972 2617 2462 515 2355 2328 2457 171 123 2286 1236 1166 286
is_linear=0
shrinkage=0.01


Tree=19
num_leaves=15
num_cat=0
split_feature=30 23 40 77 56 75 37 27 79 18 68 35 96 37
split_gain=1561.63 641.979 428.657 289.661 168.759 79.6863 52.7184 25.3684 66.9252 10.217 25.0986 45.7385 7.28091 6.38148
threshold=6144.0000000000009 395.00000000000006 1.0000000180025095e-35 18432.000000000004 768.00000000000011 1.0000000180025095e-35 6.5000000000000009 1280.0000000000002 768.00000000000011 1.0000000180025095e-35 2304.0000000000005 5.5000000000000009 3.9845978021621709 4.5000000000000009
decision_type=2 2 2 2 2 2 2 2 2 2 2 2 2 2
left_child=1 7 3 -3 -2 -6 -4 8 -1 10 11 13 -13 -9
right_child=4 2 6 -5 5 -7 -8 9 -10 -11 -12 12 -14 -15
leaf_value=-0.017597660493401758 -0.017458549639800886 -0.017050282768411577 -0.017043949106696505 0.015890294938247652 -0.012649493292831573 0.016180405991944161 0.0047132222727749211 -0.016157242099066035 0.015641254538291554 -0.017469406613555324 -0.017935235064409031 -0.0010136877766227096 0.012163784599856632 -0.0087626941502708458
leaf_weight=17.794712543487552 16.051410168409348 31.535449370741844 89.909553557634354 170.45550359785557 9.7144361287355405 399.07793439924717 12.586923673748968 45.908828005194664 9.0394913703203184 332.49211838841438 93.348100215196609 10.411440193653108 6.7707092761993399 17.167216047644615
leaf_count=72 65 128 365 823 40 1934 57 187 43 1349 378 45 31 72
internal_value=-0.00137419 -0.00929704 0.00228329 0.0107367 0.0142389 0.0154899 -0.0143604 -0.0159144 -0.00634702 -0.0164184 -0.0143908 -0.0102387 0.00416143 -0.0141776
internal_weight=1262.26 837.42 304.487 201.991 424.844 408.792 102.496 532.933 26.8342 506.098 173.606 80.2582 17.1821 63.076
internal_count=5589 3550 1373 951 2039 1974 422 2177 115 2062 713 335 76 259
is_linear=0
shrinkage=0.01


Tree=20
num_leaves=15
num_cat=0
split_feature=46 55 65 36 75 57 75 15 65 36 27 35 46 63
split_gain=1574.61 674.811 379.633 227.899 123.402 83.5029 60.998 50.2184 37.4451 38.0367 35.0417 54.2634 10.5091 7.84276
threshold=16720.000000000004 6144.0000000000009 1.0000000180025095e-35 1.0000000180025095e-35 1.0000000180025095e-35 1.0000000180025095e-35 1.0000000180025095e-35 260.00000000000006 1085.0000000000002 1.0000000180025095e-35 1280.0000000000002 8.0000000000000018 336.00000000000006 0.41488125920295721
decision_type=2 2 2 2 2 2 2 2 2 2 2 2 2 2
left_child=1 7 3 5 -3 -2 -7 10 9 12 11 -1 -9 -12
right_child=2 4 -4 -5 -6 6 -8 8 -10 -11 13 -13 -14 -15
leaf_value=-0.016974287402825135 -0.017874488788561963 -0.017728082489716152 -0.017765631320741503 -0.015704149212230491 0.015412378001666288 -0.010414509235751076 0.016145491794462806 5.1714610796856906e-05 -0.017807873746040655 -0.017777261758345552 -0.017896981170469044 0.016308796870341771 0.015361419134508825 -0.015380350801262486
leaf_weight=11.566332638263702 7.4299031943082801 12.582706227898596 41.37185774743557 25.030591413378716 97.70941162109375 8.6958534866571409 478.92905467748642 7.2859764099121156 13.574626699090002 6.680286392569541 252.23696054518223 8.3302375674247742 12.135401740670202 282.91349191963673
leaf_count=47 30 51 168 102 473 36 2331 32 55 27 1023 40 57 1157
internal_value=-0.00114482 -0.0110954 0.011348 0.0136688 0.0116098 0.0151588 0.0156678 -0.015309 -0.00439246 0.00258763 -0.0160867 -0.00297754 0.00969886 -0.0165715
internal_weight=1266.47 705.015 561.457 520.085 110.292 495.055 487.625 594.723 39.6763 26.1017 555.047 19.8966 19.4214 535.15
internal_count=5629 2962 2667 2499 524 2397 2367 2438 171 116 2267 87 89 2180
is_linear=0
shrinkage=0.01


Tree=21
num_leaves=15
num_cat=0
split_feature=46 30 64 36 15 57 76 15 64 36 85 62 95 64
split_gain=1547.65 642.072 373.364 224.197 124.524 82.1576 60.0632 47.86 36.7913 36.347 15.9926 13.687 148.665 19.9239
threshold=16720.000000000004 6144.0000000000009 1.0000000180025095e-35 1.0000000180025095e-35 172.00000000000003 1.0000000180025095e-35 1.0000000180025095e-35 260.00000000000006 1085.0000000000002 1.0000000180025095e-35 0.67613899707794201 805306400.00000012 2415919104.0000005 397.00000000000006
decision_type=2 2 2 2 2 2 2 2 2 2 2 2 2 2
left_child=1 7 3 5 10 -2 -7 11 9 -9 -3 -1 -13 -14
right_child=2 4 -4 -5 -6 6 -8 8 -10 -11 -12 12 13 -15
leaf_value=-0.017767842834202217 -0.017729656077977236 0.00056819330234915606 -0.017627932662032542 -0.015572322861740569 -0.01779227717729559 -0.010319498196854579 0.016046575686778305 0.0092061051477563445 -0.017762070970911516 -0.017634382946385627 0.015823615736777385 0.013350766909734612 -0.011675362839308059 -0.017785011340838416
leaf_weight=241.8381170630455 7.4165748059749594 7.5814045816659918 41.279321610927582 24.991104155778885 13.289561837911604 8.6891108900308591 477.07242400944233 19.634146556258205 13.792484939098356 6.6679393947124472 92.01691235601902 17.907939553260803 73.440042421221733 217.32169680297375
leaf_count=983 30 34 168 102 54 36 2331 90 56 27 448 83 304 883
internal_value=-0.0011366 -0.0110084 0.0112749 0.0135823 0.0108309 0.0150646 0.0155709 -0.0151856 -0.00458851 0.00232278 0.0146741 -0.0159546 -0.0145255 -0.0162498
internal_weight=1262.94 703.49 559.449 518.169 112.888 493.178 485.762 590.602 40.0946 26.3021 99.5983 550.508 308.67 290.762
internal_count=5629 2962 2667 2499 536 2397 2367 2426 173 117 482 2253 1270 1187
is_linear=0
shrinkage=0.01


Tree=22
num_leaves=15
num_cat=0
split_feature=46 55 65 36 75 57 75 15 65 36 27 24 46 25
split_gain=1521.31 650.939 367.237 220.578 119.755 80.8423 59.1494 48.4837 36.1423 36.6953 33.5484 52.7686 10.3656 8.8553
threshold=16720.000000000004 6144.0000000000009 1.0000000180025095e-35 1.0000000180025095e-35 1.0000000180025095e-35 1.0000000180025095e-35 1.0000000180025095e-35 260.00000000000006 1085.0000000000002 1.0000000180025095e-35 1280.0000000000002 11.500000000000002 336.00000000000006 9.0000000000000018
decision_type=2 2 2 2 2 2 2 2 2 2 2 2 2 2
left_child=1 7 3 5 -3 -2 -7 10 9 12 11 -1 -9 -12
right_child=2 4 -4 -5 -6 6 -8 8 -10 -11 13 -13 -14 -15
leaf_value=-0.016783973453364139 -0.017588467880730256 -0.017491110953761341 -0.017493686100249543 -0.015443259068468296 0.015222748294061578 -0.01022582300577733 0.015949829481715801 0 -0.017529334586011473 -0.017495068528332727 -0.013154876826645989 0.016116082316381106 0.015180280035995669 -0.016864272162465992
leaf_weight=11.532606258988382 7.4022232145071021 12.535706579685209 41.18139374256134 24.949007645249367 97.009383901953697 8.6819731891155225 475.17660464346409 7.2783902883529725 13.517033785581587 6.6546884924173346 80.847515165805817 8.2782126963138563 12.085403949022291 452.16508957743645
leaf_count=47 30 51 168 102 473 36 2331 32 55 27 333 40 57 1847
internal_value=-0.00112856 -0.0109232 0.0112034 0.0134977 0.0114575 0.0149723 0.0154761 -0.015065 -0.004319 0.00254655 -0.0158308 -0.00297413 0.00954005 -0.0163061
internal_weight=1259.3 701.904 557.391 516.21 109.545 491.261 483.859 592.359 39.5355 26.0185 552.823 19.8108 19.3638 533.013
internal_count=5629 2962 2667 2499 524 2397 2367 2438 171 116 2267 87 89 2180
is_linear=0
shrinkage=0.01


Tree=23
num_leaves=15
num_cat=0
split_feature=46 55 64 36 75 63 75 27 29 18 68 46 36 88
split_gain=1495.6 639.411 361.25 217.039 117.801 76.9896 58.2516 28.5069 52.3939 20.8638 36.5846 53.0573 75.9529 7.76063
threshold=16720.000000000004 6144.0000000000009 1.0000000180025095e-35 1.0000000180025095e-35 1.0000000180025095e-35 0.91535148024559032 1.0000000180025095e-35 1280.0000000000002 1.0000000180025095e-35 1.0000000180025095e-35 3328.0000000000005 1.0000000180025095e-35 1.0000000180025095e-35 55296.000000000007
decision_type=2 2 2 2 2 2 2 2 2 2 2 2 2 2
left_child=1 7 3 5 -3 -2 -7 8 -1 10 11 -9 -13 -6
right_child=2 4 -4 -5 13 6 -8 9 -10 -11 -12 12 -14 -15
leaf_value=0.01601365840713918 -0.016472196780667098 -0.017357990668184445 -0.017362768508588023 -0.015316863177173826 0.015916703552455592 -0.010133448876762883 0.015854333565652849 -0.017572221044952097 -0.016674498326556941 -0.016875343564812822 -0.01753030253164841 0.0031193640862808916 -0.018115926310348359 0.0045933115293101028
leaf_weight=8.2486363053321856 7.601020246744155 12.506438642740248 41.078256502747536 24.904388025403023 89.775780394673347 8.6744539588689786 473.02900950610638 46.937739640474319 11.753164455294607 353.05142372846603 95.824829369783401 50.02280230820179 25.235819071531296 6.8679169714450827
leaf_count=40 31 51 168 102 441 36 2330 191 48 1445 391 221 102 32
internal_value=-0.00112069 -0.0108401 0.0111335 0.0134149 0.0113841 0.0148821 0.0153823 -0.014947 -0.00313173 -0.0153585 -0.0128909 -0.00923321 -0.0040026 0.0151279
internal_weight=1255.51 700.225 555.287 514.209 109.15 489.304 481.703 591.074 20.0018 571.073 218.021 122.196 75.2586 96.6437
internal_count=5629 2962 2667 2499 524 2397 2366 2438 88 2350 905 514 323 473
is_linear=0
shrinkage=0.01


Tree=24
num_leaves=15
num_cat=0
split_feature=46 30 65 36 15 57 75 15 65 40 27 24 85 25
split_gain=1470.44 608.812 355.395 213.576 118.867 78.3442 57.3828 45.8107 35.1789 27.964 25.2731 58.1017 15.3499 9.42189
threshold=16720.000000000004 6144.0000000000009 1.0000000180025095e-35 1.0000000180025095e-35 172.00000000000003 1.0000000180025095e-35 1.0000000180025095e-35 260.00000000000006 1085.0000000000002 1.0000000180025095e-35 1280.0000000000002 11.500000000000002 0.67613899707794201 9.0000000000000018
decision_type=2 2 2 2 2 2 2 2 2 2 2 2 2 2
left_child=1 7 3 5 12 -2 -7 10 9 -9 11 -1 -3 -12
right_child=2 4 -4 -5 -6 6 -8 8 -10 -11 13 -13 -14 -15
leaf_value=-0.016741641581097276 -0.017323973945130508 0.00055056534923516004 -0.017235063247277426 -0.015193044184000255 -0.017422890058363782 -0.010042343514108739 0.015762709023424172 0.0090383254243745891 -0.01736979267849912 -0.013475765238934319 -0.012671690747171407 0.01591345263113297 0.015546760770843588 -0.016609537924269703
leaf_weight=15.631474301218988 7.3715234547853461 7.5368173569440833 40.970085710287094 24.857328191399574 13.200677365064619 8.6665652096271497 471.27453392744064 18.460493221879009 13.698650509119032 7.7336797118186942 75.236571177840233 8.2183531522750837 90.959363415837288 447.82530532777309
leaf_count=64 30 34 168 102 54 36 2331 85 56 32 311 40 448 1838
internal_value=-0.00111299 -0.0107584 0.0110651 0.0133338 0.0106277 0.0147938 0.0152927 -0.014832 -0.00443801 0.00232717 -0.0155874 -0.00542789 0.0144111 -0.0160476
internal_weight=1251.64 698.501 553.14 512.17 111.697 487.313 479.941 586.805 39.8928 26.1942 546.912 23.8498 98.4962 523.062
internal_count=5629 2962 2667 2499 536 2397 2367 2426 173 117 2253 104 482 2149
is_linear=0
shrinkage=0.01


Tree=25
num_leaves=15
num_cat=0
split_feature=46 55 64 40 75 57 75 15 46 64 27 29 40 17
split_gain=1455.82 627.365 322.172 136.643 118.064 81.8636 66.0903 43.1887 31.4109 30.4761 26.0921 47.5887 25.8586 10.4404
threshold=16720.000000000004 6144.0000000000009 1.0000000180025095e-35 1.0000000180025095e-35 1.0000000180025095e-35 1.0000000180025095e-35 1.0000000180025095e-35 260.00000000000006 17744.000000000004 1085.0000000000002 1280.0000000000002 1.0000000180025095e-35 1.0000000180025095e-35 5.5000000000000009
decision_type=2 2 2 2 2 2 2 2 2 2 2 2 2 2
left_child=1 7 3 5 -3 -2 -7 10 -5 12 11 -1 13 -9
right_child=2 4 -4 8 -6 6 -8 9 -10 -11 -12 -13 -14 -15
leaf_value=0.015791956225136027 -0.017218652091471141 -0.017159812156222875 -0.017114865941882506 0.0093196860035446132 0.015148873324475863 -0.011967319265097648 0.015649818359155746 -0.0015521311996907028 -0.014029966145693896 -0.017125574736869372 -0.015914254961910155 -0.016438222386879048 -0.012802556318477081 0.014057032660298514
leaf_weight=7.371660083532336 7.845213145017623 12.699940353631971 37.216123461723328 7.7650473266840008 96.401646062731743 8.7205963581800443 462.55721086263657 6.6196603178978028 21.197746530175209 12.929672092199324 522.05966180562973 11.701524049043654 8.4255015552043897 11.428214579820631
leaf_count=36 32 52 153 37 476 36 2297 29 88 53 2150 48 35 54
internal_value=-0.000966962 -0.0106217 0.0112412 0.0133231 0.0113666 0.0145989 0.0151342 -0.014757 -0.00772489 -0.00459879 -0.0154939 -0.00391192 0.00152312 0.00829974
internal_weight=1234.94 689.637 545.302 508.086 109.102 479.123 471.278 580.536 28.9628 39.403 541.133 19.0732 26.4734 18.0479
internal_count=5576 2933 2643 2490 528 2365 2333 2405 125 171 2234 84 118 83
is_linear=0
shrinkage=0.01


Tree=26
num_leaves=15
num_cat=0
split_feature=46 55 64 36 75 57 75 15 64 36 27 29 46 25
split_gain=1431.61 616.434 317.001 185.875 116.174 78.26 65.2288 42.4702 29.9594 35.8623 25.6121 46.793 11.0003 8.86389
threshold=16720.000000000004 6144.0000000000009 1.0000000180025095e-35 1.0000000180025095e-35 1.0000000180025095e-35 1.0000000180025095e-35 1.0000000180025095e-35 260.00000000000006 1085.0000000000002 1.0000000180025095e-35 1280.0000000000002 1.0000000180025095e-35 336.00000000000006 1.0000000180025095e-35
decision_type=2 2 2 2 2 2 2 2 2 2 2 2 2 2
left_child=1 7 3 5 -3 -2 -7 10 9 12 11 -1 -9 -12
right_child=2 4 -4 -5 -6 6 -8 8 -10 -11 13 -13 -14 -15
leaf_value=0.015695953766860695 -0.017080040025046341 -0.017034820556967173 -0.016993063368544992 -0.014443567516226012 0.015059213310874262 -0.011863283990799679 0.015586818434651159 -0.00054088407644947668 -0.01700152224853934 -0.017095219584443724 -0.012618388031512036 -0.016316057481229464 0.014836964725705616 -0.016360048381553666
leaf_weight=7.3433341383934048 7.5814505368471137 12.666096985340117 37.109301641583443 23.028480112552643 96.008415415883064 8.7100303918123227 466.69250732660294 7.51612356305123 12.894678622484205 7.3364455550909033 79.374463722109795 11.672141924500464 11.580147266387938 441.40005022287369
leaf_count=36 31 52 153 95 476 36 2328 33 53 30 329 48 55 1821
internal_value=-0.00096046 -0.0105439 0.0111736 0.0132442 0.0112972 0.0145691 0.0150794 -0.0146455 -0.00456227 0.00150949 -0.0153773 -0.00388401 0.008761 -0.0157942
internal_weight=1230.91 687.792 543.122 506.012 108.675 482.984 475.403 579.117 39.3274 26.4327 539.79 19.0155 19.0963 520.775
internal_count=5576 2933 2643 2490 528 2395 2364 2405 171 118 2234 84 88 2150
is_linear=0
shrinkage=0.01


Tree=27
num_leaves=15
num_cat=0
split_feature=30 23 15 36 63 75 77 25 35 42 15 37 38 27
split_gain=1362.19 591.672 439.926 241.29 144.208 62.2082 19.2009 16.4319 30.7552 19.5784 13.4886 10.1684 9.25551 5.66219
threshold=6144.0000000000009 395.00000000000006 204.00000000000003 1.0000000180025095e-35 2.5442651510238652 1.0000000180025095e-35 22528.000000000004 12.500000000000002 5.5000000000000009 303393.50000000006 268.00000000000006 4.5000000000000009 1.5000000000000002 1280.0000000000002
decision_type=2 2 2 2 2 2 2 2 2 2 2 2 2 2
left_child=1 7 -3 6 -2 -6 -4 8 11 -10 13 -1 -13 -9
right_child=4 2 3 -5 5 -7 -8 10 9 -11 -12 12 -14 -15
leaf_value=-0.015804398211364045 -0.016111525404766767 -0.016958002418028067 0.00062124777203362844 -0.017093285694953612 -0.011199401000910492 0.015464452312112952 0.015172058187696557 -0.0086717671470819598 0.0094223633784446259 -0.011688963781613613 -0.0019349417548031487 0.0011090804773966284 -0.014438664075630363 -0.016282168787772212
leaf_weight=59.723683431744576 15.494449660181997 81.767747566103935 9.7214280068874341 27.841477498412132 8.8378166407346708 393.05150775611401 176.13210710883141 10.973939672112463 10.467055991292002 7.4103559255599967 7.0413670241832724 7.72197277843952 7.2629576027393341 403.28175039589405
leaf_count=246 64 337 44 114 37 1968 875 47 49 31 31 34 30 1669
internal_value=-0.000954174 -0.00852204 0.00275062 0.010301 0.0137168 0.014873 0.0144171 -0.0150046 -0.0111272 0.00059955 -0.0158515 -0.0139438 -0.00640613 -0.0160851
internal_weight=1226.73 809.346 295.463 213.695 417.384 401.889 185.854 513.883 92.586 17.8774 421.297 74.7086 14.9849 414.256
internal_count=5576 3507 1370 1033 2069 2005 919 2137 390 80 1747 310 64 1716
is_linear=0
shrinkage=0.01


Tree=28
num_leaves=15
num_cat=0
split_feature=46 55 64 36 75 57 75 15 64 36 27 24 46 25
split_gain=1385.51 595.178 307.431 180.067 112.761 75.8985 63.3653 41.0687 29.2262 34.7751 24.8416 45.699 10.6974 8.68634
threshold=16720.000000000004 6144.0000000000009 1.0000000180025095e-35 1.0000000180025095e-35 1.0000000180025095e-35 1.0000000180025095e-35 1.0000000180025095e-35 260.00000000000006 1085.0000000000002 1.0000000180025095e-35 1280.0000000000002 11.500000000000002 336.00000000000006 1.0000000180025095e-35
decision_type=2 2 2 2 2 2 2 2 2 2 2 2 2 2
left_child=1 7 3 5 -3 -2 -7 10 9 12 11 -1 -9 -12
right_child=2 4 -4 -5 -6 6 -8 8 -10 -11 13 -13 -14 -15
leaf_value=-0.016118892938399073 -0.016837686198594805 -0.016819514475952108 -0.016771407356343911 -0.014213102006205352 0.014885287440629662 -0.011671484883521672 0.015417759458682434 -0.00050606975072447591 -0.016813113683694356 -0.016861251888731183 -0.012416652111701492 0.015590954034016285 0.014671323785893567 -0.016127521504444475
leaf_weight=11.620607212185861 7.5423508733510962 12.601876541972159 36.891794145107269 22.926713362336159 95.196197733283043 8.6883915811777097 462.59112620353699 7.5167180299758973 12.834775879979132 7.2998996526002875 79.103845462203026 7.3069451153278342 11.52230356633663 438.90711879730225
leaf_count=48 31 52 153 95 476 36 2328 33 53 30 329 36 55 1821
internal_value=-0.000947921 -0.0103956 0.0110456 0.0130958 0.0111575 0.0144082 0.0149139 -0.0144314 -0.00449628 0.0015087 -0.0151534 -0.00380721 0.00865561 -0.0155653
internal_weight=1222.55 683.91 538.64 501.749 107.798 478.822 471.28 576.112 39.1737 26.3389 536.939 18.9276 19.039 518.011
internal_count=5576 2933 2643 2490 528 2395 2364 2405 171 118 2234 84 88 2150
is_linear=0
shrinkage=0.01


Tree=29
num_leaves=15
num_cat=0
split_feature=46 55 64 36 76 57 76 15 64 36 27 24 46 53
split_gain=1362.91 585.005 302.596 177.282 110.985 74.7319 62.4254 40.3875 28.7378 34.1722 24.3956 44.9466 10.537 7.71144
threshold=16720.000000000004 6144.0000000000009 1.0000000180025095e-35 1.0000000180025095e-35 1.0000000180025095e-35 1.0000000180025095e-35 1.0000000180025095e-35 260.00000000000006 1085.0000000000002 1.0000000180025095e-35 1280.0000000000002 11.500000000000002 336.00000000000006 1.0000000180025095e-35
decision_type=2 2 2 2 2 2 2 2 2 2 2 2 2 2
left_child=1 7 3 5 -3 -2 -7 10 9 12 11 -1 -9 -12
right_child=2 4 -4 -5 -6 6 -8 8 -10 -11 13 -13 -14 -15
leaf_value=-0.016003749436819897 -0.016718190336145834 -0.016702559327659849 -0.016657726659487754 -0.014102911301477424 0.014800724349998948 -0.011571943987240565 0.015334368732653581 -0.00050104649028902498 -0.0166964502910469 -0.016741153730491547 -0.016817373994470683 0.015499201460369027 0.014570013239814899 -0.014280876731245555
leaf_weight=11.588054969906809 7.5211194306612006 12.564105302095411 36.773400470614433 22.875825136899948 94.785329893231392 8.6764172166585904 460.46691806614399 7.5171527117490831 12.79610402882099 7.2795642167329779 237.68717873096466 7.2774385511875144 11.487268924713133 278.88103806972504
leaf_count=48 31 52 153 95 476 36 2328 33 53 30 986 36 55 1164
internal_value=-0.00094189 -0.0103228 0.0109827 0.0130224 0.0110922 0.0143289 0.0148323 -0.0143272 -0.00446276 0.0014959 -0.0150444 -0.00378099 0.00858493 -0.015453
internal_weight=1218.18 681.863 536.314 499.54 107.349 476.664 469.143 574.514 39.0801 26.284 535.434 18.8655 19.0044 516.568
internal_count=5576 2933 2643 2490 528 2395 2364 2405 171 118 2234 84 88 2150
is_linear=0
shrinkage=0.01


Tree=30
num_leaves=15
num_cat=0
split_feature=46 55 66 36 78 57 77 15 66 36 27 29 46 25
split_gain=1351.26 557.85 302.1 200.311 107.577 69.2677 44.8026 38.3151 29.9705 35.847 25.2981 44.4094 10.674 8.75719
threshold=16720.000000000004 6144.0000000000009 10240.000000000002 1.0000000180025095e-35 768.00000000000011 1.0000000180025095e-35 6144.0000000000009 260.00000000000006 14336.000000000002 1.0000000180025095e-35 1280.0000000000002 1.0000000180025095e-35 336.00000000000006 1.0000000180025095e-35
decision_type=2 2 2 2 2 2 2 2 2 2 2 2 2 2
left_child=1 7 3 5 -3 -2 -7 10 9 12 11 -1 -9 -12
right_child=2 4 -4 -5 -6 6 -8 8 -10 -11 13 -13 -14 -15
leaf_value=0.015379898427442938 -0.016575774567483686 -0.015392794943390508 -0.016530548002894409 -0.014592842113879912 0.014593129516621626 -0.008653395859288272 0.015252384046627952 -0.00024899861360606174 -0.016648351716527336 -0.016572606241398443 -0.012268410803522607 -0.015878612056680296 0.015281124863087263 -0.015906775213268734
leaf_weight=7.4360673427581814 7.0148547142744055 13.626866161823271 37.355008214712143 25.030024975538254 92.407116234302521 7.8622657954692832 458.11421060562134 7.062547877430922 13.494574785232542 7.4885872900485984 83.601068422198296 11.314675644040106 11.203797668218611 436.75427469611168
leaf_count=37 29 57 156 104 466 33 2327 31 56 31 349 47 54 1823
internal_value=-0.00104395 -0.0103532 0.0108542 0.0129131 0.0107192 0.0143736 0.0148451 -0.0142194 -0.00462874 0.00167042 -0.0149148 -0.00341341 0.00925341 -0.0153266
internal_weight=1219.77 684.39 535.376 498.021 106.034 472.991 465.976 578.356 39.2495 25.7549 539.106 18.7507 18.2663 520.355
internal_count=5600 2951 2649 2493 523 2389 2360 2428 172 116 2256 84 85 2172
is_linear=0
shrinkage=0.01


Tree=31
num_leaves=15
num_cat=0
split_feature=30 23 15 36 56 75 79 25 35 44 15 37 15 27
split_gain=1266.65 542.77 389.183 247.336 156.906 51.4722 25.2979 18.5965 32.725 21.96 9.22831 8.65108 7.0622 4.84803
threshold=6144.0000000000009 395.00000000000006 204.00000000000003 1.0000000180025095e-35 768.00000000000011 1.0000000180025095e-35 7936.0000000000009 12.500000000000002 5.5000000000000009 315847.50000000006 260.00000000000006 4.5000000000000009 204.00000000000003 1280.0000000000002
decision_type=2 2 2 2 2 2 2 2 2 2 2 2 2 2
left_child=1 7 -3 6 -2 -6 -4 8 11 -10 13 -1 -13 -9
right_child=4 2 3 -5 5 -7 -8 10 9 -11 -12 12 -14 -15
leaf_value=-0.015205751922549526 -0.016098654969876808 -0.016298420331264229 -0.0044160770022015454 -0.016826218906899972 -0.0095955227761911552 0.015133731429665455 0.014744726742606499 -0.0085246647029030148 0.0095780618425090856 -0.012244819359648922 -0.0069527631875939888 -0.013882028984033885 -0.00077537858987129413 -0.015871739662422061
leaf_weight=59.633485913276672 17.28614966571331 79.537516176700592 7.046976536512374 30.239038601517677 8.4922777712345106 383.35176935791969 175.6687353104353 10.179385289549826 11.862552091479303 7.3913889825344077 13.117000073194502 7.6984358578920391 9.0871281027793867 394.61713308095932
leaf_count=248 72 332 31 125 36 1955 888 44 56 31 57 32 40 1653
internal_value=-0.00103746 -0.0083115 0.00255866 0.00961072 0.0132901 0.0145929 0.0139983 -0.0145034 -0.0104709 0.00112883 -0.0154214 -0.0134042 -0.00689237 -0.0156916
internal_weight=1215.21 806.079 292.492 212.955 409.13 391.844 182.716 513.587 95.673 19.2539 417.914 76.419 16.7856 404.797
internal_count=5600 3537 1376 1044 2063 1991 919 2161 407 87 1754 320 72 1697
is_linear=0
shrinkage=0.01


Tree=32
num_leaves=15
num_cat=0
split_feature=46 55 64 36 78 55 75 15 64 36 27 29 46 25
split_gain=1308.71 538.863 293.129 194.265 104.584 64.8146 45.9528 37.0469 29.3368 34.7917 24.5548 43.3711 10.3882 8.62712
threshold=16720.000000000004 6144.0000000000009 1.0000000180025095e-35 1.0000000180025095e-35 768.00000000000011 1.0000000180025095e-35 458.00000000000006 260.00000000000006 1085.0000000000002 1.0000000180025095e-35 1280.0000000000002 1.0000000180025095e-35 336.00000000000006 1.0000000180025095e-35
decision_type=2 2 2 2 2 2 2 2 2 2 2 2 2 2
left_child=1 7 3 5 -3 -2 -7 10 9 12 11 -1 -9 -12
right_child=2 4 -4 -5 -6 6 -8 8 -10 -11 13 -13 -14 -15
leaf_value=0.015278093626694876 -0.016335275379103321 -0.015215454595949401 -0.016326666048636633 -0.014378284095915721 0.014432188794291114 -0.0076912303191569147 0.01511865901065681 -0.00021028019901469706 -0.016491057313298581 -0.016358441117508653 -0.012074982721041799 -0.015695067379350443 0.015125339062585591 -0.015693706305438052
leaf_weight=7.3945945054292705 6.7306668609380713 13.557936981320379 37.10248538851738 24.899346485733986 91.573264941573143 8.8921070396900159 452.98462902009487 7.0632280111312928 13.431036815047262 7.4432406723499289 83.264437064528465 11.257302612066267 11.139173135161398 433.93549288809299
leaf_count=37 28 57 156 104 466 38 2323 31 56 31 349 47 54 1823
internal_value=-0.00103105 -0.010215 0.0107374 0.0127771 0.0105884 0.0142248 0.0146758 -0.014022 -0.00457024 0.00167385 -0.0147084 -0.00334636 0.00915126 -0.0151155
internal_weight=1210.67 680.06 530.609 493.507 105.131 468.607 461.877 574.929 39.0767 25.6456 535.852 18.6519 18.2024 517.2
internal_count=5600 2951 2649 2493 523 2389 2361 2428 172 116 2256 84 85 2172
is_linear=0
shrinkage=0.01


Tree=33
num_leaves=15
num_cat=0
split_feature=30 23 15 40 56 75 25 25 35 42 24 77 15 15
split_gain=1227.4 524.494 376.988 161.47 152.365 49.8377 25.7241 18.1339 31.878 18.183 13.9159 13.4812 9.00969 5.76272
threshold=6144.0000000000009 395.00000000000006 204.00000000000003 1.0000000180025095e-35 768.00000000000011 1.0000000180025095e-35 12.500000000000002 12.500000000000002 5.5000000000000009 256000.00000000003 8.5000000000000018 22528.000000000004 260.00000000000006 204.00000000000003
decision_type=2 2 2 2 2 2 2 2 2 2 2 2 2 2
left_child=1 7 -3 11 -2 -6 10 8 13 -10 -5 -4 -9 -1
right_child=4 2 3 6 5 -7 -8 12 9 -11 -12 -13 -14 -15
leaf_value=-0.01577312280131522 -0.01589442923602009 -0.016088974354988114 0.0014703155605141568 -0.0015919607047953305 -0.0094060962335744177 0.014979814921728229 0.0062158196011453974 -0.015484213944726672 0.0096247005419751435 -0.0099227109604350348 -0.016585070395842103 0.014453044785270359 -0.0068320934092268226 -0.010043402824496447
leaf_weight=41.753646656870842 17.180825740098953 79.013255745172501 8.6216228753328306 8.6832249313592929 8.4557034373283368 379.67289893329144 9.3444561064243299 402.10671362280846 10.926966845989229 8.2534314095973951 23.10184034705162 161.44617752730846 13.06860241293907 34.324455514550209
leaf_count=174 72 332 40 38 36 1955 45 1697 52 35 96 825 57 146
internal_value=-0.00102481 -0.00820331 0.00252738 0.00950119 0.0131516 0.0144437 -0.0082485 -0.0143056 -0.0103154 0.00115364 -0.0125384 0.013802 -0.015216 -0.0132177
internal_weight=1205.95 800.644 290.211 211.197 405.309 388.129 41.1295 510.434 95.2585 19.1804 31.7851 170.068 415.175 76.0781
internal_count=5600 3537 1376 1044 2063 1991 179 2161 407 87 134 865 1754 320
is_linear=0
shrinkage=0.01


Tree=34
num_leaves=15
num_cat=0
split_feature=46 55 64 40 78 55 75 15 64 35 25 25 46 54
split_gain=1268.01 520.739 284.534 140.411 101.703 67.3569 46.6217 35.8222 28.763 31.5298 27.9125 14.3429 27.4977 34.5511
threshold=16720.000000000004 6144.0000000000009 1.0000000180025095e-35 1.0000000180025095e-35 768.00000000000011 1.0000000180025095e-35 458.00000000000006 260.00000000000006 1085.0000000000002 5.5000000000000009 9.0000000000000018 12.500000000000002 1.0000000180025095e-35 1.0000000180025095e-35
decision_type=2 2 2 2 2 2 2 2 2 2 2 2 2 2
left_child=1 7 3 5 -3 -2 -7 11 9 -9 -5 12 -1 -14
right_child=2 4 -4 10 -6 6 -8 8 -10 -11 -12 -13 13 -15
leaf_value=-0.016234751143129941 -0.016157612073180817 -0.015044056674380267 -0.016132426872011212 -0.014447592655919821 0.01427760799605615 -0.0083167853410164808 0.014963919821313747 -0.012367563156804014 -0.016349051030015459 0.010404278768955319 0.006188441802527013 -0.015344049238401544 -0.01663248935056337 1.9576158600369342e-05
leaf_weight=53.821789726614952 7.1664376258850089 13.485364973545073 36.838192835450172 21.144488796591759 90.722109973430634 8.6570827811956388 442.64156921207905 9.725799486041069 13.368541255593298 15.809788107872009 9.3319805562496203 425.20575109124184 19.477947562932968 33.943591773509979
leaf_count=225 30 57 156 89 466 37 2292 41 56 75 45 1800 81 150
internal_value=-0.00101851 -0.0100822 0.0106249 0.0126459 0.0104628 0.0140283 0.0145134 -0.0138322 -0.00451719 0.00167769 -0.0080965 -0.01451 -0.0111825 -0.00605296
internal_weight=1201.34 675.561 525.78 488.942 104.207 458.465 451.299 571.353 38.9041 25.5356 30.4765 532.449 107.243 53.4215
internal_count=5600 2951 2649 2493 523 2359 2329 2428 172 116 134 2256 456 231
is_linear=0
shrinkage=0.01


Tree=35
num_leaves=15
num_cat=0
split_feature=46 55 64 36 78 57 75 15 27 24 64 36 25 46
split_gain=1252.67 499.828 290.696 179.829 112.114 68.3165 55.3649 35.0059 29.6939 42.4521 27.9262 30.5972 10.2278 20.4141
threshold=16720.000000000004 6144.0000000000009 1.0000000180025095e-35 1.0000000180025095e-35 768.00000000000011 1.0000000180025095e-35 1.0000000180025095e-35 260.00000000000006 1280.0000000000002 11.500000000000002 1085.0000000000002 1.0000000180025095e-35 1.0000000180025095e-35 1.0000000180025095e-35
decision_type=2 2 2 2 2 2 2 2 2 2 2 2 2 2
left_child=1 7 3 5 -3 -2 -7 8 9 -1 11 -9 13 -10
right_child=2 4 -4 -5 -6 6 -8 10 12 -11 -12 -13 -14 -15
leaf_value=-0.015279918494085392 -0.016040108004023609 -0.015508952296364576 -0.016055591022151844 -0.014061586632720103 0.014197579288584764 -0.011630409559941742 0.014876443251690654 0.0088570640514045521 -0.016474276176104877 0.015324092801488514 -0.016199634302193171 -0.016101744563491564 -0.015471845834017039 -0.0063721467120996826
leaf_weight=10.193909764289858 7.3742852807044974 14.672137647867201 38.128962889313698 24.01364441215992 90.087679117918015 7.907287895679473 453.52276186645031 17.698373273015026 41.104183062911034 7.9872453212738028 12.835258528590201 6.6729933321475974 431.19234098494053 40.139987573027611
leaf_count=43 31 62 162 101 465 33 2360 83 172 40 54 28 1830 171
internal_value=-0.000975944 -0.0100405 0.0105046 0.0125644 0.0100167 0.0139331 0.0144176 -0.0137438 -0.0144021 -0.00177015 -0.00431457 0.00194449 -0.0148479 -0.0115094
internal_weight=1203.53 672.584 530.947 492.818 104.76 468.804 461.43 567.824 530.618 18.1812 37.2066 24.3714 512.437 81.2442
internal_count=5635 2948 2687 2525 527 2424 2393 2421 2256 83 165 111 2173 343
is_linear=0
shrinkage=0.01


Tree=36
num_leaves=15
num_cat=0
split_feature=46 55 64 36 78 57 75 15 27 29 64 36 25 46
split_gain=1232.94 491.58 286.288 177.138 110.39 67.305 54.5721 34.4707 29.1905 41.7769 27.4774 30.0773 10.1605 20.1735
threshold=16720.000000000004 6144.0000000000009 1.0000000180025095e-35 1.0000000180025095e-35 768.00000000000011 1.0000000180025095e-35 1.0000000180025095e-35 260.00000000000006 1280.0000000000002 1.0000000180025095e-35 1085.0000000000002 1.0000000180025095e-35 1.0000000180025095e-35 1.0000000180025095e-35
decision_type=2 2 2 2 2 2 2 2 2 2 2 2 2 2
left_child=1 7 3 5 -3 -2 -7 8 9 -1 11 -9 13 -10
right_child=2 4 -4 -5 -6 6 -8 10 12 -11 -12 -13 -14 -15
leaf_value=0.015238525797064891 -0.015938500345455665 -0.015402871381904524 -0.015958148100840574 -0.013961146488033011 0.014123388488339729 -0.01153575352938139 0.014803927308726261 0.0087840127244872782 -0.016367515793252727 -0.015180348116269631 -0.016096968348974516 -0.015998439516085049 -0.015373940975948243 -0.0063140679356567591
leaf_weight=7.95250937342644 7.3478530943393698 14.626371845602987 37.979525104165077 23.945600867271423 89.657990887761116 7.8933397233486167 451.19899773597717 17.668088123202327 40.959944561123848 10.158996447920797 12.78882025182247 6.6496835052967063 429.60747382044792 40.105210572481155
leaf_count=40 31 62 162 101 465 33 2360 83 172 43 54 28 1830 171
internal_value=-0.000970312 -0.00997613 0.0104504 0.0125006 0.00996182 0.0138639 0.0143465 -0.0136532 -0.0143079 -0.0017586 -0.00428366 0.00192854 -0.0147506 -0.01142
internal_weight=1198.54 670.175 528.365 490.386 104.284 466.44 459.092 565.891 528.784 18.1115 37.1066 24.3178 510.673 81.0652
internal_count=5635 2948 2687 2525 527 2424 2393 2421 2256 83 165 111 2173 343
is_linear=0
shrinkage=0.01


Tree=37
num_leaves=15
num_cat=0
split_feature=46 55 64 40 78 57 75 35 15 64 35 25 46 53
split_gain=1213.62 483.507 281.968 121.377 108.699 70.388 53.607 41.1984 33.9477 27.0387 29.3483 15.8656 27.7234 42.6845
threshold=16720.000000000004 6144.0000000000009 1.0000000180025095e-35 1.0000000180025095e-35 768.00000000000011 1.0000000180025095e-35 1.0000000180025095e-35 8.0000000000000018 260.00000000000006 1085.0000000000002 5.5000000000000009 12.500000000000002 1.0000000180025095e-35 183.00000000000003
decision_type=2 2 2 2 2 2 2 2 2 2 2 2 2 2
left_child=1 8 3 5 -3 -2 -7 -5 11 10 -10 12 -1 -14
right_child=2 4 -4 7 -6 6 -8 -9 9 -11 -12 -13 13 -15
leaf_value=-0.015901642857966983 -0.015870598973258512 -0.015298877305123347 -0.015862821345697529 -0.014009429679154788 0.014050478091275038 -0.011442446328480465 0.014690193606353125 0.012719865861839333 -0.01203047813649117 -0.015996550642372181 0.010519368828865805 -0.01508829152069148 -0.016406894539522428 0.0018064609559285635
leaf_weight=51.593968108296394 7.7960661649703971 14.5794510692358 37.827048063278198 22.125170320272449 89.224698528647423 7.8790160715579978 442.46727180480957 7.6633612662553778 9.2009950429201126 12.741276383399962 15.062263429164886 422.21485866606236 21.478552982211113 31.625769421458244
leaf_count=218 33 62 162 94 465 33 2326 39 39 54 72 1807 90 141
internal_value=-0.000964788 -0.00991296 0.0103974 0.0124381 0.00990794 0.0137106 0.0142283 -0.00708008 -0.0135644 -0.00425323 0.0019128 -0.0142155 -0.0106752 -0.0055583
internal_weight=1193.48 667.722 525.758 487.931 103.804 458.142 450.346 29.7885 563.918 37.0045 24.2633 526.913 104.698 53.1043
internal_count=5635 2948 2687 2525 527 2392 2359 133 2421 165 111 2256 449 231
is_linear=0
shrinkage=0.01


Tree=38
num_leaves=15
num_cat=0
split_feature=46 30 64 36 15 62 77 15 85 64 35 27 24 25
split_gain=1194.59 470.015 277.723 172.238 95.3301 63.1126 55.2087 32.1012 27.5023 26.682 30.1878 21.9483 47.7604 10.4594
threshold=16720.000000000004 6144.0000000000009 1.0000000180025095e-35 1.0000000180025095e-35 172.00000000000003 1342177280.0000002 6144.0000000000009 260.00000000000006 0.67613899707794201 1085.0000000000002 5.5000000000000009 1280.0000000000002 11.500000000000002 1.0000000180025095e-35
decision_type=2 2 2 2 2 2 2 2 2 2 2 2 2 2
left_child=1 7 3 5 8 -2 -7 11 -3 10 -9 12 -1 -13
right_child=2 4 -4 -5 -6 6 -8 9 -10 -11 -12 13 -14 -15
leaf_value=-0.015241741642647728 -0.015719142794992192 -0.0056827469932687292 -0.015769546382630496 -0.013786305861309123 -0.016066764876544161 -0.01149749233886866 0.014663863150600417 -0.012276248895331377 0.014637630985641048 -0.016051285044514745 0.010435254181461158 -0.011060517984752792 0.015187726538834618 -0.015187019362773301
leaf_weight=14.280675217509271 7.0550015568733206 7.0972182154655448 37.671652272343636 23.812562316656113 12.669674322009085 8.102415665984152 446.5110532194376 9.4276895970106125 85.419550269842148 12.935393050312994 15.03279235959053 75.779732093214989 7.9248804599046698 424.73440928757191
leaf_count=61 30 32 162 101 54 34 2360 40 449 55 72 322 40 1823
internal_value=-0.000959261 -0.00984982 0.0103448 0.0123761 0.00953339 0.0137304 0.014193 -0.0134927 0.0130635 -0.00448808 0.00162661 -0.014134 -0.00431762 -0.0145666
internal_weight=1188.45 665.302 523.153 485.481 105.186 461.668 454.613 560.116 92.5168 37.3959 24.4605 522.72 22.2056 500.514
internal_count=5635 2948 2687 2525 535 2424 2394 2413 481 167 112 2246 101 2145
is_linear=0
shrinkage=0.01


Tree=39
num_leaves=15
num_cat=0
split_feature=46 30 64 36 15 57 75 15 85 64 35 27 24 25
split_gain=1176 462.321 273.573 169.698 93.8788 64.3968 52.283 31.6497 27.1503 26.264 29.6382 21.5735 47.011 10.4185
threshold=16720.000000000004 6144.0000000000009 1.0000000180025095e-35 1.0000000180025095e-35 172.00000000000003 1.0000000180025095e-35 1.0000000180025095e-35 260.00000000000006 0.67613899707794201 1085.0000000000002 5.5000000000000009 1280.0000000000002 11.500000000000002 1.0000000180025095e-35
decision_type=2 2 2 2 2 2 2 2 2 2 2 2 2 2
left_child=1 7 3 5 8 -2 -7 11 -3 10 -9 12 -1 -13
right_child=2 4 -4 -5 -6 6 -8 9 -10 -11 -12 13 -14 -15
leaf_value=-0.01514821542983953 -0.015647369684415241 -0.0056281956517083643 -0.015678261486497879 -0.013690588821964521 -0.01596850440268998 -0.011258562068147028 0.014595455813451286 -0.012167132964734909 0.014567684602353019 -0.015952840551440129 0.010352154769909678 -0.010972104813999873 0.015104944328906094 -0.015094777718151993
leaf_weight=14.226047828793527 7.2651208937168112 7.0953267812728873 37.513455629348755 23.7403175085783 12.62101863324642 7.8490983992815009 444.13018310070038 9.4180605411529541 84.974106967449188 12.885929405689238 15.002882570028305 75.628028720617294 7.8893552720546714 423.06556534767151
leaf_count=61 31 32 162 101 54 33 2360 40 449 55 72 322 40 1823
internal_value=-0.000953895 -0.00978833 0.0102937 0.0123159 0.00948274 0.0136651 0.0141419 -0.013406 0.012996 -0.00445433 0.00161249 -0.0140443 -0.00429141 -0.0144739
internal_weight=1183.3 662.806 520.498 482.985 104.69 459.244 451.979 558.116 92.0694 37.3069 24.4209 520.809 22.1154 498.694
internal_count=5635 2948 2687 2525 535 2424 2393 2413 481 167 112 2246 101 2145
is_linear=0
shrinkage=0.01


Tree=40
num_leaves=15
num_cat=0
split_feature=46 55 64 40 75 57 75 35 15 64 27 29 35 63
split_gain=1166.97 490.823 258.863 120.33 90.8595 61.1869 51.4769 38.3727 30.6496 27.482 25.8978 37.7674 20.3876 7.41328
threshold=16720.000000000004 6144.0000000000009 1.0000000180025095e-35 1.0000000180025095e-35 1.0000000180025095e-35 1.0000000180025095e-35 458.00000000000006 8.0000000000000018 260.00000000000006 1085.0000000000002 1280.0000000000002 1.0000000180025095e-35 5.5000000000000009 0.41488125920295721
decision_type=2 2 2 2 2 2 2 2 2 2 2 2 2 2
left_child=1 8 3 5 -3 -2 -7 -5 10 12 11 -1 -10 -12
right_child=2 4 -4 7 -6 6 -8 -9 9 -11 13 -13 -14 -15
leaf_value=0.01492356738259837 -0.015557338391331887 -0.015667404897025398 -0.01557850925696806 -0.013228544318691195 0.013885253528252445 -0.0088408649593771857 0.014515511545397977 0.013373557827390753 -0.010486646123897688 -0.01573600139725042 -0.015756394938498883 -0.014792828469591474 0.0087525537983545489 -0.01327492301140756
leaf_weight=7.4276283085346249 7.0072168260812751 11.654923275113104 35.959374040365219 23.266119644045833 89.530595228075981 9.5335550010204297 426.65814043581486 6.9390787482261649 8.4494355469942093 13.991834864020346 242.53588995337486 9.7825875580310804 15.310484737157822 272.93855513632298
leaf_count=38 30 50 156 100 473 41 2279 36 36 60 1046 42 73 1179
internal_value=-0.00116797 -0.00982495 0.0102444 0.0122109 0.0104593 0.0135278 0.0140008 -0.00706025 -0.013426 -0.00466353 -0.0140441 -0.00189786 0.00185358 -0.0144472
internal_weight=1180.99 671.622 509.363 473.404 101.186 443.199 436.192 30.2052 570.436 37.7518 532.685 17.2102 23.7599 515.474
internal_count=5639 2997 2642 2486 523 2350 2320 136 2474 169 2305 80 109 2225
is_linear=0
shrinkage=0.01


Tree=41
num_leaves=15
num_cat=0
split_feature=30 16 15 36 56 75 85 25 37 86 15 31 37 90
split_gain=1127.08 438.234 357.236 207.492 133.799 41.2768 26.6506 18.0709 28.7374 18.8816 8.53101 4.89646 4.17779 3.42917
threshold=6144.0000000000009 390.00000000000006 204.00000000000003 1.0000000180025095e-35 768.00000000000011 1.0000000180025095e-35 2.4458508491516118 12.500000000000002 4.5000000000000009 3510.0000000000005 268.00000000000006 96256.000000000015 9.5000000000000018 8960.0000000000018
decision_type=2 2 2 2 2 2 2 2 2 2 2 2 2 2
left_child=1 7 -3 6 -2 -6 -4 8 11 12 -9 -1 -10 -8
right_child=4 2 3 -5 5 -7 13 10 9 -11 -12 -13 -14 -15
leaf_value=-0.014934353462578515 -0.015113514788152704 -0.015485181013291762 -0.0048016302655281354 -0.016077796936585186 -0.0083370254105830446 0.014425719123332695 0.0066240810406506924 -0.014761434614631143 0.00088676255453271622 -0.0095070886804163365 -0.0030914619308249746 -0.0081489582469727456 0.011822911133773319 0.014454960719127859
leaf_weight=48.217644482851028 16.447267949581146 83.235625371336937 7.6441214531660071 27.859661191701889 8.0261868387460691 366.55878990888596 6.54968437552452 404.1910393089056 6.8044047504663485 13.859377086162565 6.6447546333074561 15.163334280252455 7.6128618717193604 156.94193062186241
leaf_count=206 71 360 35 118 35 1967 32 1758 30 60 30 66 38 833
internal_value=-0.0011615 -0.00807345 0.00189459 0.00917334 0.0127054 0.0139332 0.0132969 -0.0136734 -0.00960547 -0.00117709 -0.0145759 -0.0133422 0.00677201 0.0141516
internal_weight=1175.76 784.724 282.231 198.995 391.032 374.585 171.136 502.493 91.6576 28.2766 410.836 63.381 14.4173 163.492
internal_count=5639 3566 1378 1018 2073 2002 900 2188 400 128 1788 272 68 865
is_linear=0
shrinkage=0.01


Tree=42
num_leaves=15
num_cat=0
split_feature=46 55 64 36 75 55 75 15 64 27 29 35 63 53
split_gain=1131.84 474.888 251.558 162.97 88.3996 53.5234 50.1679 29.8764 26.8981 25.3174 36.8464 19.8041 7.36169 81.2079
threshold=16720.000000000004 6144.0000000000009 1.0000000180025095e-35 1.0000000180025095e-35 1.0000000180025095e-35 1.0000000180025095e-35 458.00000000000006 260.00000000000006 1085.0000000000002 1280.0000000000002 1.0000000180025095e-35 5.5000000000000009 0.41488125920295721 2066.0000000000005
decision_type=2 2 2 2 2 2 2 2 2 2 2 2 2 2
left_child=1 7 3 5 -3 -2 -7 9 11 10 -1 -9 -11 -14
right_child=2 4 -4 -5 -6 6 -8 8 -10 12 -12 -13 13 -15
leaf_value=0.014840731625094354 -0.015314157849997607 -0.015510641983348996 -0.015415066649186286 -0.012874274818514506 0.013748969311774349 -0.0081645619507257523 0.014423723084459036 -0.010313955361800513 -0.015588421802724387 -0.015583656932668282 -0.014612666114190532 0.0086753370667130535 0.022281101625255963 -0.013946149876710374
leaf_weight=7.3803834617137936 6.2490729242563239 11.570807099342344 35.652941003441811 24.639613598585129 88.609305188059807 9.9463188350200635 427.67463368177414 8.4273957759141922 13.89566397666931 240.50517661869526 9.7069537192583066 15.255314260721207 6.2284512221813193 264.7989718914032
leaf_count=38 27 50 156 106 473 43 2310 36 60 1046 42 73 30 1149
internal_value=-0.00115507 -0.00970832 0.0101479 0.0120982 0.0103474 0.0134893 0.0139063 -0.0132598 -0.00458908 -0.0138733 -0.00182061 0.00186107 -0.0142736 -0.013102
internal_weight=1170.54 666.378 504.163 468.51 100.18 443.87 437.621 566.198 37.5784 528.62 17.0873 23.6827 511.533 271.027
internal_count=5639 2997 2642 2486 523 2380 2353 2474 169 2305 80 109 2225 1179
is_linear=0
shrinkage=0.01


Tree=43
num_leaves=15
num_cat=0
split_feature=30 16 35 77 63 36 75 25 37 27 37 27 26 40
split_gain=1093.75 424.26 262.619 218.268 124.747 72.1263 41.5873 17.8033 28.0999 20.2353 4.88984 4.75326 3.89812 6.72187
threshold=6144.0000000000009 390.00000000000006 5.5000000000000009 18432.000000000004 2.5442651510238652 1.0000000180025095e-35 1.0000000180025095e-35 12.500000000000002 4.5000000000000009 7936.0000000000009 4.5000000000000009 1280.0000000000002 92416.000000000015 1.0000000180025095e-35
decision_type=2 2 2 2 2 2 2 2 2 2 2 2 2 2
left_child=1 7 10 -4 -2 -5 -6 8 12 -10 -3 -9 -1 -14
right_child=4 2 3 5 6 -7 -8 11 9 -11 -12 -13 13 -15
leaf_value=-0.014711317748390832 -0.014228510300605153 -0.014824882789224392 -0.014826867183506259 0.014066969071211827 -0.008321433320111201 -0.015996833541154588 0.01429711904216099 -0.0069570023567946107 0.010792098209998617 -0.0071151538770208543 -0.0066926903418792786 -0.014575715919066898 -0.0031361972519196859 -0.016101657790255269
leaf_weight=46.250620469450951 16.487745434045792 67.532724469900131 35.045649766921997 159.71736304461956 8.1979682743549329 8.2880081832408887 362.14501257240772 9.1528418213129026 9.3586016744375247 18.798958599567413 9.1073345988988859 398.34332078695297 9.6041999906301516 7.1445071697235099
leaf_count=199 72 294 152 857 36 35 1965 41 46 82 40 1747 43 30
internal_value=-0.00114886 -0.00797967 0.00187495 0.00783094 0.0125914 0.0125693 0.0137916 -0.0135083 -0.00946068 -0.00111088 -0.0138815 -0.0144088 -0.0131691 -0.00878897
internal_weight=1165.17 778.344 279.691 203.051 386.831 168.005 370.343 498.653 91.1569 28.1576 76.6401 407.496 62.9993 16.7487
internal_count=5639 3566 1378 1044 2073 892 2001 2188 400 128 334 1788 272 73
is_linear=0
shrinkage=0.01


Tree=44
num_leaves=15
num_cat=0
split_feature=30 16 15 36 63 75 85 25 37 27 15 27 88 63
split_gain=1077.28 417.303 341.49 199.36 122.947 41.0321 25.9227 17.6561 27.6773 19.8611 8.447 4.97925 4.11969 3.67306
threshold=6144.0000000000009 390.00000000000006 204.00000000000003 1.0000000180025095e-35 2.5442651510238652 1.0000000180025095e-35 2.4458508491516118 12.500000000000002 4.5000000000000009 7936.0000000000009 268.00000000000006 1280.0000000000002 96256.000000000015 6.4862592220306405
decision_type=2 2 2 2 2 2 2 2 2 2 2 2 2 2
left_child=1 7 -3 6 -2 -6 -4 8 12 -10 11 -9 -1 -11
right_child=4 2 3 -5 5 -7 -8 10 9 13 -12 -13 -14 -15
leaf_value=-0.014813870085840277 -0.014140911512912573 -0.015232165264342495 -0.0047757522774577498 -0.015827456006205352 -0.0082565795877386321 0.014234492652800322 0.013968773244098632 -0.0068947799592903019 0.010701602220370013 -0.0034723551130686385 -0.0028791931758202108 -0.014684814005129119 -0.008965554134751124 -0.012793410642638834
leaf_weight=43.814322710037231 16.424917668104172 82.187794208526611 7.6036912500858298 27.590840518474579 8.1806110441684705 360.11156295239925 161.02966506779194 9.1440341323614103 9.3442810922861117 11.777259051799776 6.6180553734302512 390.0523129850626 18.992957532405853 7.0044365972280493
leaf_count=189 72 360 35 118 36 1965 865 41 46 52 30 1717 83 30
internal_value=-0.00114269 -0.00793267 0.00186454 0.00903463 0.0125342 0.0137301 0.0131153 -0.013425 -0.00938979 -0.00110051 -0.0143242 -0.0145107 -0.0130783 -0.00705085
internal_weight=1159.88 775.16 278.412 196.224 384.717 368.292 168.633 496.748 90.9333 28.126 405.814 399.196 62.8073 18.7817
internal_count=5639 3566 1378 1018 2073 2001 900 2188 400 128 1788 1758 272 82
is_linear=0
shrinkage=0.01


Tree=45
num_leaves=15
num_cat=0
split_feature=46 30 66 36 15 57 75 85 15 66 35 27 35 25
split_gain=1056.67 411.755 232.085 154.011 85.3518 58.9936 50.0558 28.7969 26.8303 22.2414 26.4234 15.602 38.287 9.6354
threshold=16720.000000000004 6144.0000000000009 10240.000000000002 1.0000000180025095e-35 172.00000000000003 1.0000000180025095e-35 1.0000000180025095e-35 1.0000000180025095e-35 260.00000000000006 1.0000000180025095e-35 5.5000000000000009 1280.0000000000002 8.0000000000000018 1.0000000180025095e-35
decision_type=2 2 2 2 2 2 2 2 2 2 2 2 2 2
left_child=1 8 3 5 7 -2 -7 -3 11 10 -10 12 -1 -13
right_child=2 4 -4 -5 -6 6 -8 -9 9 -11 -12 13 -14 -15
leaf_value=-0.014646334643556982 -0.015131318964023158 -0.0074213476419501146 -0.015187004824859645 -0.013464599596672512 -0.015544983819283008 -0.010211337739209788 0.014221433566368241 0.014020930764313431 -0.011879104279653283 -0.015385809128603311 0.009372912118566723 -0.010463129498687525 0.014755864212164155 -0.014523529571511228
leaf_weight=13.014553248882295 7.0906057059764853 6.6533878147602072 33.832015708088875 22.5969467908144 12.336335629224775 8.4423954635858518 416.35714696347713 82.47237129509449 9.5878450274467468 12.611171483993528 14.64491094648838 71.944530591368675 6.5681429803371421 411.24816150963306
leaf_count=57 31 30 150 98 54 36 2286 449 41 55 71 311 34 1817
internal_value=-0.00104491 -0.00948698 0.0100358 0.0119185 0.00898268 0.0132517 0.0137312 0.0124025 -0.0129626 -0.00466793 0.000909056 -0.0135674 -0.00470901 -0.0139233
internal_weight=1129.4 641.081 488.319 454.487 101.462 431.89 424.8 89.1258 539.619 36.8439 24.2328 502.775 19.5827 483.193
internal_count=5520 2919 2601 2451 533 2353 2322 479 2386 167 112 2219 91 2128
is_linear=0
shrinkage=0.01


Tree=46
num_leaves=15
num_cat=0
split_feature=46 30 65 36 15 57 75 85 15 65 35 25 46 26
split_gain=1040.68 405.199 228.723 151.803 84.0841 58.1588 49.3794 28.4176 26.4804 21.912 25.945 13.3261 19.2508 32.9473
threshold=16720.000000000004 6144.0000000000009 1.0000000180025095e-35 1.0000000180025095e-35 172.00000000000003 1.0000000180025095e-35 1.0000000180025095e-35 1.0000000180025095e-35 260.00000000000006 1085.0000000000002 5.5000000000000009 12.500000000000002 1.0000000180025095e-35 1.0000000180025095e-35
decision_type=2 2 2 2 2 2 2 2 2 2 2 2 2 2
left_child=1 8 3 5 7 -2 -7 -3 11 10 -10 12 -1 -14
right_child=2 4 -4 -5 -6 6 -8 -9 9 -11 -12 -13 13 -15
leaf_value=-0.015257477223646706 -0.015048535011648732 -0.0073541059617251393 -0.015107735871650447 -0.013378080135256766 -0.015458339103752496 -0.010131436467205742 0.014161285865294094 0.013958213066957055 -0.011777258322538023 -0.01530060033080686 0.009298068470721392 -0.014297356128668698 -0.015243836868301141 0.00031634437967459025
leaf_weight=41.647351041436195 7.0590245425701132 6.6480216681957236 33.670766353607178 22.51670540869236 12.282258123159407 8.4247637540101987 413.95676906406879 82.017243146896362 9.5749791413545609 12.555425286293028 14.616115272045135 403.51299548149109 23.276900798082352 32.261493638157845
leaf_count=181 31 30 150 98 54 36 2286 449 41 55 71 1792 101 145
internal_value=-0.00103952 -0.00943198 0.00999059 0.0118655 0.00893812 0.0131943 0.0136721 0.0123425 -0.0128853 -0.00463406 0.000901018 -0.0134878 -0.010105 -0.00620284
internal_weight=1124.02 638.393 485.628 451.957 100.948 429.441 422.382 88.6653 537.445 36.7465 24.1911 500.699 97.1857 55.5384
internal_count=5520 2919 2601 2451 533 2353 2322 479 2386 167 112 2219 427 246
is_linear=0
shrinkage=0.01


Tree=47
num_leaves=15
num_cat=0
split_feature=46 55 64 36 75 57 75 15 64 36 27 29 77 25
split_gain=1024.97 419.193 225.424 149.636 83.8139 57.3393 48.7155 26.8001 22.2186 25.0661 19.4483 33.4429 9.56371 8.90503
threshold=16720.000000000004 6144.0000000000009 1.0000000180025095e-35 1.0000000180025095e-35 1.0000000180025095e-35 1.0000000180025095e-35 1.0000000180025095e-35 260.00000000000006 1085.0000000000002 1.0000000180025095e-35 1280.0000000000002 1.0000000180025095e-35 235520.00000000003 1.0000000180025095e-35
decision_type=2 2 2 2 2 2 2 2 2 2 2 2 2 2
left_child=1 7 3 5 -3 -2 -7 10 9 12 11 -1 -9 -12
right_child=2 4 -4 -5 -6 6 -8 8 -10 -11 13 -13 -14 -15
leaf_value=0.014714230048531092 -0.014967380451372947 -0.015209753611559343 -0.015030052202710902 -0.013292916294213114 0.013312376531903175 -0.010052489871669871 0.014102229601212567 -0.00097248107077366121 -0.015217115520164916 -0.015439453273097807 -0.010569206227373607 -0.014286093479935955 0.013828971727680028 -0.014364583251191027
leaf_weight=6.5443390607833889 7.0270289182662955 11.614644721150396 33.507683277130127 22.435402527451515 84.542665496468544 8.4068924486637098 411.54590570926666 7.4947911053896012 12.498896285891531 6.4823581129312506 77.221168026328087 9.7702161073684675 9.9331919401884061 409.61751919984818
leaf_count=34 31 51 150 98 463 36 2286 34 55 28 336 43 49 1826
internal_value=-0.0010342 -0.00937727 0.00994622 0.0118136 0.00984464 0.0131379 0.013614 -0.0128059 -0.00446418 0.00115512 -0.0134065 -0.00257336 0.00743742 -0.0137669
internal_weight=1118.64 635.72 482.923 449.415 96.1573 426.98 419.953 539.562 36.4092 23.9103 503.153 16.3146 17.428 486.839
internal_count=5520 2919 2601 2451 514 2353 2322 2405 166 111 2239 77 83 2162
is_linear=0
shrinkage=0.01


Tree=48
num_leaves=15
num_cat=0
split_feature=46 55 64 36 75 57 75 56 29 64 39 46 55 75
split_gain=1009.61 412.611 222.186 147.509 82.5895 56.5347 48.0639 23.1907 121.783 54.7087 68.9461 18.6337 8.8858 8.52648
threshold=16720.000000000004 6144.0000000000009 1.0000000180025095e-35 1.0000000180025095e-35 1.0000000180025095e-35 1.0000000180025095e-35 1.0000000180025095e-35 1.0000000180025095e-35 1.0000000180025095e-35 397.00000000000006 5.5000000000000009 1.0000000180025095e-35 59392.000000000007 1647.5000000000002
decision_type=2 2 2 2 2 2 2 2 2 2 2 2 2 2
left_child=1 7 3 5 -3 -2 -7 -1 -9 10 11 -10 -6 -12
right_child=2 4 -4 -5 12 6 -8 8 9 -11 13 -13 -14 -15
leaf_value=-0.015128919787304582 -0.014887809626615683 -0.015127668227817543 -0.014953907696965829 -0.013209068709658279 0.014131715948268658 -0.0099744769646616764 0.014044238133119152 0.01907034052568133 -0.01508371917152759 -0.015103701941049614 0.013806170636494048 -0.0043371568092575134 0.0010452932367606923 5.5071767117913437e-05
leaf_weight=232.26809930801392 6.9946371912956229 11.561698928475378 33.342853650450706 22.353085801005363 78.337299972772598 8.38879147171974 409.1253447830677 12.872944101691244 39.68923781812191 202.79567369818687 15.226644679903986 27.850972503423691 5.7518240213394156 6.5976273119449607
leaf_count=1037 31 51 150 98 434 36 2286 65 173 904 74 122 29 30
internal_value=-0.00102901 -0.00932439 0.00990263 0.0117625 0.00979789 0.0130825 0.013557 -0.0127316 -0.0108985 -0.0122285 -0.005683 -0.01068 0.0132508 0.00971394
internal_weight=1113.16 632.952 480.205 446.862 95.6508 424.509 417.514 537.301 305.033 292.16 89.3645 67.5402 84.0891 21.8243
internal_count=5520 2919 2601 2451 514 2353 2322 2405 1368 1303 399 295 463 104
is_linear=0
shrinkage=0.01


Tree=49
num_leaves=15
num_cat=0
split_feature=46 55 65 36 75 55 75 15 65 36 27 29 77 96
split_gain=994.6 406.217 219.009 145.42 81.3927 53.8134 49.2859 26.03 21.5254 24.522 18.7685 32.3443 9.37133 8.85491
threshold=16720.000000000004 6144.0000000000009 1.0000000180025095e-35 1.0000000180025095e-35 1.0000000180025095e-35 1.0000000180025095e-35 1.0000000180025095e-35 260.00000000000006 1085.0000000000002 1.0000000180025095e-35 1280.0000000000002 1.0000000180025095e-35 235520.00000000003 2.3074930906295781
decision_type=2 2 2 2 2 2 2 2 2 2 2 2 2 2
left_child=1 7 3 5 -3 -2 -7 10 9 12 11 -1 -9 -6
right_child=2 4 -4 -5 13 6 -8 8 -10 -11 -12 -13 -14 -15
leaf_value=0.014545320850704448 -0.01478540880099288 -0.015047218305354158 -0.014879261744847898 -0.013126500183403417 0.01407452545338086 -0.010046019499687395 0.013987286740404377 -0.00097774061896371118 -0.015055289171552796 -0.015335533457316863 -0.013610909810449313 -0.014120586218903665 0.01369938000579885 0.00099711338861837662
leaf_weight=6.4703458249568966 6.7325112223625174 11.508081927895544 33.176362186670303 22.26980122923851 77.888348311185837 8.5998283177614194 406.695850238204 7.4812598377466264 12.383748710155485 6.4497604966163626 482.60035888850689 9.6835010200738889 9.8731900304555875 5.7402627021074286
leaf_count=34 30 51 150 98 434 37 2286 34 55 28 2162 43 49 29
internal_value=-0.00102393 -0.00927347 0.00985979 0.0117123 0.00975258 0.0130282 0.0134849 -0.0126602 -0.00441404 0.00111988 -0.0132555 -0.00255822 0.00734563 0.0131911
internal_weight=1107.55 630.079 477.474 444.298 95.1367 422.028 415.296 534.942 36.188 23.8042 498.754 16.1538 17.3544 83.6286
internal_count=5520 2919 2601 2451 514 2353 2323 2405 166 111 2239 77 83 463
is_linear=0
shrinkage=0.01


Tree=50
num_leaves=15
num_cat=0
split_feature=46 55 64 36 75 57 75 15 64 36 27 29 25 46
split_gain=993.324 423.284 222.945 151.594 75.2687 50.1107 36.8256 24.6456 22.1473 29.6485 20.5907 36.1755 7.49793 15.0216
