tree
version=v4
num_class=1
num_tree_per_iteration=1
label_index=0
max_feature_idx=2380
objective=binary sigmoid:1
feature_names=Column_0 Column_1 Column_2 Column_3 Column_4 Column_5 Column_6 Column_7 Column_8 Column_9 Column_10 Column_11 Column_12 Column_13 Column_14 Column_15 Column_16 Column_17 Column_18 Column_19 Column_20 Column_21 Column_22 Column_23 Column_24 Column_25 Column_26 Column_27 Column_28 Column_29 Column_30 Column_31 Column_32 Column_33 Column_34 Column_35 Column_36 Column_37 Column_38 Column_39 Column_40 Column_41 Column_42 Column_43 Column_44 Column_45 Column_46 Column_47 Column_48 Column_49 Column_50 Column_51 Column_52 Column_53 Column_54 Column_55 Column_56 Column_57 Column_58 Column_59 Column_60 Column_61 Column_62 Column_63 Column_64 Column_65 Column_66 Column_67 Column_68 Column_69 Column_70 Column_71 Column_72 Column_73 Column_74 Column_75 Column_76 Column_77 Column_78 Column_79 Column_80 Column_81 Column_82 Column_83 Column_84 Column_85 Column_86 Column_87 Column_88 Column_89 Column_90 Column_91 Column_92 Column_93 Column_94 Column_95 Column_96 Column_97 Column_98 Column_99 Column_100 Column_101 Column_102 Column_103 Column_104 Column_105 Column_106 Column_107 Column_108 Column_109 Column_110 Column_111 Column_112 Column_113 Column_114 Column_115 Column_116 Column_117 Column_118 Column_119 Column_120 Column_121 Column_122 Column_123 Column_124 Column_125 Column_126 Column_127 Column_128 Column_129 Column_130 Column_131 Column_132 Column_133 Column_134 Column_135 Column_136 Column_137 Column_138 Column_139 Column_140 Column_141 Column_142 Column_143 Column_144 Column_145 Column_146 Column_147 Column_148 Column_149 Column_150 Column_151 Column_152 Column_153 Column_154 Column_155 Column_156 Column_157 Column_158 Column_159 Column_160 Column_161 Column_162 Column_163 Column_164 Column_165 Column_166 Column_167 Column_168 Column_169 Column_170 Column_171 Column_172 Column_173 Column_174 Column_175 Column_176 Column_177 Column_178 Column_179 Column_180 Column_181 Column_182 Column_183 Column_184 Column_185 Column_186 Column_187 Column_188 Column_189 Column_190 Column_191 Column_192 Column_193 Column_194 Column_195 Column_196 Column_197 Column_198 Column_199 Column_200 Column_201 Column_202 Column_203 Column_204 Column_205 Column_206 Column_207 Column_208 Column_209 Column_210 Column_211 Column_212 Column_213 Column_214 Column_215 Column_216 Column_217 Column_218 Column_219 Column_220 Column_221 Column_222 Column_223 Column_224 Column_225 Column_226 Column_227 Column_228 Column_229 Column_230 Column_231 Column_232 Column_233 Column_234 Column_235 Column_236 Column_237 Column_238 Column_239 Column_240 Column_241 Column_242 Column_243 Column_244 Column_245 Column_246 Column_247 Column_248 Column_249 Column_250 Column_251 Column_252 Column_253 Column_254 Column_255 Column_256 Column_257 Column_258 Column_259 Column_260 Column_261 Column_262 Column_263 Column_264 Column_265 Column_266 Column_267 Column_268 Column_269 Column_270 Column_271 Column_272 Column_273 Column_274 Column_275 Column_276 Column_277 Column_278 Column_279 Column_280 Column_281 Column_282 Column_283 Column_284 Column_285 Column_286 Column_287 Column_288 Column_289 Column_290 Column_291 Column_292 Column_293 Column_294 Column_295 Column_296 Column_297 Column_298 Column_299 Column_300 Column_301 Column_302 Column_303 Column_304 Column_305 Column_306 Column_307 Column_308 Column_309 Column_310 Column_311 Column_312 Column_313 Column_314 Column_315 Column_316 Column_317 Column_318 Column_319 Column_320 Column_321 Column_322 Column_323 Column_324 Column_325 Column_326 Column_327 Column_328 Column_329 Column_330 Column_331 Column_332 Column_333 Column_334 Column_335 Column_336 Column_337 Column_338 Column_339 Column_340 Column_341 Column_342 Column_343 Column_344 Column_345 Column_346 Column_347 Column_348 Column_349 Column_350 Column_351 Column_352 Column_353 Column_354 Column_355 Column_356 Column_357 Column_358 Column_359 Column_360 Column_361 Column_362 Column_363 Column_364 Column_365 Column_366 Column_367 Column_368 Column_369 Column_370 Column_371 Column_372 Column_373 Column_374 Column_375 Column_376 Column_377 Column_378 Column_379 Column_380 Column_381 Column_382 Column_383 Column_384 Column_385 Column_386 Column_387 Column_388 Column_389 Column_390 Column_391 Column_392 Column_393 Column_394 Column_395 Column_396 Column_397 Column_398 Column_399 Column_400 Column_401 Column_402 Column_403 Column_404 Column_405 Column_406 Column_407 Column_408 Column_409 Column_410 Column_411 Column_412 Column_413 Column_414 Column_415 Column_416 Column_417 Column_418 Column_419 Column_420 Column_421 Column_422 Column_423 Column_424 Column_425 Column_426 Column_427 Column_428 Column_429 Column_430 Column_431 Column_432 Column_433 Column_434 Column_435 Column_436 Column_437 Column_438 Column_439 Column_440 Column_441 Column_442 Column_443 Column_444 Column_445 Column_446 Column_447 Column_448 Column_449 Column_450 Column_451 Column_452 Column_453 Column_454 Column_455 Column_456 Column_457 Column_458 Column_459 Column_460 Column_461 Column_462 Column_463 Column_464 Column_465 Column_466 Column_467 Column_468 Column_469 Column_470 Column_471 Column_472 Column_473 Column_474 Column_475 Column_476 Column_477 Column_478 Column_479 Column_480 Column_481 Column_482 Column_483 Column_484 Column_485 Column_486 Column_487 Column_488 Column_489 Column_490 Column_491 Column_492 Column_493 Column_494 Column_495 Column_496 Column_497 Column_498 Column_499 Column_500 Column_501 Column_502 Column_503 Column_504 Column_505 Column_506 Column_507 Column_508 Column_509 Column_510 Column_511 Column_512 Column_513 Column_514 Column_515 Column_516 Column_517 Column_518 Column_519 Column_520 Column_521 Column_522 Column_523 Column_524 Column_525 Column_526 Column_527 Column_528 Column_529 Column_530 Column_531 Column_532 Column_533 Column_534 Column_535 Column_536 Column_537 Column_538 Column_539 Column_540 Column_541 Column_542 Column_543 Column_544 Column_545 Column_546 Column_547 Column_548 Column_549 Column_550 Column_551 Column_552 Column_553 Column_554 Column_555 Column_556 Column_557 Column_558 Column_559 Column_560 Column_561 Column_562 Column_563 Column_564 Column_565 Column_566 Column_567 Column_568 Column_569 Column_570 Column_571 Column_572 Column_573 Column_574 Column_575 Column_576 Column_577 Column_578 Column_579 Column_580 Column_581 Column_582 Column_583 Column_584 Column_585 Column_586 Column_587 Column_588 Column_589 Column_590 Column_591 Column_592 Column_593 Column_594 Column_595 Column_596 Column_597 Column_598 Column_599 Column_600 Column_601 Column_602 Column_603 Column_604 Column_605 Column_606 Column_607 Column_608 Column_609 Column_610 Column_611 Column_612 Column_613 Column_614 Column_615 Column_616 Column_617 Column_618 Column_619 Column_620 Column_621 Column_622 Column_623 Column_624 Column_625 Column_626 Column_627 Column_628 Column_629 Column_630 Column_631 Column_632 Column_633 Column_634 Column_635 Column_636 Column_637 Column_638 Column_639 Column_640 Column_641 Column_642 Column_643 Column_644 Column_645 Column_646 Column_647 Column_648 Column_649 Column_650 Column_651 Column_652 Column_653 Column_654 Column_655 Column_656 Column_657 Column_658 Column_659 Column_660 Column_661 Column_662 Column_663 Column_664 Column_665 Column_666 Column_667 Column_668 Column_669 Column_670 Column_671 Column_672 Column_673 Column_674 Column_675 Column_676 Column_677 Column_678 Column_679 Column_680 Column_681 Column_682 Column_683 Column_684 Column_685 Column_686 Column_687 Column_688 Column_689 Column_690 Column_691 Column_692 Column_693 Column_694 Column_695 Column_696 Column_697 Column_698 Column_699 Column_700 Column_701 Column_702 Column_703 Column_704 Column_705 Column_706 Column_707 Column_708 Column_709 Column_710 Column_711 Column_712 Column_713 Column_714 Column_715 Column_716 Column_717 Column_718 Column_719 Column_720 Column_721 Column_722 Column_723 Column_724 Column_725 Column_726 Column_727 Column_728 Column_729 Column_730 Column_731 Column_732 Column_733 Column_734 Column_735 Column_736 Column_737 Column_738 Column_739 Column_740 Column_741 Column_742 Column_743 Column_744 Column_745 Column_746 Column_747 Column_748 Column_749 Column_750 Column_751 Column_752 Column_753 Column_754 Column_755 Column_756 Column_757 Column_758 Column_759 Column_760 Column_761 Column_762 Column_763 Column_764 Column_765 Column_766 Column_767 Column_768 Column_769 Column_770 Column_771 Column_772 Column_773 Column_774 Column_775 Column_776 Column_777 Column_778 Column_779 Column_780 Column_781 Column_782 Column_783 Column_784 Column_785 Column_786 Column_787 Column_788 Column_789 Column_790 Column_791 Column_792 Column_793 Column_794 Column_795 Column_796 Column_797 Column_798 Column_799 Column_800 Column_801 Column_802 Column_803 Column_804 Column_805 Column_806 Column_807 Column_808 Column_809 Column_810 Column_811 Column_812 Column_813 Column_814 Column_815 Column_816 Column_817 Column_818 Column_819 Column_820 Column_821 Column_822 Column_823 Column_824 Column_825 Column_826 Column_827 Column_828 Column_829 Column_830 Column_831 Column_832 Column_833 Column_834 Column_835 Column_836 Column_837 Column_838 Column_839 Column_840 Column_841 Column_842 Column_843 Column_844 Column_845 Column_846 Column_847 Column_848 Column_849 Column_850 Column_851 Column_852 Column_853 Column_854 Column_855 Column_856 Column_857 Column_858 Column_859 Column_860 Column_861 Column_862 Column_863 Column_864 Column_865 Column_866 Column_867 Column_868 Column_869 Column_870 Column_871 Column_872 Column_873 Column_874 Column_875 Column_876 Column_877 Column_878 Column_879 Column_880 Column_881 Column_882 Column_883 Column_884 Column_885 Column_886 Column_887 Column_888 Column_889 Column_890 Column_891 Column_892 Column_893 Column_894 Column_895 Column_896 Column_897 Column_898 Column_899 Column_900 Column_901 Column_902 Column_903 Column_904 Column_905 Column_906 Column_907 Column_908 Column_909 Column_910 Column_911 Column_912 Column_913 Column_914 Column_915 Column_916 Column_917 Column_918 Column_919 Column_920 Column_921 Column_922 Column_923 Column_924 Column_925 Column_926 Column_927 Column_928 Column_929 Column_930 Column_931 Column_932 Column_933 Column_934 Column_935 Column_936 Column_937 Column_938 Column_939 Column_940 Column_941 Column_942 Column_943 Column_944 Column_945 Column_946 Column_947 Column_948 Column_949 Column_950 Column_951 Column_952 Column_953 Column_954 Column_955 Column_956 Column_957 Column_958 Column_959 Column_960 Column_961 Column_962 Column_963 Column_964 Column_965 Column_966 Column_967 Column_968 Column_969 Column_970 Column_971 Column_972 Column_973 Column_974 Column_975 Column_976 Column_977 Column_978 Column_979 Column_980 Column_981 Column_982 Column_983 Column_984 Column_985 Column_986 Column_987 Column_988 Column_989 Column_990 Column_991 Column_992 Column_993 Column_994 Column_995 Column_996 Column_997 Column_998 Column_999 Column_1000 Column_1001 Column_1002 Column_1003 Column_1004 Column_1005 Column_1006 Column_1007 Column_1008 Column_1009 Column_1010 Column_1011 Column_1012 Column_1013 Column_1014 Column_1015 Column_1016 Column_1017 Column_1018 Column_1019 Column_1020 Column_1021 Column_1022 Column_1023 Column_1024 Column_1025 Column_1026 Column_1027 Column_1028 Column_1029 Column_1030 Column_1031 Column_1032 Column_1033 Column_1034 Column_1035 Column_1036 Column_1037 Column_1038 Column_1039 Column_1040 Column_1041 Column_1042 Column_1043 Column_1044 Column_1045 Column_1046 Column_1047 Column_1048 Column_1049 Column_1050 Column_1051 Column_1052 Column_1053 Column_1054 Column_1055 Column_1056 Column_1057 Column_1058 Column_1059 Column_1060 Column_1061 Column_1062 Column_1063 Column_1064 Column_1065 Column_1066 Column_1067 Column_1068 Column_1069 Column_1070 Column_1071 Column_1072 Column_1073 Column_1074 Column_1075 Column_1076 Column_1077 Column_1078 Column_1079 Column_1080 Column_1081 Column_1082 Column_1083 Column_1084 Column_1085 Column_1086 Column_1087 Column_1088 Column_1089 Column_1090 Column_1091 Column_1092 Column_1093 Column_1094 Column_1095 Column_1096 Column_1097 Column_1098 Column_1099 Column_1100 Column_1101 Column_1102 Column_1103 Column_1104 Column_1105 Column_1106 Column_1107 Column_1108 Column_1109 Column_1110 Column_1111 Column_1112 Column_1113 Column_1114 Column_1115 Column_1116 Column_1117 Column_1118 Column_1119 Column_1120 Column_1121 Column_1122 Column_1123 Column_1124 Column_1125 Column_1126 Column_1127 Column_1128 Column_1129 Column_1130 Column_1131 Column_1132 Column_1133 Column_1134 Column_1135 Column_1136 Column_1137 Column_1138 Column_1139 Column_1140 Column_1141 Column_1142 Column_1143 Column_1144 Column_1145 Column_1146 Column_1147 Column_1148 Column_1149 Column_1150 Column_1151 Column_1152 Column_1153 Column_1154 Column_1155 Column_1156 Column_1157 Column_1158 Column_1159 Column_1160 Column_1161 Column_1162 Column_1163 Column_1164 Column_1165 Column_1166 Column_1167 Column_1168 Column_1169 Column_1170 Column_1171 Column_1172 Column_1173 Column_1174 Column_1175 Column_1176 Column_1177 Column_1178 Column_1179 Column_1180 Column_1181 Column_1182 Column_1183 Column_1184 Column_1185 Column_1186 Column_1187 Column_1188 Column_1189 Column_1190 Column_1191 Column_1192 Column_1193 Column_1194 Column_1195 Column_1196 Column_1197 Column_1198 Column_1199 Column_1200 Column_1201 Column_1202 Column_1203 Column_1204 Column_1205 Column_1206 Column_1207 Column_1208 Column_1209 Column_1210 Column_1211 Column_1212 Column_1213 Column_1214 Column_1215 Column_1216 Column_1217 Column_1218 Column_1219 Column_1220 Column_1221 Column_1222 Column_1223 Column_1224 Column_1225 Column_1226 Column_1227 Column_1228 Column_1229 Column_1230 Column_1231 Column_1232 Column_1233 Column_1234 Column_1235 Column_1236 Column_1237 Column_1238 Column_1239 Column_1240 Column_1241 Column_1242 Column_1243 Column_1244 Column_1245 Column_1246 Column_1247 Column_1248 Column_1249 Column_1250 Column_1251 Column_1252 Column_1253 Column_1254 Column_1255 Column_1256 Column_1257 Column_1258 Column_1259 Column_1260 Column_1261 Column_1262 Column_1263 Column_1264 Column_1265 Column_1266 Column_1267 Column_1268 Column_1269 Column_1270 Column_1271 Column_1272 Column_1273 Column_1274 Column_1275 Column_1276 Column_1277 Column_1278 Column_1279 Column_1280 Column_1281 Column_1282 Column_1283 Column_1284 Column_1285 Column_1286 Column_1287 Column_1288 Column_1289 Column_1290 Column_1291 Column_1292 Column_1293 Column_1294 Column_1295 Column_1296 Column_1297 Column_1298 Column_1299 Column_1300 Column_1301 Column_1302 Column_1303 Column_1304 Column_1305 Column_1306 Column_1307 Column_1308 Column_1309 Column_1310 Column_1311 Column_1312 Column_1313 Column_1314 Column_1315 Column_1316 Column_1317 Column_1318 Column_1319 Column_1320 Column_1321 Column_1322 Column_1323 Column_1324 Column_1325 Column_1326 Column_1327 Column_1328 Column_1329 Column_1330 Column_1331 Column_1332 Column_1333 Column_1334 Column_1335 Column_1336 Column_1337 Column_1338 Column_1339 Column_1340 Column_1341 Column_1342 Column_1343 Column_1344 Column_1345 Column_1346 Column_1347 Column_1348 Column_1349 Column_1350 Column_1351 Column_1352 Column_1353 Column_1354 Column_1355 Column_1356 Column_1357 Column_1358 Column_1359 Column_1360 Column_1361 Column_1362 Column_1363 Column_1364 Column_1365 Column_1366 Column_1367 Column_1368 Column_1369 Column_1370 Column_1371 Column_1372 Column_1373 Column_1374 Column_1375 Column_1376 Column_1377 Column_1378 Column_1379 Column_1380 Column_1381 Column_1382 Column_1383 Column_1384 Column_1385 Column_1386 Column_1387 Column_1388 Column_1389 Column_1390 Column_1391 Column_1392 Column_1393 Column_1394 Column_1395 Column_1396 Column_1397 Column_1398 Column_1399 Column_1400 Column_1401 Column_1402 Column_1403 Column_1404 Column_1405 Column_1406 Column_1407 Column_1408 Column_1409 Column_1410 Column_1411 Column_1412 Column_1413 Column_1414 Column_1415 Column_1416 Column_1417 Column_1418 Column_1419 Column_1420 Column_1421 Column_1422 Column_1423 Column_1424 Column_1425 Column_1426 Column_1427 Column_1428 Column_1429 Column_1430 Column_1431 Column_1432 Column_1433 Column_1434 Column_1435 Column_1436 Column_1437 Column_1438 Column_1439 Column_1440 Column_1441 Column_1442 Column_1443 Column_1444 Column_1445 Column_1446 Column_1447 Column_1448 Column_1449 Column_1450 Column_1451 Column_1452 Column_1453 Column_1454 Column_1455 Column_1456 Column_1457 Column_1458 Column_1459 Column_1460 Column_1461 Column_1462 Column_1463 Column_1464 Column_1465 Column_1466 Column_1467 Column_1468 Column_1469 Column_1470 Column_1471 Column_1472 Column_1473 Column_1474 Column_1475 Column_1476 Column_1477 Column_1478 Column_1479 Column_1480 Column_1481 Column_1482 Column_1483 Column_1484 Column_1485 Column_1486 Column_1487 Column_1488 Column_1489 Column_1490 Column_1491 Column_1492 Column_1493 Column_1494 Column_1495 Column_1496 Column_1497 Column_1498 Column_1499 Column_1500 Column_1501 Column_1502 Column_1503 Column_1504 Column_1505 Column_1506 Column_1507 Column_1508 Column_1509 Column_1510 Column_1511 Column_1512 Column_1513 Column_1514 Column_1515 Column_1516 Column_1517 Column_1518 Column_1519 Column_1520 Column_1521 Column_1522 Column_1523 Column_1524 Column_1525 Column_1526 Column_1527 Column_1528 Column_1529 Column_1530 Column_1531 Column_1532 Column_1533 Column_1534 Column_1535 Column_1536 Column_1537 Column_1538 Column_1539 Column_1540 Column_1541 Column_1542 Column_1543 Column_1544 Column_1545 Column_1546 Column_1547 Column_1548 Column_1549 Column_1550 Column_1551 Column_1552 Column_1553 Column_1554 Column_1555 Column_1556 Column_1557 Column_1558 Column_1559 Column_1560 Column_1561 Column_1562 Column_1563 Column_1564 Column_1565 Column_1566 Column_1567 Column_1568 Column_1569 Column_1570 Column_1571 Column_1572 Column_1573 Column_1574 Column_1575 Column_1576 Column_1577 Column_1578 Column_1579 Column_1580 Column_1581 Column_1582 Column_1583 Column_1584 Column_1585 Column_1586 Column_1587 Column_1588 Column_1589 Column_1590 Column_1591 Column_1592 Column_1593 Column_1594 Column_1595 Column_1596 Column_1597 Column_1598 Column_1599 Column_1600 Column_1601 Column_1602 Column_1603 Column_1604 Column_1605 Column_1606 Column_1607 Column_1608 Column_1609 Column_1610 Column_1611 Column_1612 Column_1613 Column_1614 Column_1615 Column_1616 Column_1617 Column_1618 Column_1619 Column_1620 Column_1621 Column_1622 Column_1623 Column_1624 Column_1625 Column_1626 Column_1627 Column_1628 Column_1629 Column_1630 Column_1631 Column_1632 Column_1633 Column_1634 Column_1635 Column_1636 Column_1637 Column_1638 Column_1639 Column_1640 Column_1641 Column_1642 Column_1643 Column_1644 Column_1645 Column_1646 Column_1647 Column_1648 Column_1649 Column_1650 Column_1651 Column_1652 Column_1653 Column_1654 Column_1655 Column_1656 Column_1657 Column_1658 Column_1659 Column_1660 Column_1661 Column_1662 Column_1663 Column_1664 Column_1665 Column_1666 Column_1667 Column_1668 Column_1669 Column_1670 Column_1671 Column_1672 Column_1673 Column_1674 Column_1675 Column_1676 Column_1677 Column_1678 Column_1679 Column_1680 Column_1681 Column_1682 Column_1683 Column_1684 Column_1685 Column_1686 Column_1687 Column_1688 Column_1689 Column_1690 Column_1691 Column_1692 Column_1693 Column_1694 Column_1695 Column_1696 Column_1697 Column_1698 Column_1699 Column_1700 Column_1701 Column_1702 Column_1703 Column_1704 Column_1705 Column_1706 Column_1707 Column_1708 Column_1709 Column_1710 Column_1711 Column_1712 Column_1713 Column_1714 Column_1715 Column_1716 Column_1717 Column_1718 Column_1719 Column_1720 Column_1721 Column_1722 Column_1723 Column_1724 Column_1725 Column_1726 Column_1727 Column_1728 Column_1729 Column_1730 Column_1731 Column_1732 Column_1733 Column_1734 Column_1735 Column_1736 Column_1737 Column_1738 Column_1739 Column_1740 Column_1741 Column_1742 Column_1743 Column_1744 Column_1745 Column_1746 Column_1747 Column_1748 Column_1749 Column_1750 Column_1751 Column_1752 Column_1753 Column_1754 Column_1755 Column_1756 Column_1757 Column_1758 Column_1759 Column_1760 Column_1761 Column_1762 Column_1763 Column_1764 Column_1765 Column_1766 Column_1767 Column_1768 Column_1769 Column_1770 Column_1771 Column_1772 Column_1773 Column_1774 Column_1775 Column_1776 Column_1777 Column_1778 Column_1779 Column_1780 Column_1781 Column_1782 Column_1783 Column_1784 Column_1785 Column_1786 Column_1787 Column_1788 Column_1789 Column_1790 Column_1791 Column_1792 Column_1793 Column_1794 Column_1795 Column_1796 Column_1797 Column_1798 Column_1799 Column_1800 Column_1801 Column_1802 Column_1803 Column_1804 Column_1805 Column_1806 Column_1807 Column_1808 Column_1809 Column_1810 Column_1811 Column_1812 Column_1813 Column_1814 Column_1815 Column_1816 Column_1817 Column_1818 Column_1819 Column_1820 Column_1821 Column_1822 Column_1823 Column_1824 Column_1825 Column_1826 Column_1827 Column_1828 Column_1829 Column_1830 Column_1831 Column_1832 Column_1833 Column_1834 Column_1835 Column_1836 Column_1837 Column_1838 Column_1839 Column_1840 Column_1841 Column_1842 Column_1843 Column_1844 Column_1845 Column_1846 Column_1847 Column_1848 Column_1849 Column_1850 Column_1851 Column_1852 Column_1853 Column_1854 Column_1855 Column_1856 Column_1857 Column_1858 Column_1859 Column_1860 Column_1861 Column_1862 Column_1863 Column_1864 Column_1865 Column_1866 Column_1867 Column_1868 Column_1869 Column_1870 Column_1871 Column_1872 Column_1873 Column_1874 Column_1875 Column_1876 Column_1877 Column_1878 Column_1879 Column_1880 Column_1881 Column_1882 Column_1883 Column_1884 Column_1885 Column_1886 Column_1887 Column_1888 Column_1889 Column_1890 Column_1891 Column_1892 Column_1893 Column_1894 Column_1895 Column_1896 Column_1897 Column_1898 Column_1899 Column_1900 Column_1901 Column_1902 Column_1903 Column_1904 Column_1905 Column_1906 Column_1907 Column_1908 Column_1909 Column_1910 Column_1911 Column_1912 Column_1913 Column_1914 Column_1915 Column_1916 Column_1917 Column_1918 Column_1919 Column_1920 Column_1921 Column_1922 Column_1923 Column_1924 Column_1925 Column_1926 Column_1927 Column_1928 Column_1929 Column_1930 Column_1931 Column_1932 Column_1933 Column_1934 Column_1935 Column_1936 Column_1937 Column_1938 Column_1939 Column_1940 Column_1941 Column_1942 Column_1943 Column_1944 Column_1945 Column_1946 Column_1947 Column_1948 Column_1949 Column_1950 Column_1951 Column_1952 Column_1953 Column_1954 Column_1955 Column_1956 Column_1957 Column_1958 Column_1959 Column_1960 Column_1961 Column_1962 Column_1963 Column_1964 Column_1965 Column_1966 Column_1967 Column_1968 Column_1969 Column_1970 Column_1971 Column_1972 Column_1973 Column_1974 Column_1975 Column_1976 Column_1977 Column_1978 Column_1979 Column_1980 Column_1981 Column_1982 Column_1983 Column_1984 Column_1985 Column_1986 Column_1987 Column_1988 Column_1989 Column_1990 Column_1991 Column_1992 Column_1993 Column_1994 Column_1995 Column_1996 Column_1997 Column_1998 Column_1999 Column_2000 Column_2001 Column_2002 Column_2003 Column_2004 Column_2005 Column_2006 Column_2007 Column_2008 Column_2009 Column_2010 Column_2011 Column_2012 Column_2013 Column_2014 Column_2015 Column_2016 Column_2017 Column_2018 Column_2019 Column_2020 Column_2021 Column_2022 Column_2023 Column_2024 Column_2025 Column_2026 Column_2027 Column_2028 Column_2029 Column_2030 Column_2031 Column_2032 Column_2033 Column_2034 Column_2035 Column_2036 Column_2037 Column_2038 Column_2039 Column_2040 Column_2041 Column_2042 Column_2043 Column_2044 Column_2045 Column_2046 Column_2047 Column_2048 Column_2049 Column_2050 Column_2051 Column_2052 Column_2053 Column_2054 Column_2055 Column_2056 Column_2057 Column_2058 Column_2059 Column_2060 Column_2061 Column_2062 Column_2063 Column_2064 Column_2065 Column_2066 Column_2067 Column_2068 Column_2069 Column_2070 Column_2071 Column_2072 Column_2073 Column_2074 Column_2075 Column_2076 Column_2077 Column_2078 Column_2079 Column_2080 Column_2081 Column_2082 Column_2083 Column_2084 Column_2085 Column_2086 Column_2087 Column_2088 Column_2089 Column_2090 Column_2091 Column_2092 Column_2093 Column_2094 Column_2095 Column_2096 Column_2097 Column_2098 Column_2099 Column_2100 Column_2101 Column_2102 Column_2103 Column_2104 Column_2105 Column_2106 Column_2107 Column_2108 Column_2109 Column_2110 Column_2111 Column_2112 Column_2113 Column_2114 Column_2115 Column_2116 Column_2117 Column_2118 Column_2119 Column_2120 Column_2121 Column_2122 Column_2123 Column_2124 Column_2125 Column_2126 Column_2127 Column_2128 Column_2129 Column_2130 Column_2131 Column_2132 Column_2133 Column_2134 Column_2135 Column_2136 Column_2137 Column_2138 Column_2139 Column_2140 Column_2141 Column_2142 Column_2143 Column_2144 Column_2145 Column_2146 Column_2147 Column_2148 Column_2149 Column_2150 Column_2151 Column_2152 Column_2153 Column_2154 Column_2155 Column_2156 Column_2157 Column_2158 Column_2159 Column_2160 Column_2161 Column_2162 Column_2163 Column_2164 Column_2165 Column_2166 Column_2167 Column_2168 Column_2169 Column_2170 Column_2171 Column_2172 Column_2173 Column_2174 Column_2175 Column_2176 Column_2177 Column_2178 Column_2179 Column_2180 Column_2181 Column_2182 Column_2183 Column_2184 Column_2185 Column_2186 Column_2187 Column_2188 Column_2189 Column_2190 Column_2191 Column_2192 Column_2193 Column_2194 Column_2195 Column_2196 Column_2197 Column_2198 Column_2199 Column_2200 Column_2201 Column_2202 Column_2203 Column_2204 Column_2205 Column_2206 Column_2207 Column_2208 Column_2209 Column_2210 Column_2211 Column_2212 Column_2213 Column_2214 Column_2215 Column_2216 Column_2217 Column_2218 Column_2219 Column_2220 Column_2221 Column_2222 Column_2223 Column_2224 Column_2225 Column_2226 Column_2227 Column_2228 Column_2229 Column_2230 Column_2231 Column_2232 Column_2233 Column_2234 Column_2235 Column_2236 Column_2237 Column_2238 Column_2239 Column_2240 Column_2241 Column_2242 Column_2243 Column_2244 Column_2245 Column_2246 Column_2247 Column_2248 Column_2249 Column_2250 Column_2251 Column_2252 Column_2253 Column_2254 Column_2255 Column_2256 Column_2257 Column_2258 Column_2259 Column_2260 Column_2261 Column_2262 Column_2263 Column_2264 Column_2265 Column_2266 Column_2267 Column_2268 Column_2269 Column_2270 Column_2271 Column_2272 Column_2273 Column_2274 Column_2275 Column_2276 Column_2277 Column_2278 Column_2279 Column_2280 Column_2281 Column_2282 Column_2283 Column_2284 Column_2285 Column_2286 Column_2287 Column_2288 Column_2289 Column_2290 Column_2291 Column_2292 Column_2293 Column_2294 Column_2295 Column_2296 Column_2297 Column_2298 Column_2299 Column_2300 Column_2301 Column_2302 Column_2303 Column_2304 Column_2305 Column_2306 Column_2307 Column_2308 Column_2309 Column_2310 Column_2311 Column_2312 Column_2313 Column_2314 Column_2315 Column_2316 Column_2317 Column_2318 Column_2319 Column_2320 Column_2321 Column_2322 Column_2323 Column_2324 Column_2325 Column_2326 Column_2327 Column_2328 Column_2329 Column_2330 Column_2331 Column_2332 Column_2333 Column_2334 Column_2335 Column_2336 Column_2337 Column_2338 Column_2339 Column_2340 Column_2341 Column_2342 Column_2343 Column_2344 Column_2345 Column_2346 Column_2347 Column_2348 Column_2349 Column_2350 Column_2351 Column_2352 Column_2353 Column_2354 Column_2355 Column_2356 Column_2357 Column_2358 Column_2359 Column_2360 Column_2361 Column_2362 Column_2363 Column_2364 Column_2365 Column_2366 Column_2367 Column_2368 Column_2369 Column_2370 Column_2371 Column_2372 Column_2373 Column_2374 Column_2375 Column_2376 Column_2377 Column_2378 Column_2379 Column_2380
feature_infos=[0.0009428552002646029:0.99917399883270264] [1.5101693861652166e-05:0.46546006202697754] [7.8791445048409514e-06:0.16419543325901031] [0:0.20175781846046448] [1.378850265609799e-05:0.34895807504653931] [0:0.060031883418560028] [0:0.28954222798347473] [0:0.049907412379980087] [0:0.09257856011390686] [0:0.061627496033906937] [0:0.094376720488071442] [6.5659537540341262e-07:0.098656825721263885] [0:0.059875752776861191] [0:0.11549288034439087] [0:0.16863046586513519] [0:0.30870446562767029] [9.3842427304480225e-06:0.093278750777244568] [0:0.050211526453495026] [0:0.029109489172697067] [0:0.1149088516831398] [0:0.052152521908283234] [0:0.036474641412496567] [0:0.021250000223517418] [0:0.23897859454154968] [0:0.060074783861637115] [0:0.017867214977741241] [0:0.029752997681498528] [0:0.030440481379628181] [0:0.050798866897821426] [0:0.017048096284270287] [0:0.02559434249997139] [0:0.15150497853755951] [1.160882857220713e-05:0.22912503778934479] [2.5797396574489539e-06:0.037379559129476547] [0:0.070496499538421631] [0:0.056479226797819138] [0:0.10364878922700882] [0:0.047200519591569901] [0:0.13978737592697144] [0:0.087752498686313629] [0:0.086374305188655853] [0:0.037829481065273285] [0:0.10392960906028748] [0:0.21817860007286072] [0:0.14309325814247131] [0:0.045040450990200043] [0:0.79721719026565552] [0:0.081023767590522766] [0:0.43817234039306641] [0:0.16738736629486084] [0:0.037553835660219193] [0:0.11196976900100708] [0:0.15051889419555664] [0:0.10486653447151184] [0:0.036075368523597717] [0:0.16579915583133698] [0:0.16580620408058167] [0:0.041825246065855026] [0:0.030372541397809982] [0:0.14372819662094116] [0:0.13417308032512665] [0:0.062463540583848953] [0:0.10260589420795441] [0:0.055361386388540268] [6.0393645071599167e-06:0.083576180040836334] [0:0.14798924326896667] [0:0.15958794951438904] [0:0.092663131654262543] [0:0.050218988209962845] [4.5961674004502129e-06:0.050977416336536407] [0:0.15599797666072845] [0:0.086919233202934265] [0:0.083920486271381378] [0:0.02573658712208271] [0:0.031973812729120255] [0:0.10191243141889572] [3.8696098272339441e-06:0.022747935727238655] [6.5659537540341262e-07:0.035576924681663513] [0:0.032997727394104004] [0:0.051135707646608353] [1.2898698514618445e-05:0.16582460701465607] [0:0.023534903302788734] [0:0.066518820822238922] [0:0.04607747495174408] [0:0.16579946875572205] [0:0.11902922391891479] [0:0.034295693039894104] [0:0.056681316345930099] [0:0.039910566061735153] [0:0.11872415244579315] [6.5659537540341262e-07:0.033737186342477798] [0:0.1036594957113266] [0:0.03444637730717659] [0:0.068078100681304932] [0:0.034862123429775238] [0:0.055927310138940811] [0:0.03770441934466362] [6.5247968450421467e-06:0.084691993892192841] [0:0.045536953955888748] [0:0.05636129155755043] [3.8696098272339441e-06:0.06241106241941452] [5.1594793148979079e-06:0.082499675452709198] [0:0.16580361127853394] [0:0.10349961370229721] [0:0.038316402584314346] [0:0.071491442620754242] [0:0.063277840614318848] [0:0.064668923616409302] [0:0.061478607356548309] [0:0.051417823880910873] [0:0.12473281472921371] [0:0.08464793860912323] [0:0.042663894593715668] [0:0.13421793282032013] [0:0.038656279444694519] [0:0.041908543556928635] [1.7071479305741377e-05:0.050454482436180115] [0:0.036262236535549164] [0:0.028314968571066856] [0:0.21631455421447754] [0:0.12502859532833099] [0:0.048301666975021362] [0:0.034304916858673096] [0:0.027779243886470795] [0:0.038162842392921448] [0:0.036243785172700882] [0:0.029305035248398781] [0:0.0577392578125] [0:0.14885397255420685] [0:0.06415247917175293] [0:0.02789364755153656] [0:0.03117675706744194] [0:0.21731045842170715] [0:0.056167896836996078] [0:0.015495749190449715] [0:0.038155239075422287] [0:0.1477525532245636] [0:0.075715720653533936] [0:0.033976700156927109] [0:0.069580718874931335] [0:0.037826821208000183] [0:0.042463459074497223] [0:0.0577392578125] [0:0.11111229658126831] [0:0.2041015625] [0:0.038536928594112396] [0:0.037701759487390518] [0:0.1206154078245163] [0:0.070693530142307281] [0:0.030080810189247131] [0:0.01120182778686285] [0:0.018107850104570389] [0:0.023314144462347031] [0:0.12442228943109512] [0:0.015083175152540207] [0:0.025330275297164917] [0:0.16332381963729858] [0:0.08786223828792572] [0:0.025089291855692863] [0:0.027171479538083076] [0:0.030316414311528206] [0:0.059547930955886841] [0:0.070687934756278992] [0:0.040618490427732468] [0:0.070689797401428223] [0:0.02650756761431694] [0:0.012611238285899162] [0:0.041818577796220779] [0:0.02715255506336689] [0:0.019381009042263031] [0:0.037900391966104507] [0:0.03011406771838665] [0:0.034915324300527573] [0:0.035398807376623154] [0:0.13588276505470276] [0:0.018408065661787987] [0:0.025398241356015205] [0:0.031043864786624908] [0:0.018096305429935455] [0:0.02065124548971653] [0:0.03644377738237381] [0:0.024486443027853966] [0:0.022659560665488243] [0:0.044943690299987793] [0:0.19822271168231964] [0:0.069757811725139618] [0:0.022687146440148354] [0:0.01998094841837883] [0:0.037799295037984848] [0:0.04011106863617897] [0:0.025740543380379677] [0:0.021098550409078598] [0:0.24755007028579712] [0:0.060496486723423004] [0:0.063915252685546875] [0:0.23020908236503601] [0:0.13938151299953461] [0:0.040190804749727249] [0:0.062085937708616257] [0:0.036131322383880615] [0:0.024881457909941673] [0:0.046310879290103912] [0:0.060759536921977997] [0:0.02242172509431839] [0:0.4012044370174408] [0:0.0272352434694767] [0:0.063793979585170746] [0:0.16331373155117035] [0:0.17539793252944946] [0:0.050661481916904449] [0:0.051255673170089722] [0:0.061396423727273941] [0:0.065401516854763031] [0:0.065237194299697876] [0:0.041798964142799377] [0:0.20864443480968475] [0:0.037756498903036118] [0:0.031124573200941086] [0:0.017122460529208183] [0:0.022049859166145325] [0:0.024777233600616455] [0:0.03650171309709549] [0:0.037715062499046326] [0:0.064018197357654572] [0:0.066213034093379974] [0:0.034227337688207626] [0:0.12716002762317657] [0:0.044553838670253754] [0:0.026472194120287895] [0:0.031020220369100571] [0:0.06003103032708168] [0:0.13555783033370972] [0:0.14518223702907562] [0:0.25034099817276001] [0:0.045639146119356155] [0:0.17517219483852386] [0:0.046520315110683441] [0:0.06043623760342598] [0:0.056445911526679993] [0:0.059676643460988998] [0:0.098626255989074707] [0:0.057011406868696213] [0:0.037721756845712662] [0:0.042600817978382111] [0:0.4541054368019104] [0:0.092296510934829712] [0:0.096610255539417267] [0:0.10613997280597687] [0:0.45404356718063354] [0:0.064404860138893127] [0:0.11297104507684708] [0:0.034667547792196274] [0:0.097031064331531525] [0:0.060226690024137497] [0:0.10052083432674408] [0:0.9135933518409729] [0:0.99797195196151733] [0:0.24827522039413452] [0:0.66121095418930054] [0:0.59934645891189575] [0:0.11450381577014923] [0:0.0041928719729185104] [0:0.044692736119031906] [0:0.020457964390516281] [0:0.0098899584263563156] [0:0.15210172533988953] [0:0.037131883203983307] [0:0.01374402642250061] [0:0.25094249844551086] [0:0.11973586678504944] [0:0.0055527482181787491] [0:0.912617027759552] [0:0.23937796056270599] [0:0.015419046394526958] [0:0.072929583489894867] [0:0.0037699255626648664] [0:0.0035516426432877779] [0:0.0020094257779419422] [0:0.0060133934020996094] [0:0.02158520370721817] [0:0.0036751704756170511] [0:0.0016792111564427614] [0:0.0008138020639307797] [0:0.011138916015625] [0:0.052652996033430099] [0:0.02336154505610466] [0:0.0037038626614958048] [0:0.050996933132410049] [0:0.89627659320831299] [0:0.018617020919919014] [0:0.083822973072528839] [0:0.12408016622066498] [0:0.017903275787830353] [0:0.01595744676887989] [0:0.02393617108464241] [0:0.010978964157402515] [0:0.018287321552634239] [0:0.010650634765625] [0:0.0026595743838697672] [0:0.0025291871279478073] [0:0.061634410172700882] [0:0.02722749300301075] [0:0.009968908503651619] [0:0.080610677599906921] [0:0.86562502384185791] [0:0.040203958749771118] [0:0.20362190902233124] [0:0.28594851493835449] [0:0.087495572865009308] [0:0.05807868018746376] [0:0.17553696036338806] [0:0.015625] [0:0.040636103600263596] [0:0.0061502917669713497] [0:0.008217616006731987] [0:0.008287639357149601] [0:0.035341043025255203] [0:0.03513609990477562] [0:0.19737543165683746] [0:0.64414536952972412] [0:0.425537109375] [0:0.0240614153444767] [0:0.058015462011098862] [0:0.086908914148807526] [0:0.0293918177485466] [0:0.025088086724281311] [0:0.098392881453037262] [0:0.19600704312324524] [0:0.073137968778610229] [0:0.017084522172808647] [0:0.016352798789739609] [0:0.0095886234194040298] [0:0.039211045950651169] [0:0.011453304439783096] [0:0.022199682891368866] [0:0.094946637749671936] [0:0.2609049379825592] [0:0.013065152801573277] [0:0.028064427897334099] [0:0.068062163889408112] [0:0.075660690665245056] [0:0.072440005838871002] [0:0.038807746022939682] [0:0.066576085984706879] [0:0.037645131349563599] [0:0.0087564019486308098] [0:0.0098521644249558449] [0:0.013154768384993076] [0:0.035067226737737656] [0:0.02030164934694767] [0:0.028432277962565422] [0:0.30597406625747681] [0:0.7392578125] [0:0.031622331589460373] [0:0.21169194579124451] [0:0.29162070155143738] [0:0.19235230982303619] [0:0.19219052791595459] [0:0.12153268605470657] [0:0.094897165894508362] [0:0.1582680344581604] [0:0.205078125] [0:0.084634199738502502] [0:0.016782749444246292] [0:0.058010902255773544] [0:0.13376089930534363] [0:0.12147190421819687] [0:0.15510345995426178] [0:0.73095703125] [0:0.17791841924190521] [0:0.18257236480712891] [0:0.33158108592033386] [0:0.26001816987991333] [0:0.33158111572265625] [0:0.24365568161010742] [0:0.16579295694828033] [0:0.036834288388490677] [0:0.19775390625] [0:0.02125260978937149] [0:0.020098285749554634] [0:0.065255388617515564] [0:0.1319580078125] [0:0.070370964705944061] [0:0.18395482003688812] [0:0.62353515625] [0:0.061613861471414566] [0:0.20257103443145752] [0:0.26212066411972046] [0:0.10693359375] [0:0.089569970965385437] [0:0.2377387136220932] [0:0.1412440687417984] [0:0.20191605389118195] [0:0.1181623712182045] [0:0.029409555718302727] [0:0.0888671875] [0:0.11817082017660141] [0:0.054189737886190414] [0:0.097088955342769623] [0:0.18134495615959167] [0:0.5751953125] [0:0.063149034976959229] [0:0.11663433909416199] [0:0.19513119757175446] [0:0.23101262748241425] [0:0.17021934688091278] [0:0.23125676810741425] [0:0.16938026249408722] [0:0.10858651250600815] [0:0.10419411957263947] [0:0.063442885875701904] [0:0.028076171875] [0:0.046427410095930099] [0:0.043107882142066956] [0:0.052507072687149048] [0:0.10448574274778366] [0:0.54022854566574097] [0:0.059575062245130539] [0:0.11859235912561417] [0:0.097223304212093353] [0:0.066286064684391022] [0:0.075402706861495972] [0:0.18301209807395935] [0:0.13306726515293121] [0:0.088053382933139801] [0:0.07134469598531723] [0:0.12921768426895142] [0:0.058557581156492233] [0:0.060767505317926407] [0:0.048354312777519226] [0:0.070580147206783295] [0:0.19461633265018463] [0:0.4931640625] [0:0.094460226595401764] [0:0.10625122487545013] [0:0.15934953093528748] [0:0.195556640625] [0:0.14009790122509003] [0:0.097159966826438904] [0:0.0546875] [0:0.16194528341293335] [0:0.06884765625] [0:0.043924290686845779] [0:0.034604962915182114] [0:0.06353333592414856] [0:0.099023438990116119] [0:0.0427594855427742] [0:0.16234131157398224] [0:0.39453125] [0:0.048246629536151886] [0:0.06497868150472641] [0:0.06005859375] [0:0.084661915898323059] [0:0.076171875] [0:0.062821775674819946] [0:0.04833984375] [0:0.12842661142349243] [0:0.063848324120044708] [0:0.0364961177110672] [0:0.091117165982723236] [0:0.16343744099140167] [0:0.040740966796875] [0:0.079848110675811768] [0:0.22425936162471771] [0:0.31797733902931213] [0:0.13833476603031158] [0:0.1078314334154129] [0:0.11079644411802292] [0:0.15245768427848816] [0:0.071616314351558685] [0:0.086590804159641266] [0:0.076013289391994476] [0:0.12592773139476776] [0:0.046763055026531219] [0:0.043273080140352249] [0:0.046438507735729218] [0:0.097007878124713898] [0:0.047025967389345169] [0:0.061806242913007736] [0:0.16430848836898804] [0:0.21949626505374908] [0:0.069352775812149048] [0:0.22575508058071136] [0:0.081204928457736969] [0:0.095388248562812805] [0:0.067287720739841461] [0:0.11761560291051865] [0:0.070537857711315155] [0:0.11745060980319977] [0:0.046538710594177246] [0:0.046477947384119034] [0:0.2282855212688446] [0:0.061671566218137741] [0:0.085628494620323181] [0:0.29419043660163879] [0:0.11619140952825546] [0:0.17866057157516479] [0:0.10689409077167511] [0:0.083515845239162445] [0:0.12449634075164795] [0:0.14026917517185211] [0:0.093395352363586426] [0:0.079187855124473572] [0:0.10440826416015625] [0:0.11161058396100998] [0:0.072783298790454865] [0:0.098703041672706604] [0:0.13258770108222961] [0:0.075491398572921753] [0:0.10821729898452759] [0:0.080763429403305054] [0:0.1873563826084137] [0:971810] [0:52335.5625] [0:50346812] [0:0.41925513744354248] [0:0.10205090045928955] [0:0.34879675507545471] [0:0.11516239494085312] [0:0.15223880112171173] [0:0.17016711831092834] [0:0.058385804295539856] [0:0.23719055950641632] [0:0.23285417258739471] [0:0.070537872612476349] [0:0.092630304396152496] [0:0.11847005039453506] [0:0.17338021099567413] [0:0.074738912284374237] [0:0.98527282476425171] [0:0.1278594583272934] [0:0.69064909219741821] [0:0.26270276308059692] [0:0.26923078298568726] [0:0.48086947202682495] [0:0.22321034967899323] [0:0.22722218930721283] [0:0.17670564353466034] [0:0.16661873459815979] [0:0.33456745743751526] [0:0.3778458833694458] [0:0.10077092796564102] [0:0.13550043106079102] [0:0.075951278209686279] [0:0.36867216229438782] [0:0.29381909966468811] [0:0.24554651975631714] [0:0.23352000117301941] [0:0.31420093774795532] [0:0.21174296736717224] [0:0.86180657148361206] [0:0.22903884947299957] [0:0.24648904800415039] [0:0.71378523111343384] [0:0.1405673623085022] [0:0.20514459908008575] [0:0.14255499839782715] [0:0.13642053306102753] [0:0.066056959331035614] [0:0.10486715286970139] [0:0.29311949014663696] [0:0.36890491843223572] [0:0.15090936422348022] [0:0.19011406600475311] [0:0.20492079854011536] [0:0.72414714097976685] [0:0.22856685519218445] [0:0.16661807894706726] [0:0.10160358250141144] [0:0.12970477342605591] [0:0.12951546907424927] [0:0.31720030307769775] [0:0.18433608114719391] [0:0.22401191294193268] [0:0.44469809532165527] [0:0.10081365704536438] [0:0.13976705074310303] [0:0.12811979651451111] [0:0.1512686014175415] [0:0.090909093618392944] [0:0.25516301393508911] [0:0.28581100702285767] [0:0.77564895153045654] [0:0.41764357686042786] [0:0.15529753267765045] [0:0.23825503885746002] [0:0.12407931685447693] [0:0.15736040472984314] [0:0.12529097497463226] [0:0.17453321814537048] [0:0.081092923879623413] [0:0.25558888912200928] [0:0.090710856020450592] [0:0.20877309143543243] [0:0.10705355554819107] [0:0.11833884567022324] [0:0.685718834400177] [0:0.13793103396892548] [0:0.26562613248825073] [0:0.27272728085517883] [0:0.074285715818405151] [0:0.091230392456054688] [0:0.77690702676773071] [0:0.21567784249782562] [0:0.11732017248868942] [0:0.12257495522499084] [0:0.13770610094070435] [0:0.084388270974159241] [0:0.10101210325956345] [0:0.11276382207870483] [0:0.43118500709533691] [0:6.5849504470825195] [0:1911] [0:2782] [0:59] [1:3244] [376:209750016] [640:331317248] [0:1] [0:23986] [0:7062] [0:1] [0:1] [0:1] [0:1] [0:7499] [0:4286599424] none none none none none [0:1] [-1:1] none none none [-1:0] none [-1:0] [0:3] [-1:0] [-1:0] [-1:1] [0:1] none none none none none none none none none [-1:1] [-1:1] none [0:1] [-2:1] none [-1:1] none none none none [-1:0] none none [-1:0] none none [0:1] none none none none none [0:48177] [0:20512] [0:209] [0:255] [0:56653] [0:32769] [0:10] [0:10] [0:3192391168] [512:5103616] [0:16777216] [1:46] [0:9] [0:10] [0:42] [0:42] [-3072:1314816] none [-1136640:512] [-1108480:284672] none [-1833984:815104] [-43520:2680832] none [-105472:1352704] none none none [-18640896:75264] none [-1536:9864704] [-69120:204800] none [-3509760:86016] none [-272896:12151296] none none [-859648:2459648] [-88576:310272] none none none [-281088:25600] [-6129664:4096] none none [-338944:1740800] [-4633600:25600] none [-6656:1093632] [-2006528:26378240] none none [-20918272:1217536] none [-891392:1406976] [-39472640:131072] [-978944:72192] [-5120:52393984] none none [-390144:4096] [-334336:168422] none none [-5.345858097076416:43.068439483642578] none [-7.9970912933349609:3.9170172214508057] [-35.953529357910156:5.2155146598815918] none [-13.38951587677002:7.8200678825378418] [-6.6315140724182129:7.2537755966186523] none [-7.4986367225646973:7.9003434181213379] none none none [-7.9732656478881836:7.2653894424438477] none [-6.7037310600280762:13.135172843933105] [-7.7343215942382812:11.501282691955566] none [-12.406962394714355:7.5605578422546387] none [-292.38919067382812:7.9994134902954102] none none [-7.9344544410705566:15.894633293151855] [-14.439014434814453:7.6171412467956543] none none none [-7.9175739288330078:7.6775326728820801] [-7.9998660087585449:0.62615722417831421] none none [-7.9998698234558105:14.738560676574707] [-15.550025939941406:5.4177303314208984] none [-4.2946653366088867:7.2601790428161621] [-7.9998354911804199:7.9996542930603027] none none [-15.445439338684082:13.245635986328125] none [-7.9977068901062012:7.9051299095153809] [-15.730348587036133:6.5930371284484863] [-10.574300765991211:6.8785891532897949] [-2.1707589626312256:13.075168609619141] none none [-7.9995498657226562:5.3157200813293457] [-7.9955940246582031:7.9854130744934082] none none [-12288:2863104] none [-1136280:76] [-8075966:284560] [-3756032:641096] [-17342144:815104] [-43331:2680832] none [-104975:1359872] none none none [-18640896:75205] none [-1420:13005416] [-68716:204768] [-640887:1426348] [-3509440:86016] none [-262523:2101248] none none [-859536:4628480] [-409600:310160] none none none [-280664:81920] [-6131712:4096] [-141456:330404224] none [-3784704:7651328] [-89790464:28672] none [-6348:10256384] [-5738496:26378240] none none [-20916144:1220608] none [-891288:1406528] [-39472208:384800] [-978670:72081] [-5176:52393504] none none [-390036:8192] [-333872:200704] none none [0:1] none none none none none none none none none none none none none none none none [-1:0] none none none none [0:1] none none none none [-1:1] none none none none none none [0:1] [-1:1] none none none none none [-1:1] none [0:1] none none none none none none [0:10] none [-3:0] none none none none none [0:9] none none none none [-10:0] none none none none none none none [0:9] [-1:9] [0:10] none none none none [0:5] none none none none none none none [0:3] [0:10] none none none none none none none [0:9] none [-2:0] [-9:0] [0:8] none none none [-1:1] [-1:2] none none none [-1:1] none none [-1:0] none none none none none none none none [-1:1] [-1:1] none none none [-1:1] [-1:1] [-1:1] none [0:2] [-2:0] none [-1:1] none none none none none none none none none none [-1:1] none [-1:2] none none none none none [-1:2] [-2:1] [-1:1] none none none none none none none none none [-1:2] [-1:2] none none none [-1:1] none none none none none none none none none none none [-2:1] [-1:1] none none none none none none none none none none none [-1:1] [-1:0] [-1:1] [-1:1] none none none [-2:0] none none [-1:1] none none [-1:1] none [-2:0] none none none [-1:1] none none none [-1:1] [0:2] [-2:0] none none none none none none [-1:1] none none none [-1:1] [-1:1] none none none none none none none none [-1:1] none [-1:1] [-1:1] none none none none [-1:1] none none none none none none none none none none none none none none none none none none none none none [-1:1] [-1:1] none none none none none none none none [-1:1] [-1:1] none none none none none none none [-1:1] [-1:1] none none none none none none none none [-2:1] none [0:2] [-1:2] none [-2:1] none none none none none none none none [-1:1] none none [-1:1] none [-1:1] [-1:1] [-1:1] none none none [-1:1] [-1:1] none none none none none none [-2:1] none none [-2:1] none none none none none [-2:2] none none none none none [-1:1] [-1:0] none none none none [-1:1] none [-1:1] [-1:1] [-2:27] [-15:5] [-5:10] [-7:3] [-10:4] [-26:5] [-21:2] [-10:31] [-4:13] [-4:3] [-2:3] [-9:6] [-5:13] [-8:11] [-10:2] [-7:6] [-21:6] [-16:4] [-3:3] [-8:1] [-5:2] [-17:5] [-7:2] [-4:34] [-2:4] [-10:12] [-3:8] [-9:3] [-5:8] [-8:3] [-9:3] [-22:2] [-12:2] [-3:20] [-12:6] [-4:9] [-18:2] [-18:2] [-2:13] [-4:5] [-10:10] [-14:3] [-4:6] [-4:21] [-2:12] [-11:3] [-30:2] [-4:4] [-27:3] [-3:19] [-19:3] [-28:5] [-9:9] [-5:11] [-2:9] [-14:3] [-1:8] [-4:7] [-3:7] [-2:13] [-1:5] [-3:15] [-10:3] [-14:17] [-12:33] [-15:5] [-5:4] [-5:11] [-14:14] [-29:2] [-39:2] [-6:5] [-5:8] [-4:2] [-37:3] [-31:2] [-13:3] [-3:2] [-4:14] [-14:5554] [-11:12] [-20:3] [-23:3] [-16:4] [-4:30] [-22:3] [-5:20] [-14:11] [-18:2] [-14:2] [-4:10] [-1:2] [-7:3] [-6:4] [-10:3] [-3:7] [-20:2] [-4:4] [-12:3] [-15:3] [-23:10] [-3:5] [-12:9] [-4:4] [-5:14] [-23:5] [-2:11] [-19:6] [-11:21] [-13:2] [-3:12] [-29:6] [-8:16] [-27:6] [-2:35] [-49:1] [-8:4] [-5:3] [-4:11] [-5:14] [-6:6] [-8:3] [-4:6] [-6:3] [-4:24] [-21:2] [-16:2] [-3:4] [-5:3] [-18:2] [-19:4] [-3:8] [-27:4] [-22:3] [-51:3] [-16:2] [-2:13] [-79:2] [-3:31] [-14:9] [-5:3] [-13:2] [-3:20] [-4:13] [-18:4] [-14:6] [-2:2] [-6:3] [-16:10] [-18:7] [-6:4] [-3:3] [-40:3] [-2:15] [-24:2] [-9:3] [-13:3] [-5:15] [-16:3] [-3:7] [-2:4] [-3:25] [-2:19] [-2:14] [-23:1] [-2:5] [-2:9] [-2:23] [-3:19] [-4:7] [-7:14] [-4:8] [-15:3] [-30:2] [-11:2] [-36:3] [-4:8] [-2:4] [-3:10] [-3:3] [-6:4] [-2:17] [-5:4] [-7:3] [-3:3] [-5:20] [-3:12] [-23:3] [-43:3] [-2:15] [-2:11] [-4:8] [-9:4] [-4:10] [-2:3] [-14:5] [-25:4] [-3:6] [-3:7] [-4:4] [-176:15] [-3:30] [-7:12] [-9:3] [-6:4] [-8:2] [-4:17] [-20:4] [-2:18] [-3:6] [-2:32] [-42:4] [-2:16] [-9:8] [-11:3] [-18:3] [-5:20] [-25:3] [-8:5] [-27:9] [-6:4] [-26:3] [-2:11] [-11:6] [-20:8] [-31:1] [-15:3] [-4:4] [-5:3] [-3:2] [-3:3] [-7:2] [-6:370] [-3:11] [-5:33] [-23:3] [-4:4] [-7:8] [-12:5] [-30:4] [-15:3] [-6:5] [-4:14] [-4:14] [-3:6] [-2:5] [-4:10] [-2:4] [-19:3] [-3:20] [-2:13] [-3:2] [-1:14] [-15:2] [-8:97] [-3:11] [-4:22] [-4:3] [-7:7] [-13:4] [-3:9] [-8:5] [-2:27] [-20:2] [-5:9] [-16:3] [-22:4] [-9:3] [-6:9] [-27:4] [-6:4] [-4:15] [-3:9] [-4:5] [-5:11] [-5:6] [-7:2] [-1:35] [-3:3] [-18:2] [-7:3] [-3:7] [-4:12] [-3:2] [-20:3] [-3:52] [-2:6] [-3:8] [-6:4] [-8:2] none [-5:10] [-16:4] [-12:3] [-5:3] [-4:21] [-7:17] [-2:4] [-5:2] [-17:5] [-7:14] [-12:3] [-4:12] [-8:2] [-18:5] [-9:4] [-2:18] [-2:5] [-4:19] [-2:10] [-7:3] [-12:20] [-2:4] [-2:10] [-24:2] [-36:4] [-2:5] [-3:31] [-14:14] [-9:8] [-4:12] [-3:14] [-21:2] [-22:2] [-18:4] [-14:2] [-2:17] [-2:5] [-4:3] [-15:25] [-24:3] [-2:19] [-2:10] [-4:21] [-18:4] [-17:3] [-5:9] [-6:2] [-3:5] [-15:12] [-26:2] [-83163:3] [-8:2] [-13:3] [-2:7] [-1:5] [-15:3] [-11:2] [-2:21] [-2:36] [-3:14] [-2:5] [-5:32] [-3:20] [-7:13] [-7:17] [-15:7] [-6:7] [-4:5] [-4:2] [-5:2] [-3:17] [-3:11] [-23:3] [-15:4] [-4:14] [-4:2] [-4:4] [-8:15] [-8:2] [-13:9] [-24:3] [-19:3] [-7:5] [-11:1] [-65:3] [-92:18] [-20:2] [-4:5] [-14:3] [-10:2] [-4:10] [-2:3] [-8:2] [-35:8] [-4:17] [-2:3] [-4:4] [-4:4] [-4:18] [-23:11] [-3:9] [-3:19] [-2:9] [-4:2] [-4:2] [-5:5] [-8:36] [-32:6] [-3:21] [-78:4] [-2:7] [-9:3] [-5:206] [-2:10] [-4:12] [-13:5] [-22:4] [-6:5] [-29:3] [-3:931] [-6:3] [-4:8] [-16:2] [-11:3] [-7:4] [-3:4] [-14:2] [-18:2] [-6:3] [-5:6] [-6:3] [-20:4] [-1:12] [-3:3] [-5:3] [-21:3] [-3:13] [-3:26] [-4:5] [-7:22] [-5:2] [-4:18] [-46:33] [-2:13] [-15:7] [-10:3] [-13:2] [-10:3] [-4:4] [-7:35] [-3:4] [-3:8] [-4:10] [-3:5] [-9:9] [-44:24] [-13:3] [-18:2] [-11:3] [-3:13] [-5:36] [-15:4] [-2:3] [-3:5535] [-12:2] [-9:3] [-10:5] [-2:24] [-3:3] [-19:3] [-10:2] [-6:15] [-14:3] [-2:3] [-13:4] [-4:23] [-5:17] [-21:2] [-3:11] [-20:3] [-2:8] [-9:27] [-33:3] [-7:4] [-2:7] [-6:3] [-12:3] [-3:14] [-2:3] [-10:3] [-2:16] [-5:3] [-6:2] [-2:9] [-22:2] [-3:2] [-3:3] [-25:4] [-4:14] [-19:3] [-2:3] [-10:5] [-3:4] [-6:4] [-2:21] [-2:3] [-29:3] [-4:3] [-182:14] [-3:7] [-7:27] [-6:5] [-3:23] [-12:2] [-15:9] [-25:13] [-4:3] [-3:8] [-16:15] [-7:2] [-99:15] [-2:16] [-2:9] [-4:28] [-3:41] [-2:17] [-4:2] [-12:3] [-21:2] [-29:6] [-3:45] [-5:2] [-3:14] [-8:3] [-4:14] [-5:19] [-2:25] [-2:15] [-15:5] [-4:24] [-18:3] [-7:9] [-19:12] [-4:10] [-3:32] [-2:94] [-2:15] [-7:3] [-36:14] [-9:2] [-2:68] [-1:11] [-4:2] [-16:5] [-6:13] [-22:7] [-1:13] [-14:4] none [-7:3] [-21:3] [-3:15] [-2:5] [-5:3] [-4:6] [-3:2] [-2:19] [-2:24] [-20:5] [-4:6] [-13:3] [-5629:2] [-16:2] [-5:4] [-3:6] [-2:20] [-6:2] [-3:6] [-2:6] [-6:4] [-8:2] [-11:2] [-2:31] [-7:15] [-11:2] [-3:23] [-3:10] [-22:5] [-12:3] [-11:3] [-11:2] [-13:10] [-23:2] [-12:4] [-2:58] [-6:24] [-2:11] [-2:14] [-12:4] [-9:3] [-2:5] [-2:3] [-14:4] [-3:7] [-12:2] [-3:21] [-18:3] [-2:21] [-7:8] [-3:17] [-13:16] [-7:3] [-2:2] [-36:2] [-2:3] [-4:4] [-4:12] [-3:12] [-3:22] [-2:24] [-7:3] [-3:47] [-23:10] [-8:8] [-2:16] [-3:3] [-36:2] [-2:21] [-3:5] [-13:2] [-182:2] [-10:4] [-5518:13] [-3:6] [-17:7] [-30:6] [-14:8] [-11:2] [-2:13] [-9:2] [-3:15] [-3:10] [-6:19] [-3:13] [-15:23] [-16:4] [-14:3] [-14:2] [-12:5] [-7:27] [-170:3] [-32:4] [-4:26] [-10:4] [-10:3] [-15:3] [-4:2] [-64:9] [-2:22] [-25:4] [-2:33] [-6:3] [-3:20] [-3:6] [-6:9] [-15:25] [-4:8] [-17:3] [-7:2] [-14:2] [-5:2] [-4:5] [-2:16] [-2:31] [-2:11] [-2:3] [-3:11] [-2:4] [-3:2] [-3:9] [-18:2] [-12:23] [-3:6] [-11:2] [-15:14] [-8:16] [-6:2] [-2:4] [-16:4] [-1:30] [-6:2] [-37:2] [-2:3] [-2:10] [-6:2] [-2:26] [-11:2] [-10:2] [-33:2] [-9:4] [-3:27] [-8:4] [-7:3] [-2:26] [-17:3] [-6:3] [-48:13] [-8:3] [-11:2] [-3:12] [-9:8] [-4:6] [-3:2] [-2:18] [-41:2] [-3:21] [-5:2] [-7:2] [-29:4] [-9:3] [-2:6] [-3:24] [-21:11] [-6:8] [-7:23] [-6:4] [-2:9] [-4:4] [-5:6] [-197:2] [-15:4] [-2:6] [-5:11] [-27:3] [-2:14] [-2:16] [-5:28] [-3:13] [-211:4] [-3:9] [-7:8] [-11:23] [-12:2] [-16:3] [-4:8] [-2:7] [-21:2] [-3:17] [-11:11] [-3:18] [-4:5] [-2:4] [-3:9] [-20:9] [-16:3] [-33:4] [-3:8] [-10:3] [-14:2] [-9:2] [-42:3] [-8:3] [-98:3] [-15:4] [-10:5] [-8:14] [-2:10] [-10:18] [-11:4] [-11:2] [-39:47] [-3:22] [-4:28] [-2:14] [-2:18] [-3:13] [-7:2] [-3:6] [-15:6] [-18:7] [-5:3] [-3:35] [-4:21] [-7:8] [-7:32] none [-4:4] [-2:4] [-4:7] [-6:11] [-14:7] [-9:3] [-27:4] [-9:8] [-10:2] [-11:3] [-3:3] [-6:3] [-5:4] [-9:8] [-3:4] [-4:24] [-2:11] [-6:3] [-24:3] [-5:1] [-3:3] [-23:3] [-14:9] [-13:2] [-4:17] [-2:5] [-24:2] [-23:3] [-17:5] [-11:9] [-2:26] [-5:4] [-3:9] [-3:4] [-8:3] [-3:13] [-7:2] [-7:8] [-1:31] [-8:3] [-48:6] [-20:4] [-8:2] [-3:16] [-2:40] [-9:9] [-3:3] [-2:5] [-8:4] [-3:4] [-80:4] [-13:20] [-13:2] [-4:7] [-6:8] [-16:3] [-3:9] [-10:17] [-3:20] [-29:3] [-9:3] [-14:4] [-9:5] [-13:3] [-2:3] [-4:4] [-2:17] [-2:22] [-83:6] [-4:12] [-6:9] [-14:4] [-3:5] [-2:208] [-12:34] [-3:14] [-8:2] [-2:12] [-2:4] [-7:5] [-19:9] [-11:15] [-3:2] [-6:8] [-5:5] [-10:3] [-9:2] [-4:15] [-14:2] [-2:6] [-2:14] [-3:6] [-2:5] [-3:2] [-10:2] [-11:3] [-3:9] [-2:10] [-2:15] [-3:6] [-21:9] [-5:3] [-11:5] [-12:4] [-8:3] [-8:3] [-10:8] [-4:25] [-11:2] [-11:6] [-3:10] [-5:22] [-17:8] [-11:2] [-15:4] [-10:3] [-3:7] [-3:4] [-4:23] [-9:2] [-3:10] [-3:20] [-5:5] [-8:7] [-22:21] [-14:2] [-3:17] [-8:19] [-9:2] [-12:8] [-7:4] [-5:15] [-3:2] [-4:4] [-35:4] [-21:2] [-2:11] [-5:2] [-4:11] [-2:7] [-16:6] [-4:7] [-3:3] [-9:3] [-2:5] [-2:31] [-17:13] [-16:3] [-15:6] [-24:4] [-7:3] [-5:32] [-2:17] [-4:4] [-1:14] [-4:5] [-3:4] [-3:3] [-3:4] [-10:3] [-3:20] [-3:8] [-2:4] [-30:9] [-11:43] [-2:37] [-2:13] [-6:3] [-3:6] [-2:25] [-12:3] [-22:3] [-9:4] [-2:18] [-3:23] [-25:18] [-2:4] [-3:14] [-3:27] [-3:3] [-4:4] [-5:6] [-33:2] [-10:1] [-2:12] [-9:17] [-3:10] [-3:23] [-22:2] [-4:4] [-5:7] [-3:2] [-16:3] [-18:4] [-3:6] [-12:2] [-7:9] [-5:2] [-3:17] [-2:35] [-27:2] [-2:11] [-11:2] [-6:19] [-3:11] [-3:6] [-4:5] [-3:12] [-5:4] [-5:3] [-25:3] [-14:3] [-8:51] [-17:5] [-4:7] [-5:23] [-12:12] [-3:12] [-3:14] [-10:2] [-24:6] [-8:6] [-2:6] [-2:13] [-8:9] [-8:3] [-4:3] [-9:5] [-2:28] [-4:11] [-3:14] [-16:22] [-5:3] [-2:9] [-2:14] [-2:21] [-4:7] [-12:21] [-15:5] [-12:3] [-16:4] [-5:4] [-3:3] [-18:4] [-3:6] [-3:16] [-3:5] [-16:6] [-16:7] [-7:28] [-15:13] [-9:7] [-9:7] [-6:11] [-7:11] [-9:14] [-11:16] [-15:11] [-6:11] [-11:7] [-6:11] [-17:5] [-7:13] [-5:10] [-6:9] [-23:12] [-5:11] [-4:6] [-8:7] [-8:15] [-7:3] [-19:21] [-25:11] [-9:18] [-12:20] [-17:9] [-10:13] [-19:5] [-6:14] [-6:16] [-7:6] [-7:11] [-8:9] [-12:5] [-15:10] [-29:4] [-10:8] [-12:7] [-18:7] [-15:10] [-7:6] [-10:21] [-7:12] [-11:20] [-10:9] [-8:12] [-10:8] [-12:9] [-5:9] [-7:13] [-10:12] [-8:10] [-8:5] [-7:7] [-7:10] [-6:11] [-11:17] [-15:8] [-8:8] [-10:7] [-4:14] [-7:8] [-5:8] [-25:8] [-18:8] [-8:5] [-6:11] [-9:12] [-14:9] [-20:10] [-8:28] [-16:5] [-12:11] [-15:9] [-14:22] [-12:10] [-16:17] [-11:5] [-19:5] [-36:5] [-12:16] [-16:9] [-10:8] [-14:17] [-13:11] [-13:7] [-6:12] [-9:5] [-27:11] [-11:13] [-17:6] [-26:5] [-13:7] [-5:15] [-7:15] [-14:12] [-12:21] [-14:16] [-4:10] [-9:11] [-11:15] [-12:10] [-8:5] [-6:13] [-8:11] [-17:15] [-14:10] [-15:25] [-7:13] [-10:6] [-15:16] [-12:7] [-5:9] [-27:6] [-5:16] [-9:15] [-6:19] [-12:9] [-5:4] [-6:11] [-14:7] [-10:13] [-6:10] [-11:15] [-8:13] [0:4294967296] [0:47574000] [0:16777336] [0:331300864] [0:134253552] [0:148766720] [0:960504] [0:21495808] [0:2475696] [0:695927296] [0:1519120] [0:52527104] [0:4152] [0:149143616] none none none none [0:92] [0:331313184] [0:1128] [0:44526840] [0:452] [0:712] [0:925696] [0:331302048] [0:32768] [0:47569480] [0:1919251584] [0:13726328]
tree_sizes=242

Tree=0
num_leaves=1
num_cat=0
split_feature=
split_gain=
threshold=
decision_type=
left_child=
right_child=
leaf_value=34.539575992340879
leaf_weight=
leaf_count=4000
internal_value=
internal_weight=
internal_count=
is_linear=0
shrinkage=1


end of trees

feature_importances:

parameters:
[boosting: gbdt]
[objective: binary]
[metric: binary_logloss]
[tree_learner: serial]
[device_type: cpu]
[data_sample_strategy: bagging]
[data: ]
[valid: ]
[num_iterations: 2000]
[learning_rate: 0.01]
[num_leaves: 15]
[num_threads: 0]
[seed: 42]
[deterministic: 0]
[force_col_wise: 0]
[force_row_wise: 1]
[histogram_pool_size: -1]
[max_depth: 7]
[min_data_in_leaf: 30]
[min_sum_hessian_in_leaf: 0.001]
[bagging_fraction: 0.8]
[pos_bagging_fraction: 1]
[neg_bagging_fraction: 1]
[bagging_freq: 5]
[bagging_seed: 400]
[bagging_by_query: 0]
[feature_fraction: 0.8]
[feature_fraction_bynode: 1]
[feature_fraction_seed: 30056]
[extra_trees: 0]
[extra_seed: 12879]
[early_stopping_round: 0]
[early_stopping_min_delta: 0]
[first_metric_only: 0]
[max_delta_step: 0]
[lambda_l1: 0.1]
[lambda_l2: 0.1]
[linear_lambda: 0]
[min_gain_to_split: 0]
[drop_rate: 0.1]
[max_drop: 50]
[skip_drop: 0.5]
[xgboost_dart_mode: 0]
[uniform_drop: 0]
[drop_seed: 17869]
[top_rate: 0.2]
[other_rate: 0.1]
[min_data_per_group: 100]
[max_cat_threshold: 32]
[cat_l2: 10]
[cat_smooth: 10]
[max_cat_to_onehot: 4]
[top_k: 20]
[monotone_constraints: ]
[monotone_constraints_method: basic]
[monotone_penalty: 0]
[feature_contri: ]
[forcedsplits_filename: ]
[refit_decay_rate: 0.9]
[cegb_tradeoff: 1]
[cegb_penalty_split: 0]
[cegb_penalty_feature_lazy: ]
[cegb_penalty_feature_coupled: ]
[path_smooth: 0]
[interaction_constraints: ]
[verbosity: -1]
[saved_feature_importance_type: 0]
[use_quantized_grad: 0]
[num_grad_quant_bins: 4]
[quant_train_renew_leaf: 0]
[stochastic_rounding: 1]
[linear_tree: 0]
[max_bin: 255]
[max_bin_by_feature: ]
[min_data_in_bin: 3]
[bin_construct_sample_cnt: 200000]
[data_random_seed: 175]
[is_enable_sparse: 1]
[enable_bundle: 1]
[use_missing: 1]
[zero_as_missing: 0]
[feature_pre_filter: 1]
[pre_partition: 0]
[two_round: 0]
[header: 0]
[label_column: ]
[weight_column: ]
[group_column: ]
[ignore_column: ]
[categorical_feature: ]
[forcedbins_filename: ]
[precise_float_parser: 0]
[parser_config_file: ]
[objective_seed: 16083]
[num_class: 1]
[is_unbalance: 0]
[scale_pos_weight: 1]
[sigmoid: 1]
[boost_from_average: 1]
[reg_sqrt: 0]
[alpha: 0.9]
[fair_c: 1]
[poisson_max_delta_step: 0.7]
[tweedie_variance_power: 1.5]
[lambdarank_truncation_level: 30]
[lambdarank_norm: 1]
[label_gain: ]
[lambdarank_position_bias_regularization: 0]
[eval_at: ]
[multi_error_top_k: 1]
[auc_mu_weights: ]
[num_machines: 1]
[local_listen_port: 12400]
[time_out: 120]
[machine_list_filename: ]
[machines: ]
[gpu_platform_id: -1]
[gpu_device_id: -1]
[gpu_use_dp: 0]
[num_gpu: 1]

end of parameters

pandas_categorical:null
