tree
version=v4
num_class=1
num_tree_per_iteration=1
label_index=0
max_feature_idx=2380
objective=binary sigmoid:1
feature_names=Column_0 Column_1 Column_2 Column_3 Column_4 Column_5 Column_6 Column_7 Column_8 Column_9 Column_10 Column_11 Column_12 Column_13 Column_14 Column_15 Column_16 Column_17 Column_18 Column_19 Column_20 Column_21 Column_22 Column_23 Column_24 Column_25 Column_26 Column_27 Column_28 Column_29 Column_30 Column_31 Column_32 Column_33 Column_34 Column_35 Column_36 Column_37 Column_38 Column_39 Column_40 Column_41 Column_42 Column_43 Column_44 Column_45 Column_46 Column_47 Column_48 Column_49 Column_50 Column_51 Column_52 Column_53 Column_54 Column_55 Column_56 Column_57 Column_58 Column_59 Column_60 Column_61 Column_62 Column_63 Column_64 Column_65 Column_66 Column_67 Column_68 Column_69 Column_70 Column_71 Column_72 Column_73 Column_74 Column_75 Column_76 Column_77 Column_78 Column_79 Column_80 Column_81 Column_82 Column_83 Column_84 Column_85 Column_86 Column_87 Column_88 Column_89 Column_90 Column_91 Column_92 Column_93 Column_94 Column_95 Column_96 Column_97 Column_98 Column_99 Column_100 Column_101 Column_102 Column_103 Column_104 Column_105 Column_106 Column_107 Column_108 Column_109 Column_110 Column_111 Column_112 Column_113 Column_114 Column_115 Column_116 Column_117 Column_118 Column_119 Column_120 Column_121 Column_122 Column_123 Column_124 Column_125 Column_126 Column_127 Column_128 Column_129 Column_130 Column_131 Column_132 Column_133 Column_134 Column_135 Column_136 Column_137 Column_138 Column_139 Column_140 Column_141 Column_142 Column_143 Column_144 Column_145 Column_146 Column_147 Column_148 Column_149 Column_150 Column_151 Column_152 Column_153 Column_154 Column_155 Column_156 Column_157 Column_158 Column_159 Column_160 Column_161 Column_162 Column_163 Column_164 Column_165 Column_166 Column_167 Column_168 Column_169 Column_170 Column_171 Column_172 Column_173 Column_174 Column_175 Column_176 Column_177 Column_178 Column_179 Column_180 Column_181 Column_182 Column_183 Column_184 Column_185 Column_186 Column_187 Column_188 Column_189 Column_190 Column_191 Column_192 Column_193 Column_194 Column_195 Column_196 Column_197 Column_198 Column_199 Column_200 Column_201 Column_202 Column_203 Column_204 Column_205 Column_206 Column_207 Column_208 Column_209 Column_210 Column_211 Column_212 Column_213 Column_214 Column_215 Column_216 Column_217 Column_218 Column_219 Column_220 Column_221 Column_222 Column_223 Column_224 Column_225 Column_226 Column_227 Column_228 Column_229 Column_230 Column_231 Column_232 Column_233 Column_234 Column_235 Column_236 Column_237 Column_238 Column_239 Column_240 Column_241 Column_242 Column_243 Column_244 Column_245 Column_246 Column_247 Column_248 Column_249 Column_250 Column_251 Column_252 Column_253 Column_254 Column_255 Column_256 Column_257 Column_258 Column_259 Column_260 Column_261 Column_262 Column_263 Column_264 Column_265 Column_266 Column_267 Column_268 Column_269 Column_270 Column_271 Column_272 Column_273 Column_274 Column_275 Column_276 Column_277 Column_278 Column_279 Column_280 Column_281 Column_282 Column_283 Column_284 Column_285 Column_286 Column_287 Column_288 Column_289 Column_290 Column_291 Column_292 Column_293 Column_294 Column_295 Column_296 Column_297 Column_298 Column_299 Column_300 Column_301 Column_302 Column_303 Column_304 Column_305 Column_306 Column_307 Column_308 Column_309 Column_310 Column_311 Column_312 Column_313 Column_314 Column_315 Column_316 Column_317 Column_318 Column_319 Column_320 Column_321 Column_322 Column_323 Column_324 Column_325 Column_326 Column_327 Column_328 Column_329 Column_330 Column_331 Column_332 Column_333 Column_334 Column_335 Column_336 Column_337 Column_338 Column_339 Column_340 Column_341 Column_342 Column_343 Column_344 Column_345 Column_346 Column_347 Column_348 Column_349 Column_350 Column_351 Column_352 Column_353 Column_354 Column_355 Column_356 Column_357 Column_358 Column_359 Column_360 Column_361 Column_362 Column_363 Column_364 Column_365 Column_366 Column_367 Column_368 Column_369 Column_370 Column_371 Column_372 Column_373 Column_374 Column_375 Column_376 Column_377 Column_378 Column_379 Column_380 Column_381 Column_382 Column_383 Column_384 Column_385 Column_386 Column_387 Column_388 Column_389 Column_390 Column_391 Column_392 Column_393 Column_394 Column_395 Column_396 Column_397 Column_398 Column_399 Column_400 Column_401 Column_402 Column_403 Column_404 Column_405 Column_406 Column_407 Column_408 Column_409 Column_410 Column_411 Column_412 Column_413 Column_414 Column_415 Column_416 Column_417 Column_418 Column_419 Column_420 Column_421 Column_422 Column_423 Column_424 Column_425 Column_426 Column_427 Column_428 Column_429 Column_430 Column_431 Column_432 Column_433 Column_434 Column_435 Column_436 Column_437 Column_438 Column_439 Column_440 Column_441 Column_442 Column_443 Column_444 Column_445 Column_446 Column_447 Column_448 Column_449 Column_450 Column_451 Column_452 Column_453 Column_454 Column_455 Column_456 Column_457 Column_458 Column_459 Column_460 Column_461 Column_462 Column_463 Column_464 Column_465 Column_466 Column_467 Column_468 Column_469 Column_470 Column_471 Column_472 Column_473 Column_474 Column_475 Column_476 Column_477 Column_478 Column_479 Column_480 Column_481 Column_482 Column_483 Column_484 Column_485 Column_486 Column_487 Column_488 Column_489 Column_490 Column_491 Column_492 Column_493 Column_494 Column_495 Column_496 Column_497 Column_498 Column_499 Column_500 Column_501 Column_502 Column_503 Column_504 Column_505 Column_506 Column_507 Column_508 Column_509 Column_510 Column_511 Column_512 Column_513 Column_514 Column_515 Column_516 Column_517 Column_518 Column_519 Column_520 Column_521 Column_522 Column_523 Column_524 Column_525 Column_526 Column_527 Column_528 Column_529 Column_530 Column_531 Column_532 Column_533 Column_534 Column_535 Column_536 Column_537 Column_538 Column_539 Column_540 Column_541 Column_542 Column_543 Column_544 Column_545 Column_546 Column_547 Column_548 Column_549 Column_550 Column_551 Column_552 Column_553 Column_554 Column_555 Column_556 Column_557 Column_558 Column_559 Column_560 Column_561 Column_562 Column_563 Column_564 Column_565 Column_566 Column_567 Column_568 Column_569 Column_570 Column_571 Column_572 Column_573 Column_574 Column_575 Column_576 Column_577 Column_578 Column_579 Column_580 Column_581 Column_582 Column_583 Column_584 Column_585 Column_586 Column_587 Column_588 Column_589 Column_590 Column_591 Column_592 Column_593 Column_594 Column_595 Column_596 Column_597 Column_598 Column_599 Column_600 Column_601 Column_602 Column_603 Column_604 Column_605 Column_606 Column_607 Column_608 Column_609 Column_610 Column_611 Column_612 Column_613 Column_614 Column_615 Column_616 Column_617 Column_618 Column_619 Column_620 Column_621 Column_622 Column_623 Column_624 Column_625 Column_626 Column_627 Column_628 Column_629 Column_630 Column_631 Column_632 Column_633 Column_634 Column_635 Column_636 Column_637 Column_638 Column_639 Column_640 Column_641 Column_642 Column_643 Column_644 Column_645 Column_646 Column_647 Column_648 Column_649 Column_650 Column_651 Column_652 Column_653 Column_654 Column_655 Column_656 Column_657 Column_658 Column_659 Column_660 Column_661 Column_662 Column_663 Column_664 Column_665 Column_666 Column_667 Column_668 Column_669 Column_670 Column_671 Column_672 Column_673 Column_674 Column_675 Column_676 Column_677 Column_678 Column_679 Column_680 Column_681 Column_682 Column_683 Column_684 Column_685 Column_686 Column_687 Column_688 Column_689 Column_690 Column_691 Column_692 Column_693 Column_694 Column_695 Column_696 Column_697 Column_698 Column_699 Column_700 Column_701 Column_702 Column_703 Column_704 Column_705 Column_706 Column_707 Column_708 Column_709 Column_710 Column_711 Column_712 Column_713 Column_714 Column_715 Column_716 Column_717 Column_718 Column_719 Column_720 Column_721 Column_722 Column_723 Column_724 Column_725 Column_726 Column_727 Column_728 Column_729 Column_730 Column_731 Column_732 Column_733 Column_734 Column_735 Column_736 Column_737 Column_738 Column_739 Column_740 Column_741 Column_742 Column_743 Column_744 Column_745 Column_746 Column_747 Column_748 Column_749 Column_750 Column_751 Column_752 Column_753 Column_754 Column_755 Column_756 Column_757 Column_758 Column_759 Column_760 Column_761 Column_762 Column_763 Column_764 Column_765 Column_766 Column_767 Column_768 Column_769 Column_770 Column_771 Column_772 Column_773 Column_774 Column_775 Column_776 Column_777 Column_778 Column_779 Column_780 Column_781 Column_782 Column_783 Column_784 Column_785 Column_786 Column_787 Column_788 Column_789 Column_790 Column_791 Column_792 Column_793 Column_794 Column_795 Column_796 Column_797 Column_798 Column_799 Column_800 Column_801 Column_802 Column_803 Column_804 Column_805 Column_806 Column_807 Column_808 Column_809 Column_810 Column_811 Column_812 Column_813 Column_814 Column_815 Column_816 Column_817 Column_818 Column_819 Column_820 Column_821 Column_822 Column_823 Column_824 Column_825 Column_826 Column_827 Column_828 Column_829 Column_830 Column_831 Column_832 Column_833 Column_834 Column_835 Column_836 Column_837 Column_838 Column_839 Column_840 Column_841 Column_842 Column_843 Column_844 Column_845 Column_846 Column_847 Column_848 Column_849 Column_850 Column_851 Column_852 Column_853 Column_854 Column_855 Column_856 Column_857 Column_858 Column_859 Column_860 Column_861 Column_862 Column_863 Column_864 Column_865 Column_866 Column_867 Column_868 Column_869 Column_870 Column_871 Column_872 Column_873 Column_874 Column_875 Column_876 Column_877 Column_878 Column_879 Column_880 Column_881 Column_882 Column_883 Column_884 Column_885 Column_886 Column_887 Column_888 Column_889 Column_890 Column_891 Column_892 Column_893 Column_894 Column_895 Column_896 Column_897 Column_898 Column_899 Column_900 Column_901 Column_902 Column_903 Column_904 Column_905 Column_906 Column_907 Column_908 Column_909 Column_910 Column_911 Column_912 Column_913 Column_914 Column_915 Column_916 Column_917 Column_918 Column_919 Column_920 Column_921 Column_922 Column_923 Column_924 Column_925 Column_926 Column_927 Column_928 Column_929 Column_930 Column_931 Column_932 Column_933 Column_934 Column_935 Column_936 Column_937 Column_938 Column_939 Column_940 Column_941 Column_942 Column_943 Column_944 Column_945 Column_946 Column_947 Column_948 Column_949 Column_950 Column_951 Column_952 Column_953 Column_954 Column_955 Column_956 Column_957 Column_958 Column_959 Column_960 Column_961 Column_962 Column_963 Column_964 Column_965 Column_966 Column_967 Column_968 Column_969 Column_970 Column_971 Column_972 Column_973 Column_974 Column_975 Column_976 Column_977 Column_978 Column_979 Column_980 Column_981 Column_982 Column_983 Column_984 Column_985 Column_986 Column_987 Column_988 Column_989 Column_990 Column_991 Column_992 Column_993 Column_994 Column_995 Column_996 Column_997 Column_998 Column_999 Column_1000 Column_1001 Column_1002 Column_1003 Column_1004 Column_1005 Column_1006 Column_1007 Column_1008 Column_1009 Column_1010 Column_1011 Column_1012 Column_1013 Column_1014 Column_1015 Column_1016 Column_1017 Column_1018 Column_1019 Column_1020 Column_1021 Column_1022 Column_1023 Column_1024 Column_1025 Column_1026 Column_1027 Column_1028 Column_1029 Column_1030 Column_1031 Column_1032 Column_1033 Column_1034 Column_1035 Column_1036 Column_1037 Column_1038 Column_1039 Column_1040 Column_1041 Column_1042 Column_1043 Column_1044 Column_1045 Column_1046 Column_1047 Column_1048 Column_1049 Column_1050 Column_1051 Column_1052 Column_1053 Column_1054 Column_1055 Column_1056 Column_1057 Column_1058 Column_1059 Column_1060 Column_1061 Column_1062 Column_1063 Column_1064 Column_1065 Column_1066 Column_1067 Column_1068 Column_1069 Column_1070 Column_1071 Column_1072 Column_1073 Column_1074 Column_1075 Column_1076 Column_1077 Column_1078 Column_1079 Column_1080 Column_1081 Column_1082 Column_1083 Column_1084 Column_1085 Column_1086 Column_1087 Column_1088 Column_1089 Column_1090 Column_1091 Column_1092 Column_1093 Column_1094 Column_1095 Column_1096 Column_1097 Column_1098 Column_1099 Column_1100 Column_1101 Column_1102 Column_1103 Column_1104 Column_1105 Column_1106 Column_1107 Column_1108 Column_1109 Column_1110 Column_1111 Column_1112 Column_1113 Column_1114 Column_1115 Column_1116 Column_1117 Column_1118 Column_1119 Column_1120 Column_1121 Column_1122 Column_1123 Column_1124 Column_1125 Column_1126 Column_1127 Column_1128 Column_1129 Column_1130 Column_1131 Column_1132 Column_1133 Column_1134 Column_1135 Column_1136 Column_1137 Column_1138 Column_1139 Column_1140 Column_1141 Column_1142 Column_1143 Column_1144 Column_1145 Column_1146 Column_1147 Column_1148 Column_1149 Column_1150 Column_1151 Column_1152 Column_1153 Column_1154 Column_1155 Column_1156 Column_1157 Column_1158 Column_1159 Column_1160 Column_1161 Column_1162 Column_1163 Column_1164 Column_1165 Column_1166 Column_1167 Column_1168 Column_1169 Column_1170 Column_1171 Column_1172 Column_1173 Column_1174 Column_1175 Column_1176 Column_1177 Column_1178 Column_1179 Column_1180 Column_1181 Column_1182 Column_1183 Column_1184 Column_1185 Column_1186 Column_1187 Column_1188 Column_1189 Column_1190 Column_1191 Column_1192 Column_1193 Column_1194 Column_1195 Column_1196 Column_1197 Column_1198 Column_1199 Column_1200 Column_1201 Column_1202 Column_1203 Column_1204 Column_1205 Column_1206 Column_1207 Column_1208 Column_1209 Column_1210 Column_1211 Column_1212 Column_1213 Column_1214 Column_1215 Column_1216 Column_1217 Column_1218 Column_1219 Column_1220 Column_1221 Column_1222 Column_1223 Column_1224 Column_1225 Column_1226 Column_1227 Column_1228 Column_1229 Column_1230 Column_1231 Column_1232 Column_1233 Column_1234 Column_1235 Column_1236 Column_1237 Column_1238 Column_1239 Column_1240 Column_1241 Column_1242 Column_1243 Column_1244 Column_1245 Column_1246 Column_1247 Column_1248 Column_1249 Column_1250 Column_1251 Column_1252 Column_1253 Column_1254 Column_1255 Column_1256 Column_1257 Column_1258 Column_1259 Column_1260 Column_1261 Column_1262 Column_1263 Column_1264 Column_1265 Column_1266 Column_1267 Column_1268 Column_1269 Column_1270 Column_1271 Column_1272 Column_1273 Column_1274 Column_1275 Column_1276 Column_1277 Column_1278 Column_1279 Column_1280 Column_1281 Column_1282 Column_1283 Column_1284 Column_1285 Column_1286 Column_1287 Column_1288 Column_1289 Column_1290 Column_1291 Column_1292 Column_1293 Column_1294 Column_1295 Column_1296 Column_1297 Column_1298 Column_1299 Column_1300 Column_1301 Column_1302 Column_1303 Column_1304 Column_1305 Column_1306 Column_1307 Column_1308 Column_1309 Column_1310 Column_1311 Column_1312 Column_1313 Column_1314 Column_1315 Column_1316 Column_1317 Column_1318 Column_1319 Column_1320 Column_1321 Column_1322 Column_1323 Column_1324 Column_1325 Column_1326 Column_1327 Column_1328 Column_1329 Column_1330 Column_1331 Column_1332 Column_1333 Column_1334 Column_1335 Column_1336 Column_1337 Column_1338 Column_1339 Column_1340 Column_1341 Column_1342 Column_1343 Column_1344 Column_1345 Column_1346 Column_1347 Column_1348 Column_1349 Column_1350 Column_1351 Column_1352 Column_1353 Column_1354 Column_1355 Column_1356 Column_1357 Column_1358 Column_1359 Column_1360 Column_1361 Column_1362 Column_1363 Column_1364 Column_1365 Column_1366 Column_1367 Column_1368 Column_1369 Column_1370 Column_1371 Column_1372 Column_1373 Column_1374 Column_1375 Column_1376 Column_1377 Column_1378 Column_1379 Column_1380 Column_1381 Column_1382 Column_1383 Column_1384 Column_1385 Column_1386 Column_1387 Column_1388 Column_1389 Column_1390 Column_1391 Column_1392 Column_1393 Column_1394 Column_1395 Column_1396 Column_1397 Column_1398 Column_1399 Column_1400 Column_1401 Column_1402 Column_1403 Column_1404 Column_1405 Column_1406 Column_1407 Column_1408 Column_1409 Column_1410 Column_1411 Column_1412 Column_1413 Column_1414 Column_1415 Column_1416 Column_1417 Column_1418 Column_1419 Column_1420 Column_1421 Column_1422 Column_1423 Column_1424 Column_1425 Column_1426 Column_1427 Column_1428 Column_1429 Column_1430 Column_1431 Column_1432 Column_1433 Column_1434 Column_1435 Column_1436 Column_1437 Column_1438 Column_1439 Column_1440 Column_1441 Column_1442 Column_1443 Column_1444 Column_1445 Column_1446 Column_1447 Column_1448 Column_1449 Column_1450 Column_1451 Column_1452 Column_1453 Column_1454 Column_1455 Column_1456 Column_1457 Column_1458 Column_1459 Column_1460 Column_1461 Column_1462 Column_1463 Column_1464 Column_1465 Column_1466 Column_1467 Column_1468 Column_1469 Column_1470 Column_1471 Column_1472 Column_1473 Column_1474 Column_1475 Column_1476 Column_1477 Column_1478 Column_1479 Column_1480 Column_1481 Column_1482 Column_1483 Column_1484 Column_1485 Column_1486 Column_1487 Column_1488 Column_1489 Column_1490 Column_1491 Column_1492 Column_1493 Column_1494 Column_1495 Column_1496 Column_1497 Column_1498 Column_1499 Column_1500 Column_1501 Column_1502 Column_1503 Column_1504 Column_1505 Column_1506 Column_1507 Column_1508 Column_1509 Column_1510 Column_1511 Column_1512 Column_1513 Column_1514 Column_1515 Column_1516 Column_1517 Column_1518 Column_1519 Column_1520 Column_1521 Column_1522 Column_1523 Column_1524 Column_1525 Column_1526 Column_1527 Column_1528 Column_1529 Column_1530 Column_1531 Column_1532 Column_1533 Column_1534 Column_1535 Column_1536 Column_1537 Column_1538 Column_1539 Column_1540 Column_1541 Column_1542 Column_1543 Column_1544 Column_1545 Column_1546 Column_1547 Column_1548 Column_1549 Column_1550 Column_1551 Column_1552 Column_1553 Column_1554 Column_1555 Column_1556 Column_1557 Column_1558 Column_1559 Column_1560 Column_1561 Column_1562 Column_1563 Column_1564 Column_1565 Column_1566 Column_1567 Column_1568 Column_1569 Column_1570 Column_1571 Column_1572 Column_1573 Column_1574 Column_1575 Column_1576 Column_1577 Column_1578 Column_1579 Column_1580 Column_1581 Column_1582 Column_1583 Column_1584 Column_1585 Column_1586 Column_1587 Column_1588 Column_1589 Column_1590 Column_1591 Column_1592 Column_1593 Column_1594 Column_1595 Column_1596 Column_1597 Column_1598 Column_1599 Column_1600 Column_1601 Column_1602 Column_1603 Column_1604 Column_1605 Column_1606 Column_1607 Column_1608 Column_1609 Column_1610 Column_1611 Column_1612 Column_1613 Column_1614 Column_1615 Column_1616 Column_1617 Column_1618 Column_1619 Column_1620 Column_1621 Column_1622 Column_1623 Column_1624 Column_1625 Column_1626 Column_1627 Column_1628 Column_1629 Column_1630 Column_1631 Column_1632 Column_1633 Column_1634 Column_1635 Column_1636 Column_1637 Column_1638 Column_1639 Column_1640 Column_1641 Column_1642 Column_1643 Column_1644 Column_1645 Column_1646 Column_1647 Column_1648 Column_1649 Column_1650 Column_1651 Column_1652 Column_1653 Column_1654 Column_1655 Column_1656 Column_1657 Column_1658 Column_1659 Column_1660 Column_1661 Column_1662 Column_1663 Column_1664 Column_1665 Column_1666 Column_1667 Column_1668 Column_1669 Column_1670 Column_1671 Column_1672 Column_1673 Column_1674 Column_1675 Column_1676 Column_1677 Column_1678 Column_1679 Column_1680 Column_1681 Column_1682 Column_1683 Column_1684 Column_1685 Column_1686 Column_1687 Column_1688 Column_1689 Column_1690 Column_1691 Column_1692 Column_1693 Column_1694 Column_1695 Column_1696 Column_1697 Column_1698 Column_1699 Column_1700 Column_1701 Column_1702 Column_1703 Column_1704 Column_1705 Column_1706 Column_1707 Column_1708 Column_1709 Column_1710 Column_1711 Column_1712 Column_1713 Column_1714 Column_1715 Column_1716 Column_1717 Column_1718 Column_1719 Column_1720 Column_1721 Column_1722 Column_1723 Column_1724 Column_1725 Column_1726 Column_1727 Column_1728 Column_1729 Column_1730 Column_1731 Column_1732 Column_1733 Column_1734 Column_1735 Column_1736 Column_1737 Column_1738 Column_1739 Column_1740 Column_1741 Column_1742 Column_1743 Column_1744 Column_1745 Column_1746 Column_1747 Column_1748 Column_1749 Column_1750 Column_1751 Column_1752 Column_1753 Column_1754 Column_1755 Column_1756 Column_1757 Column_1758 Column_1759 Column_1760 Column_1761 Column_1762 Column_1763 Column_1764 Column_1765 Column_1766 Column_1767 Column_1768 Column_1769 Column_1770 Column_1771 Column_1772 Column_1773 Column_1774 Column_1775 Column_1776 Column_1777 Column_1778 Column_1779 Column_1780 Column_1781 Column_1782 Column_1783 Column_1784 Column_1785 Column_1786 Column_1787 Column_1788 Column_1789 Column_1790 Column_1791 Column_1792 Column_1793 Column_1794 Column_1795 Column_1796 Column_1797 Column_1798 Column_1799 Column_1800 Column_1801 Column_1802 Column_1803 Column_1804 Column_1805 Column_1806 Column_1807 Column_1808 Column_1809 Column_1810 Column_1811 Column_1812 Column_1813 Column_1814 Column_1815 Column_1816 Column_1817 Column_1818 Column_1819 Column_1820 Column_1821 Column_1822 Column_1823 Column_1824 Column_1825 Column_1826 Column_1827 Column_1828 Column_1829 Column_1830 Column_1831 Column_1832 Column_1833 Column_1834 Column_1835 Column_1836 Column_1837 Column_1838 Column_1839 Column_1840 Column_1841 Column_1842 Column_1843 Column_1844 Column_1845 Column_1846 Column_1847 Column_1848 Column_1849 Column_1850 Column_1851 Column_1852 Column_1853 Column_1854 Column_1855 Column_1856 Column_1857 Column_1858 Column_1859 Column_1860 Column_1861 Column_1862 Column_1863 Column_1864 Column_1865 Column_1866 Column_1867 Column_1868 Column_1869 Column_1870 Column_1871 Column_1872 Column_1873 Column_1874 Column_1875 Column_1876 Column_1877 Column_1878 Column_1879 Column_1880 Column_1881 Column_1882 Column_1883 Column_1884 Column_1885 Column_1886 Column_1887 Column_1888 Column_1889 Column_1890 Column_1891 Column_1892 Column_1893 Column_1894 Column_1895 Column_1896 Column_1897 Column_1898 Column_1899 Column_1900 Column_1901 Column_1902 Column_1903 Column_1904 Column_1905 Column_1906 Column_1907 Column_1908 Column_1909 Column_1910 Column_1911 Column_1912 Column_1913 Column_1914 Column_1915 Column_1916 Column_1917 Column_1918 Column_1919 Column_1920 Column_1921 Column_1922 Column_1923 Column_1924 Column_1925 Column_1926 Column_1927 Column_1928 Column_1929 Column_1930 Column_1931 Column_1932 Column_1933 Column_1934 Column_1935 Column_1936 Column_1937 Column_1938 Column_1939 Column_1940 Column_1941 Column_1942 Column_1943 Column_1944 Column_1945 Column_1946 Column_1947 Column_1948 Column_1949 Column_1950 Column_1951 Column_1952 Column_1953 Column_1954 Column_1955 Column_1956 Column_1957 Column_1958 Column_1959 Column_1960 Column_1961 Column_1962 Column_1963 Column_1964 Column_1965 Column_1966 Column_1967 Column_1968 Column_1969 Column_1970 Column_1971 Column_1972 Column_1973 Column_1974 Column_1975 Column_1976 Column_1977 Column_1978 Column_1979 Column_1980 Column_1981 Column_1982 Column_1983 Column_1984 Column_1985 Column_1986 Column_1987 Column_1988 Column_1989 Column_1990 Column_1991 Column_1992 Column_1993 Column_1994 Column_1995 Column_1996 Column_1997 Column_1998 Column_1999 Column_2000 Column_2001 Column_2002 Column_2003 Column_2004 Column_2005 Column_2006 Column_2007 Column_2008 Column_2009 Column_2010 Column_2011 Column_2012 Column_2013 Column_2014 Column_2015 Column_2016 Column_2017 Column_2018 Column_2019 Column_2020 Column_2021 Column_2022 Column_2023 Column_2024 Column_2025 Column_2026 Column_2027 Column_2028 Column_2029 Column_2030 Column_2031 Column_2032 Column_2033 Column_2034 Column_2035 Column_2036 Column_2037 Column_2038 Column_2039 Column_2040 Column_2041 Column_2042 Column_2043 Column_2044 Column_2045 Column_2046 Column_2047 Column_2048 Column_2049 Column_2050 Column_2051 Column_2052 Column_2053 Column_2054 Column_2055 Column_2056 Column_2057 Column_2058 Column_2059 Column_2060 Column_2061 Column_2062 Column_2063 Column_2064 Column_2065 Column_2066 Column_2067 Column_2068 Column_2069 Column_2070 Column_2071 Column_2072 Column_2073 Column_2074 Column_2075 Column_2076 Column_2077 Column_2078 Column_2079 Column_2080 Column_2081 Column_2082 Column_2083 Column_2084 Column_2085 Column_2086 Column_2087 Column_2088 Column_2089 Column_2090 Column_2091 Column_2092 Column_2093 Column_2094 Column_2095 Column_2096 Column_2097 Column_2098 Column_2099 Column_2100 Column_2101 Column_2102 Column_2103 Column_2104 Column_2105 Column_2106 Column_2107 Column_2108 Column_2109 Column_2110 Column_2111 Column_2112 Column_2113 Column_2114 Column_2115 Column_2116 Column_2117 Column_2118 Column_2119 Column_2120 Column_2121 Column_2122 Column_2123 Column_2124 Column_2125 Column_2126 Column_2127 Column_2128 Column_2129 Column_2130 Column_2131 Column_2132 Column_2133 Column_2134 Column_2135 Column_2136 Column_2137 Column_2138 Column_2139 Column_2140 Column_2141 Column_2142 Column_2143 Column_2144 Column_2145 Column_2146 Column_2147 Column_2148 Column_2149 Column_2150 Column_2151 Column_2152 Column_2153 Column_2154 Column_2155 Column_2156 Column_2157 Column_2158 Column_2159 Column_2160 Column_2161 Column_2162 Column_2163 Column_2164 Column_2165 Column_2166 Column_2167 Column_2168 Column_2169 Column_2170 Column_2171 Column_2172 Column_2173 Column_2174 Column_2175 Column_2176 Column_2177 Column_2178 Column_2179 Column_2180 Column_2181 Column_2182 Column_2183 Column_2184 Column_2185 Column_2186 Column_2187 Column_2188 Column_2189 Column_2190 Column_2191 Column_2192 Column_2193 Column_2194 Column_2195 Column_2196 Column_2197 Column_2198 Column_2199 Column_2200 Column_2201 Column_2202 Column_2203 Column_2204 Column_2205 Column_2206 Column_2207 Column_2208 Column_2209 Column_2210 Column_2211 Column_2212 Column_2213 Column_2214 Column_2215 Column_2216 Column_2217 Column_2218 Column_2219 Column_2220 Column_2221 Column_2222 Column_2223 Column_2224 Column_2225 Column_2226 Column_2227 Column_2228 Column_2229 Column_2230 Column_2231 Column_2232 Column_2233 Column_2234 Column_2235 Column_2236 Column_2237 Column_2238 Column_2239 Column_2240 Column_2241 Column_2242 Column_2243 Column_2244 Column_2245 Column_2246 Column_2247 Column_2248 Column_2249 Column_2250 Column_2251 Column_2252 Column_2253 Column_2254 Column_2255 Column_2256 Column_2257 Column_2258 Column_2259 Column_2260 Column_2261 Column_2262 Column_2263 Column_2264 Column_2265 Column_2266 Column_2267 Column_2268 Column_2269 Column_2270 Column_2271 Column_2272 Column_2273 Column_2274 Column_2275 Column_2276 Column_2277 Column_2278 Column_2279 Column_2280 Column_2281 Column_2282 Column_2283 Column_2284 Column_2285 Column_2286 Column_2287 Column_2288 Column_2289 Column_2290 Column_2291 Column_2292 Column_2293 Column_2294 Column_2295 Column_2296 Column_2297 Column_2298 Column_2299 Column_2300 Column_2301 Column_2302 Column_2303 Column_2304 Column_2305 Column_2306 Column_2307 Column_2308 Column_2309 Column_2310 Column_2311 Column_2312 Column_2313 Column_2314 Column_2315 Column_2316 Column_2317 Column_2318 Column_2319 Column_2320 Column_2321 Column_2322 Column_2323 Column_2324 Column_2325 Column_2326 Column_2327 Column_2328 Column_2329 Column_2330 Column_2331 Column_2332 Column_2333 Column_2334 Column_2335 Column_2336 Column_2337 Column_2338 Column_2339 Column_2340 Column_2341 Column_2342 Column_2343 Column_2344 Column_2345 Column_2346 Column_2347 Column_2348 Column_2349 Column_2350 Column_2351 Column_2352 Column_2353 Column_2354 Column_2355 Column_2356 Column_2357 Column_2358 Column_2359 Column_2360 Column_2361 Column_2362 Column_2363 Column_2364 Column_2365 Column_2366 Column_2367 Column_2368 Column_2369 Column_2370 Column_2371 Column_2372 Column_2373 Column_2374 Column_2375 Column_2376 Column_2377 Column_2378 Column_2379 Column_2380
feature_infos=[0.0017676259158179164:0.99986469745635986] [1.4446191016759258e-06:0.85994201898574829] [1.9261588022345677e-06:0.23327313363552094] [0:0.36683675646781921] [1.4446191016759258e-06:0.3692992627620697] [0:0.40511593222618103] [0:0.28954222798347473] [0:0.16646470129489899] [0:0.12047239392995834] [0:0.29219120740890503] [0:0.30297011137008667] [4.8153970055864193e-07:0.17854510247707367] [0:0.1731770783662796] [0:0.11549288034439087] [0:0.37144887447357178] [0:0.30870446562767029] [9.3842427304480225e-06:0.14567127823829651] [0:0.069854266941547394] [0:0.1899668425321579] [0:0.1149088516831398] [0:0.052152521908283234] [0:0.036474641412496567] [0:0.05714000016450882] [0:0.23897859454154968] [0:0.051250990480184555] [0:0.24175012111663818] [0:0.10591886937618256] [0:0.0977630615234375] [0:0.062857508659362793] [0:0.064138010144233704] [0:0.14929825067520142] [0:0.15150497853755951] [0:0.27826607227325439] [0:0.045919351279735565] [0:0.11193238943815231] [0:0.090226776897907257] [0:0.10364878922700882] [0:0.074851445853710175] [0:0.13978737592697144] [0:0.1239507645368576] [0:0.12202589958906174] [0:0.11606256663799286] [0:0.11500828713178635] [0:0.21817860007286072] [0:0.14309325814247131] [0:0.079797625541687012] [0:0.81853067874908447] [0:0.081023767590522766] [0:0.57299798727035522] [0:0.2173888087272644] [0:0.12099157273769379] [0:0.076855003833770752] [0:0.15051889419555664] [0:0.18160445988178253] [0:0.12096011638641357] [0:0.075571365654468536] [0:0.12193510681390762] [0:0.043093975633382797] [0:0.068345427513122559] [0:0.14372819662094116] [0:0.14692625403404236] [0:0.062463540583848953] [0:0.31864222884178162] [0:0.41843938827514648] [0:0.083576180040836334] [0:0.29103186726570129] [0:0.1948215514421463] [0:0.092663131654262543] [0:0.1584140956401825] [4.8153970055864193e-07:0.08466087281703949] [0:0.1704639196395874] [0:0.086919233202934265] [0:0.10925751179456711] [0:0.062615953385829926] [0:0.13235075771808624] [0:0.19870610535144806] [9.6307940111728385e-07:0.073944732546806335] [4.8153970055864193e-07:0.086371384561061859] [0:0.11380349099636078] [0:0.057153321802616119] [4.8153970055864193e-07:0.06717267632484436] [0:0.087081104516983032] [0:0.46291708946228027] [0:0.04607747495174408] [0:0.085324645042419434] [0:0.046018805354833603] [0:0.04338277131319046] [0:0.071855992078781128] [0:0.062925167381763458] [0:0.11872415244579315] [4.8153970055864193e-07:0.033597309142351151] [0:0.11463779956102371] [0:0.050872955471277237] [0:0.14892159402370453] [0:0.054701134562492371] [0:0.11216140538454056] [0:0.085783302783966064] [0:0.19475190341472626] [0:0.045536953955888748] [0:0.7932884693145752] [0:0.045243754982948303] [3.8523176044691354e-06:0.10203009843826294] [0:0.61878174543380737] [0:0.08231528103351593] [0:0.0482940673828125] [0:0.074565708637237549] [0:0.063277840614318848] [0:0.064668923616409302] [0:0.061478607356548309] [0:0.051417823880910873] [0:0.1334865391254425] [0:0.077110543847084045] [0:0.049104001373052597] [0:0.13443398475646973] [0:0.087979726493358612] [0:0.15091820061206818] [6.260016107262345e-06:0.19993267953395844] [0:0.11232159286737442] [0:0.030471183359622955] [0:0.15962898731231689] [0:0.12502859532833099] [0:0.068326309323310852] [0:0.1038304790854454] [0:0.052543666213750839] [0:0.068045124411582947] [0:0.053192012012004852] [0:0.03457166999578476] [0:0.0577392578125] [0:0.14885397255420685] [0:0.1396060436964035] [0:0.070470787584781647] [0:0.10471606999635696] [0:0.21731045842170715] [0:0.35797280073165894] [0:0.12558531761169434] [0:0.069075010716915131] [0:0.19890351593494415] [0:0.06685272604227066] [0:0.19888007640838623] [0:0.092615805566310883] [0:0.047203034162521362] [0:0.0834197998046875] [0:0.088277898728847504] [0:0.11111229658126831] [0:0.2041015625] [0:0.052163787186145782] [0:0.037701759487390518] [0:0.1206154078245163] [0:0.070693530142307281] [0:0.035865034908056259] [0:0.026359116658568382] [0:0.056938551366329193] [0:0.050726477056741714] [0:0.12442228943109512] [0:0.091974727809429169] [0:0.030001068487763405] [0:0.16332381963729858] [0:0.08786223828792572] [0:0.067262358963489532] [0:0.035407528281211853] [0:0.060414955019950867] [0:0.064417615532875061] [0:0.074187934398651123] [0:0.051665440201759338] [0:0.11918057501316071] [0:0.036552630364894867] [0:0.13337667286396027] [0:0.063381291925907135] [0:0.14531511068344116] [0:0.13227644562721252] [0:0.042739596217870712] [0:0.1055585965514183] [0:0.048977840691804886] [0:0.030525729060173035] [0:0.13588276505470276] [0:0.069168753921985626] [0:0.045640792697668076] [0:0.078526921570301056] [0:0.070472471415996552] [0:0.03268282487988472] [0:0.058867506682872772] [0:0.13220496475696564] [0:0.022766677662730217] [0:0.050221443176269531] [0:0.19808545708656311] [0:0.069757811725139618] [0:0.07111097127199173] [0:0.055203482508659363] [0:0.055552974343299866] [0:0.044809766113758087] [0:0.035437490791082382] [0:0.16139493882656097] [0:0.24755007028579712] [0:0.19946326315402985] [0:0.072999149560928345] [0:0.5258445143699646] [0:0.15515689551830292] [0:0.052087444812059402] [0:0.17526976764202118] [0:0.065814003348350525] [0:0.041626293212175369] [0:0.046310879290103912] [0:0.060759536921977997] [0:0.032930813729763031] [0:0.4012044370174408] [0:0.19614173471927643] [0:0.063793979585170746] [0:0.16331373155117035] [0:0.19186918437480927] [0:0.10569315403699875] [0:0.051255673170089722] [0:0.086568593978881836] [0:0.065401516854763031] [0:0.065237194299697876] [0:0.037824671715497971] [0:0.20864443480968475] [0:0.20358002185821533] [0:0.075969114899635315] [0:0.10323333740234375] [0:0.022049859166145325] [0:0.034521806985139847] [0:0.034477706998586655] [0:0.040026918053627014] [0:0.094498410820960999] [0:0.15230292081832886] [0:0.034227337688207626] [0:0.11938165128231049] [0:0.095993109047412872] [0:0.081793233752250671] [0:0.040646590292453766] [0:0.06003103032708168] [0:0.14796556532382965] [0:0.31951779127120972] [0:0.25034099817276001] [0:0.045639146119356155] [0:0.17517219483852386] [0:0.20379820466041565] [0:0.061136111617088318] [0:0.082238808274269104] [0:0.063273012638092041] [0:0.087350815534591675] [0:0.0624062679708004] [0:0.081720270216464996] [0:0.23027704656124115] [0:0.4541054368019104] [0:0.092296510934829712] [0:0.19872593879699707] [0:0.10613997280597687] [0:0.47829484939575195] [0:0.074025422334671021] [0:0.11297104507684708] [0:0.06519366055727005] [0:0.36005204916000366] [0:0.14375616610050201] [0:0.13990266621112823] [0:0.80288028717041016] [0:0.99950665235519409] [0:0.24827522039413452] [0:0.73310881853103638] [0:0.78481012582778931] [0:0.12833981215953827] [0:0.0068620662204921246] [0:0.67595189809799194] [0:0.047904204577207565] [0:0.10292632132768631] [0:0.17426712810993195] [0:0.037131883203983307] [0:0.024316314607858658] [0:0.52276510000228882] [0:0.11973586678504944] [0:0.02380952425301075] [0:0.91100877523422241] [0:0.69507986307144165] [0:0.015421874821186066] [0:0.048263587057590485] [0:0.20270933210849762] [0:0.0064691728912293911] [0:0.0023031430318951607] [0:0.17152987420558929] [0:0.015551142394542694] [0:0.013664205558598042] [0:0.0074880304746329784] [0:0.004707790445536375] [0:0.0159127376973629] [0:0.041595458984375] [0:0.02441752515733242] [0:0.0053447447717189789] [0:0.2311716228723526] [0:0.931640625] [0:0.020437242463231087] [0:0.13920029997825623] [0:0.12408016622066498] [0:0.017903275787830353] [0:0.054998759180307388] [0:0.2866961658000946] [0:0.022645106539130211] [0:0.0060389651916921139] [0:0.015215192921459675] [0:0.0049041709862649441] [0:0.0081746466457843781] [0:0.064474351704120636] [0:0.10132552683353424] [0:0.015343331731855869] [0:0.13306346535682678] [0:0.92122393846511841] [0:0.3054206371307373] [0:0.20362190902233124] [0:0.33880111575126648] [0:0.1537231057882309] [0:0.22853627800941467] [0:0.20255227386951447] [0:0.10527166724205017] [0:0.10073535144329071] [0:0.017763335257768631] [0:0.0068400907330214977] [0:0.013418484479188919] [0:0.075531408190727234] [0:0.14297792315483093] [0:0.28591892123222351] [0:0.250090092420578] [0:0.8369140625] [0:0.083177819848060608] [0:0.082458950579166412] [0:0.086908914148807526] [0:0.043269231915473938] [0:0.1701652854681015] [0:0.28917348384857178] [0:0.23275479674339294] [0:0.073137968778610229] [0:0.030514014884829521] [0:0.026965556666254997] [0:0.017187949270009995] [0:0.072795197367668152] [0:0.022836243733763695] [0:0.04119245707988739] [0:0.34310117363929749] [0:0.73798078298568726] [0:0.036700207740068436] [0:0.081196732819080353] [0:0.25125867128372192] [0:0.15935827791690826] [0:0.079662643373012543] [0:0.14006076753139496] [0:0.06410469114780426] [0:0.080174729228019714] [0:0.017438055947422981] [0:0.018353797495365143] [0:0.012019230984151363] [0:0.061642378568649292] [0:0.05560673400759697] [0:0.039788078516721725] [0:0.30597406625747681] [0:0.7392578125] [0:0.063327468931674957] [0:0.11397473514080048] [0:0.31455627083778381] [0:0.31066659092903137] [0:0.19219052791595459] [0:0.1371728926897049] [0:0.094897165894508362] [0:0.39654257893562317] [0:0.205078125] [0:0.075904026627540588] [0:0.063060112297534943] [0:0.13363336026668549] [0:0.10264342278242111] [0:0.31454941630363464] [0:0.19840283691883087] [0:0.73095703125] [0:0.17791841924190521] [0:0.18257236480712891] [0:0.23089683055877686] [0:0.26001816987991333] [0:0.11891494691371918] [0:0.25201416015625] [0:0.12796224653720856] [0:0.077645599842071533] [0:0.19775390625] [0:0.030816076323390007] [0:0.1095842644572258] [0:0.065255388617515564] [0:0.0998186394572258] [0:0.08738495409488678] [0:0.2026507705450058] [0:0.65576171875] [0:0.14205640554428101] [0:0.29450336098670959] [0:0.28007787466049194] [0:0.21292649209499359] [0:0.27036458253860474] [0:0.32260292768478394] [0:0.18346461653709412] [0:0.20191605389118195] [0:0.1181623712182045] [0:0.14703135192394257] [0:0.1121826171875] [0:0.11817082017660141] [0:0.13998229801654816] [0:0.097088955342769623] [0:0.22587677836418152] [0:0.5751953125] [0:0.077392578125] [0:0.1540876179933548] [0:0.19513119757175446] [0:0.23157340288162231] [0:0.1701669842004776] [0:0.27114307880401611] [0:0.19109222292900085] [0:0.10858651250600815] [0:0.10419411957263947] [0:0.1667829304933548] [0:0.087416872382164001] [0:0.13064341247081757] [0:0.092218242585659027] [0:0.13379903137683868] [0:0.16194835305213928] [0:0.55712890625] [0:0.17728269100189209] [0:0.17090210318565369] [0:0.27024489641189575] [0:0.17038390040397644] [0:0.12506957352161407] [0:0.25599882006645203] [0:0.1402592658996582] [0:0.088053382933139801] [0:0.07134469598531723] [0:0.12921768426895142] [0:0.058557581156492233] [0:0.11782144755125046] [0:0.048354312777519226] [0:0.10157305747270584] [0:0.15911053121089935] [0:0.4931640625] [0:0.10599353164434433] [0:0.10625122487545013] [0:0.19195556640625] [0:0.195556640625] [0:0.14009790122509003] [0:0.13134765625] [0:0.10719628632068634] [0:0.16194528341293335] [0:0.06884765625] [0:0.070518814027309418] [0:0.04877597838640213] [0:0.096695847809314728] [0:0.099023438990116119] [0:0.10484772920608521] [0:0.13508345186710358] [0:0.412109375] [0:0.06464356929063797] [0:0.09162314236164093] [0:0.1583251953125] [0:0.139404296875] [0:0.06591796875] [0:0.071045838296413422] [0:0.0537109375] [0:0.16320815682411194] [0:0.067430615425109863] [0:0.08530474454164505] [0:0.0589599609375] [0:0.16343744099140167] [0:0.050761319696903229] [0:0.10120738297700882] [0:0.26602146029472351] [0:0.31797733902931213] [0:0.14701621234416962] [0:0.11489129811525345] [0:0.11079644411802292] [0:0.1837681382894516] [0:0.12238069623708725] [0:0.13042697310447693] [0:0.098442554473876953] [0:0.13925853371620178] [0:0.0727120041847229] [0:0.10122445970773697] [0:0.15666316449642181] [0:0.15317502617835999] [0:0.095199823379516602] [0:0.07280191034078598] [0:0.27585050463676453] [0:0.23524689674377441] [0:0.202504962682724] [0:0.22549371421337128] [0:0.077850341796875] [0:0.0903010293841362] [0:0.086230471730232239] [0:0.11761560291051865] [0:0.15373478829860687] [0:0.103515625] [0:0.05742187425494194] [0:0.13735087215900421] [0:0.22190070152282715] [0:0.11716756969690323] [0:0.085628494620323181] [0:0.29419043660163879] [0:0.12606534361839294] [0:0.17884393036365509] [0:0.10822547227144241] [0:0.10847585648298264] [0:0.12449634075164795] [0:0.14026917517185211] [0:0.12030115723609924] [0:0.11694645136594772] [0:0.1061004176735878] [0:0.1190863698720932] [0:0.082544922828674316] [0:0.098703041672706604] [0:0.15594582259654999] [0:0.077185794711112976] [0:0.11551816016435623] [0:0.092140614986419678] [0:0.1873563826084137] [0:971810] [0:10117.5341796875] [0:8873217] [0:0.76524168252944946] [0:0.14837829768657684] [0:0.34879675507545471] [0:0.29498469829559326] [0:0.21877177059650421] [0:0.2702527642250061] [0:0.11647585779428482] [0:0.31890946626663208] [0:0.23741483688354492] [0:0.2811431884765625] [0:0.16343490779399872] [0:0.28123140335083008] [0:0.65373653173446655] [0:0.23011836409568787] [0:0.98671561479568481] [0:0.24926339089870453] [0:0.8848719596862793] [0:0.26314559578895569] [0:0.27633008360862732] [0:0.33440470695495605] [0:0.65981495380401611] [0:0.24996170401573181] [0:0.17670564353466034] [0:0.6993899941444397] [0:0.33456745743751526] [0:0.3778458833694458] [0:0.18707482516765594] [0:0.13550043106079102] [0:0.075951278209686279] [0:0.76351815462112427] [0:0.29381909966468811] [0:0.5992501974105835] [0:0.23352000117301941] [0:0.6342124342918396] [0:0.35878691077232361] [0:0.86180657148361206] [0:0.64236152172088623] [0:0.75483489036560059] [0:0.71378523111343384] [0:0.39812290668487549] [0:0.50856280326843262] [0:0.26988965272903442] [0:0.13014622032642365] [0:0.2686525285243988] [0:0.22537025809288025] [0:0.29311949014663696] [0:0.36890491843223572] [0:0.1836712658405304] [0:0.19011406600475311] [0:0.37625125050544739] [0:0.96725165843963623] [0:0.22856685519218445] [0:0.30776554346084595] [0:0.19289340078830719] [0:0.13686415553092957] [0:0.21212121844291687] [0:0.31720030307769775] [0:0.24904832243919373] [0:0.1293213814496994] [0:0.19960997998714447] [0:0.11561057716608047] [0:0.17912590503692627] [0:0.15312039852142334] [0:0.81651401519775391] [0:0.24169106781482697] [0:0.7611997127532959] [0:0.28581100702285767] [0:0.98703736066818237] [0:0.091750368475914001] [0:0.20000000298023224] [0:0.92895442247390747] [0:0.12407931685447693] [0:0.33026409149169922] [0:0.46623134613037109] [0:0.30076953768730164] [0:0.082236044108867645] [0:0.29654908180236816] [0:0.18514730036258698] [0:0.20877309143543243] [0:0.32119724154472351] [0:0.3598741888999939] [0:0.73704499006271362] [0:0.40807217359542847] [0:0.85444307327270508] [0:0.8787195086479187] [0:0.19926799833774567] [0:0.1421775221824646] [0:0.70974850654602051] [0:0.21567784249782562] [0:0.47495350241661072] [0:0.55221986770629883] [0:0.26022061705589294] [0:0.12458598613739014] [0:0.10101210325956345] [0:0.11276382207870483] [0:0.13554297387599945] [0:6.5849504470825195] [0:3476] [0:5923] [0:191] [1:3244] [376:209750016] [512:331317248] [0:1] [0:52653] [0:5068] [0:1] [0:1] [0:1] [0:1] [0:90986] [0:4293151232] none none none none none [0:1] [-1:1] none none none [-1:0] none [-1:0] [-1:3] [-1:0] [-1:0] [-1:1] [0:1] [-1:1] [0:1] none none none none none none none [-1:1] [-1:1] [-1:0] [0:1] [-2:1] none [-1:2] none [-1:0] none [-1:0] [-1:0] none none [-1:0] none none [0:1] none none none none none [0:52889] [0:58829] [0:226] [0:255] [0:56653] [0:18327] [0:10] [0:51] [0:4294967296] [352:5103616] [0:16846848] [1:96] [0:19] [0:20] [0:91] [0:92] [-10534568:578713600] none [-1560064:1503744] [-1108480:1761280] [-5820416:5551104] [-3693056:815104] [-2409984:2680832] [-4575232:1916416] [-147456:1352704] none [-20905984:7147008] [-17049500:87040] [-18640896:7161856] [-2515968:568832] [-2232320:17271296] [-2980352:204800] [-1273856:1320448] [-4027904:3342336] [-1824768:1540096] [-1443328:12151296] none none [-3821568:5120000] [-906752:2114560] [-3120640:23052288] none none [-906240:2613248] [-12615168:952320] none none [-8839168:1740800] [-39467008:2739200] none [-224768:1713152] [-3922432:64966656] none none [-20918272:1217536] none [-891392:1406976] [-55036928:246784] [-2189824:557568] [-20480:55877632] none none [-423936:466944] [-1258496:168422] none none [-7.9279599189758301:55.875411987304688] none [-7.9970912933349609:7.954744815826416] [-35.953529357910156:7.952784538269043] [-7.9039835929870605:14.396211624145508] [-13.67221736907959:7.8200678825378418] [-38.304244995117188:7.9427289962768555] [-7.9995532035827637:7.9987707138061523] [-14.78459644317627:7.9997091293334961] none [-7.999967098236084:13.456783294677734] [-24.897855758666992:7.8785896301269531] [-7.9868569374084473:7.9884042739868164] [-7.9993634223937988:6.521181583404541] [-7.999669075012207:17.226757049560547] [-15.850338935852051:15.233346939086914] [-7.9975128173828125:31.423244476318359] [-12.581425666809082:13.580792427062988] [-7.6603536605834961:7.9461169242858887] [-641.546142578125:10.632328033447266] none none [-7.999946117401123:15.894633293151855] [-14.439014434814453:7.9993996620178223] [-7.9541611671447754:13.899710655212402] none none [-7.9968185424804688:7.9468703269958496] [-7.9999847412109375:7.9998440742492676] none none [-7.9998698234558105:14.738560676574707] [-15.550025939941406:7.9923553466796875] none [-7.9992084503173828:7.9821009635925293] [-7.9998388290405273:7.9998908042907715] none none [-15.818337440490723:13.245635986328125] none [-7.9977068901062012:7.9051299095153809] [-15.910819053649902:7.2659196853637695] [-12.488497734069824:7.4788002967834473] [-6.8726482391357422:94.924537658691406] none none [-7.929100513458252:6.0825319290161133] [-31.723598480224609:7.9854130744934082] none none [-10543104:746475328] none [-1560576:1507328] [-8075966:1761280] [-7557120:5554176] [-82022400:815104] [-12652544:2680832] [-4574823:1916928] [-142580:1359872] none [-29065216:7147520] [-17049500:106496] [-18640896:7161488] [-4961084:2351104] [-2228537:17270964] [-2980328:204768] [-1271444:1613333] [-4027436:187865] [-1824586:1540096] [-1445888:3080192] none none [-3821080:207818752] [-7015114:2114192] [-3121152:23048296] none none [-906066:2613248] [-12615680:1519616] [-603480:330404224] none [-3784704:9031680] [-173449344:2739152] none [-224520:57786368] [-5738496:64966656] [-1798144:90112] none [-20916144:3923197] [-1576960:877740] [-891288:3039113] [-267198464:384800] [-2188888:557344] [-2114130:55875348] [-3371508:13164544] [-1736704:741376] [-1934727:466944] [-3260416:118124544] none none [-1:1] none none [-1:0] none none none none none none none none none none none none none [-1:1] none none none none [-1:1] none none none none [-1:1] none none none none none none [-1:1] [-1:1] none none none none none [-1:1] none [-1:1] none none none none none none [0:18] none [-3:0] none [0:8] none none none [0:9] [0:8] [-8:0] none none [-10:0] none none none none none none none [0:9] [-1:9] [0:20] none none none none [0:5] none none none none none [0:1] none [0:3] [0:10] none none none none none none none [0:9] none [-2:0] [-9:0] [0:8] none none none [-1:2] [-1:2] none none [-1:1] [-1:1] none [-2:1] [-1:0] [-1:2] none none [0:1] [-1:1] none none none [-2:1] [-1:1] [-1:1] none none [-2:2] [-1:1] [-1:1] [-2:1] [-1:2] [-3:1] none [-2:2] none none [-1:1] [-1:1] [-1:1] [-2:2] none [-1:1] none none [-1:1] none [-1:2] none [-1:1] [-1:1] none none [-1:2] [-2:1] [-2:1] none none [-1:1] [-1:1] none [-1:1] [-1:1] none [-1:2] [-2:2] [-1:2] [-1:2] none none [-2:0] none none [-1:1] none none none none [-1:1] none none none [-2:1] [-1:1] [-1:1] none none none [-1:2] none none none none [-2:2] none [-1:1] [-2:1] [-1:1] [-2:1] none none none [-2:1] none [-1:1] [-1:2] none none [-1:1] [-1:1] [-2:1] none none none [-1:1] none none none [-1:1] [0:2] [-2:1] [-2:1] none none [-1:2] [-1:1] [-1:2] [-1:1] none none [-1:1] [-2:1] [-1:1] [-1:1] none [-1:1] [-1:1] none none none [-1:2] [-2:1] [-1:1] [-2:1] [-2:2] none none none none [-2:1] none [-2:1] none none [-1:2] none none none none none none none none [-2:1] none none [-2:1] none [-2:1] [-1:1] none [-1:1] [-1:2] none none none [-2:1] none none none [-1:1] [-1:2] [-1:2] [-1:1] none none none none none [0:2] [-2:1] [-2:1] none none none none [-2:1] [-3:1] [-2:2] [-1:1] [-2:1] none [-1:3] [-1:2] none [-2:1] [-1:1] none none none none none none [-1:1] [-2:1] none none [-1:1] [-1:1] [-1:1] [-1:1] [-1:2] none none none [-1:2] [-1:1] [-1:1] none [-1:1] [-1:1] none none [-2:1] [-1:1] none [-2:2] none none [-1:1] none none [-2:2] none [-2:1] none none none [-1:2] [-1:1] none [-1:2] none none [-1:1] [-2:1] [-1:2] [-1:2] [-2:27] [-15:5] [-5:10] [-7:3] [-10:4] [-26:3] [-21:2] [-10:31] [-3:13] [-4:3] [-2:3] [-9:6] [-5:13] [-8:11] [-10:5] [-7:6] [-21:6] [-16:4] [-4:5] [-8:2] [-5:3] [-17:2] [-7:3] [-5:34] [-3:4] [-10:12] [-3:8] [-9:4] [-5:8] [-8:4] [-9:4] [-22:3] [-12:2] [-3:20] [-12:6] [-4:9] [-18:4] [-18:3] [-2:13] [-4:3] [-10:10] [-14:3] [-4:6] [-4:21] [-4:12] [-11:3] [-30:3] [-4:4] [-27:3] [-3:19] [-19:3] [-28:4] [-9:9] [-9:11] [-3:9] [-14:3] [-4:8] [-4:7] [-3:7] [-3:13] [-4:5] [-4:15] [-10:3] [-14:17] [-12:33] [-15:5] [-5:4] [-5:11] [-14:14] [-29:4] [-39:3] [-6:8] [-5:8] [-2:4] [-37:5] [-31:3] [-13:3] [-4:2] [-4:14] [-14:5554] [-11:12] [-20:9] [-23:3] [-16:5] [-4:30] [-22:3] [-5:20] [-14:11] [-18:3] [-14:3] [-4:10] [-3:5] [-7:3] [-6:3] [-10:3] [-4:7] [-20:4] [-4:4] [-12:3] [-15:6] [-23:10] [-4:5] [-12:9] [-4:6] [-5:14] [-23:5] [-3:11] [-19:6] [-11:21] [-13:4] [-3:12] [-29:6] [-8:16] [-27:6] [-2:35] [-49:3] [-8:4] [-5:3] [-4:11] [-3:14] [-6:6] [-8:3] [-4:6] [-6:3] [-4:24] [-21:2] [-16:3] [-3:4] [-5:3] [-18:3] [-19:4] [-3:8] [-27:4] [-22:4] [-51:3] [-16:2] [-3:13] [-79:3] [-3:31] [-14:9] [-5:3] [-13:3] [-4:20] [-4:13] [-18:3] [-14:6] [-2:5] [-6:4] [-16:10] [-18:7] [-6:5] [-3:3] [-40:5] [-3:15] [-24:754] [-9:4] [-13:3] [-5:15] [-16:3] [-3:7] [-4:4] [-3:25] [-3:19] [-2:14] [-23:4] [-3:5] [-4:9] [-2:23] [-3:19] [-2:7] [-7:14] [-4:8] [-15:3] [-30:2] [-11:3] [-36:7] [-4:8] [-2:4] [-5:10] [-3:3] [-6:4] [-2:17] [-5:3] [-7:3] [-3:3] [-5:20] [-3:12] [-23:3] [-43:3] [-3:15] [-3:11] [-4:8] [-9:3] [-3:10] [-2:4] [-14:3] [-25:5] [-3:6] [-3:7] [-3:4] [-176:15] [-3:30] [-7:12] [-9:3] [-6:4] [-8:3] [-4:17] [-20:5] [-2:18] [-3:6] [-4:32] [-42:7] [-2:16] [-9:8] [-11:3] [-18:3] [-3:20] [-25:4] [-8:5] [-27:9] [-6:3] [-26:4] [-2:11] [-11:6] [-20:8] [-31:4] [-15:3] [-5:3] [-5:4] [-4:3] [-3:3] [-7:3] [-6:370] [-4:11] [-5:33] [-23:3] [-4:872] [-7:8] [-12:5] [-30:3] [-15:3] [-6:5] [-4:14] [-5:14] [-3:5] [-5:5] [-5:10] [-5:3] [-19:4] [-3:20] [-3:13] [-3:2] [-3:14] [-15:4] [-5:97] [-3:11] [-4:22] [-3:3] [-7:7] [-13:4] [-4:9] [-5:4] [-3:27] [-20:2] [-5:9] [-16:4] [-22:5] [-9:4] [-6:9] [-27:4] [-6:4] [-4:15] [-3:9] [-6:5] [-3:11] [-5:6] [-7:3] [-3:35] [-3:3] [-888:2] [-9:3] [-3:7] [-6:12] [-4:4] [-20:4] [-3:52] [-3:6] [-3:8] [-6:4] [-8:2] [-7:10] [-5:10] [-16:4] [-12:3] [-4:4] [-3:21] [-7:17] [-2:4] [-5:4] [-17:5] [-7:14] [-12:8] [-4:12] [-8:2] [-18:5] [-9:4] [-4:18] [-3:5] [-4:19] [-3:10] [-7:3] [-12:20] [-4:5] [-3:10] [-24:3] [-36:4] [-3:4] [-4:31] [-14:14] [-9:8] [-4:12] [-4:14] [-21:2] [-22:3] [-18:4] [-14:2] [-2:17] [-2:5] [-3:4] [-15:25] [-24:4] [-3:19] [-2:10] [-3:21] [-18:4] [-17:3] [-5:9] [-6:3] [-4:5] [-15:12] [-26:3] [-83163:4] [-8:2] [-13:3] [-3:7] [-3:4] [-15:6] [-11:6] [-3:21] [-2:36] [-3:14] [-4:5] [-4:32] [-3:20] [-4:13] [-7:17] [-15:7] [-3:7] [-4:3] [-6:2] [-5:3] [-3:17] [-3:11] [-23:3] [-15:3] [-4:14] [-4:2] [-4:4] [-8:15] [-8:3] [-13:9] [-24:3] [-19:3] [-3:5] [-11:3] [-65:3] [-92:18] [-20:3] [-4:5] [-14:3] [-10:3] [-4:10] [-3:4] [-8:4] [-35:8] [-3:17] [-3:4] [-4:5] [-6:3] [-3:18] [-23:11] [-5:9] [-4:19] [-3:9] [-3:3] [-4:2] [-5:5] [-8:36] [-32:6] [-3:21] [-78:4] [-2:7] [-9:4] [-3:206] [-2:10] [-4:12] [-13:5] [-22:4] [-6:5] [-29:4] [-4:931] [-5:3] [-2:8] [-16:3] [-11:3] [-7:4] [-3:4] [-14:6] [-18:2] [-6:3] [-6:6] [-6:2] [-20:4] [-5:12] [-4:3] [-5:3] [-21:5] [-3:13] [-3:26] [-4:5] [-4:22] [-5:2] [-3:18] [-46:33] [-2:13] [-15:7] [-10:5] [-13:4] [-10:3] [-4:4] [-7:35] [-4:4] [-3:8] [-4:10] [-3:5] [-9:9] [-44:24] [-13:4] [-18:5] [-11:6] [-3:13] [-5:36] [-15:7] [-3:3] [-3:5535] [-12:3] [-9:5] [-10:5] [-4:24] [-3:4] [-19:4] [-10:2] [-6:15] [-14:3] [-3:3] [-13:4] [-3:23] [-5:17] [-21:2] [-3:11] [-20:4] [-3:8] [-9:27] [-33:4] [-7:4] [-4:6] [-6:4] [-12:4] [-3:14] [-2:3] [-10:4] [-4:16] [-5:4] [-6:2] [-3:9] [-22:4] [-4:3] [-3:3] [-25:4] [-4:14] [-19:3] [-2:3] [-10:6] [-3:4] [-6:4] [-5:21] [-2:4] [-29:3] [-4:3] [-182:14] [-4:7] [-7:27] [-6:5] [-3:23] [-12:4] [-15:9] [-25:13] [-4:4] [-4:8] [-16:15] [-7:4] [-99:15] [-2:16] [-3:9] [-2:28] [-3:41] [-4:17] [-5:3] [-12:3] [-21:2] [-29:6] [-3:45] [-6:4] [-46:14] [-8:4] [-5:14] [-5:19] [-2:25] [-3:15] [-15:5] [-4:24] [-18:3] [-7:9] [-19:12] [-4:10] [-3:32] [-2:94] [-3:15] [-7:4] [-36:14] [-9:3] [-3:68] [-3:11] [-4:4] [-16:4] [-6:13] [-22:7] [-2:13] [-14:4] [-29:3] [-7:3] [-21:3] [-4:15] [-5:5] [-5:3] [-4:6] [-3:3] [-2:19] [-5:24] [-20:5] [-4:6] [-13:3] [-5629:5] [-16:3] [-5:6] [-2:6] [-6:20] [-6:3] [-3:6] [-3:6] [-2:4] [-8:4] [-11:2] [-2:31] [-7:15] [-11:3] [-2:23] [-3:10] [-22:5] [-12:3] [-11:3] [-11:3] [-13:10] [-23:3] [-12:4] [-3:58] [-6:24] [-2:11] [-2:14] [-12:4] [-9:3] [-2:5] [-5:3] [-14:8] [-3:7] [-12:4] [-3:21] [-18:3] [-3:21] [-7:8] [-2:17] [-13:16] [-7:2] [-2:4] [-36:4] [-3:3] [-4:4] [-2:12] [-4:12] [-3:22] [-3:24] [-7:4] [-3:47] [-23:10] [-8:8] [-4:16] [-4:3] [-36:3] [-4:21] [-3:4] [-13:4] [-182:3] [-10:7] [-5518:13] [-3:9] [-17:7] [-30:6] [-14:8] [-11:4] [-3:13] [-9:3] [-4:15] [-4:10] [-3:19] [-3:13] [-15:23] [-16:906] [-14:4] [-14:2] [-12:10] [-3:27] [-170:3] [-32:4] [-5:26] [-10:4] [-10:4] [-15:4] [-4:3] [-64:9] [-4:22] [-25:4] [-3:33] [-6:5] [-3:20] [-4:6] [-6:9] [-15:25] [-5:8] [-17:5] [-7:3] [-14:3] [-5:3] [-4:5] [-3:16] [-3:31] [-4:11] [-3:3] [-4:11] [-3:4] [-3:4] [-3:9] [-18:3] [-12:23] [-3:6] [-11:3] [-15:14] [-8:16] [-6:2] [-3:4] [-16:7] [-2:30] [-6:5] [-37:2] [-3:4] [-5:10] [-6:3] [-4:26] [-11:3] [-10:6] [-33:6] [-9:5] [-4:27] [-8:4] [-7:5] [-3:26] [-17:3] [-6:4] [-48:13] [-8:3] [-11:2] [-3:12] [-9:8] [-4:6] [-4:5] [-4:18] [-41:2] [-3:21] [-5:2] [-7:5] [-29:4] [-9:3] [-3:6] [-5:24] [-21:11] [-6:8] [-7:23] [-6:4] [-4:9] [-4:4] [-6:5] [-197:2] [-15:4] [-3:6] [-5:11] [-27:4] [-2:14] [-3:16] [-3:28] [-6:13] [-211:4] [-4:9] [-7:8] [-11:23] [-12:2] [-16:3] [-4:8] [-4:7] [-21:4] [-4:17] [-11:11] [-6:18] [-4:4] [-5:4] [-3:9] [-20:9] [-16:2] [-33:5] [-798:8] [-10:3] [-14:7] [-9:3] [-42:4] [-8:2] [-98:3] [-15:4] [-10:5] [-8:14] [-4:10] [-10:18] [-11:4] [-11:2] [-39:47] [-4:22] [-6:28] [-3:14] [-4:18] [-3:13] [-7:3] [-4:6] [-15:6] [-18:5] [-5:3] [-3:35] [-4:21] [-7:8] [-7:32] [-4:5] [-4:4] [-3:6] [-4:7] [-6:11] [-14:7] [-9:3] [-27:4] [-9:8] [-10:2] [-11:4] [-5:4] [-6:3] [-5:4] [-9:8] [-3:4] [-4:24] [-3:11] [-6:2] [-24:3] [-5:2] [-4:4] [-23:3] [-14:9] [-13:3] [-2:17] [-3:3] [-24:4] [-23:4] [-17:5] [-11:9] [-2:26] [-3:4] [-5:9] [-5:4] [-8:4] [-3:13] [-7:2] [-3:8] [-3:31] [-8:3] [-48:5] [-20:4] [-8:3] [-3:16] [-2:40] [-9:9] [-3:4] [-4:5] [-8:3] [-3:4] [-80:4] [-13:20] [-13:3] [-4:7] [-6:8] [-16:3] [-5:9] [-10:17] [-3:20] [-29:3] [-9:5] [-14:4] [-9:5] [-13:3] [-3:3] [-3:4] [-3:17] [-5:22] [-83:3] [-4:12] [-6:9] [-14:4] [-4:5] [-4:208] [-12:34] [-2:14] [-8:3] [-3:12] [-2:6] [-7:5] [-19:9] [-11:15] [-3:4] [-6:8] [-5:5] [-10:3] [-9:3] [-3:15] [-14:5] [-4:6] [-6:14] [-3:6] [-3:5] [-3:4] [-10:5] [-11:3] [-3:9] [-2:10] [-2:15] [-3:6] [-21:9] [-5:2] [-11:5] [-12:4] [-8:3] [-8:3] [-10:8] [-5:25] [-11:2] [-11:6] [-3:10] [-5:22] [-17:8] [-11:4] [-15:4] [-10:3] [-6:7] [-3:4] [-6:23] [-9:6] [-4:10] [-3:20] [-5:5] [-8:7] [-22:21] [-14:4] [-3:17] [-8:19] [-9:3] [-12:8] [-7:4] [-5:15] [-3:3] [-4:3] [-35:4] [-21:2] [-3:11] [-6:4] [-4:11] [-3:7] [-16:6] [-818:7] [-3:3] [-9:3] [-2:5] [-4:31] [-17:13] [-16:3] [-15:3] [-24:4] [-7:3] [-5:32] [-2:17] [-4:3] [-858:14] [-47:5] [-4:4] [-3:4] [-3:4] [-10:5] [-4:20] [-5:8] [-2:4] [-30:9] [-11:43] [-4:37] [-3:13] [-6:3] [-3:6] [-4:25] [-12:5] [-22:4] [-9:4] [-3:18] [-5:23] [-25:18] [-3:4] [-4:14] [-3:27] [-4:3] [-4:5] [-5:6] [-33:3] [-10:4] [-3:12] [-9:17] [-3:10] [-4:23] [-22:3] [-3:3] [-6:7] [-3:5] [-16:3] [-18:4] [-4:6] [-12:3] [-7:9] [-5:3] [-3:17] [-2:35] [-27:3] [-4:11] [-11:2] [-5:19] [-5:11] [-4:6] [-4:5] [-3:12] [-5:4] [-6:4] [-25:3] [-14:3] [-8:51] [-17:5] [-4:7] [-5:23] [-12:12] [-3:12] [-4:14] [-10:2] [-24:6] [-8:6] [-3:6] [-2:13] [-8:9] [-8:5] [-4:3] [-9:5] [-2:28] [-4:11] [-4:14] [-16:22] [-5:6] [-2:9] [-2:743] [-2:21] [-4:7] [-12:21] [-15:5] [-12:3] [-16:4] [-3:4] [-3:3] [-18:4] [-3:6] [-3:16] [-4:5] [-22:26] [-16:8] [-15:37] [-90:13] [-57:12] [-14:31] [-44:14] [-87:14] [-18:14] [-41:16] [-91:12] [-88:17] [-11:92] [-25:11] [-17:10] [-9:13] [-97:37] [-87:9] [-23:14] [-8:11] [-11:87] [-30:13] [-9:17] [-85:48] [-19:25] [-25:204] [-19:18] [-12:35] [-31:91] [-21:16] [-19:12] [-9:28] [-87:16] [-11:21] [-19:19] [-13:12] [-12:20] [-15:23] [-29:16] [-26:8] [-40:14] [-18:11] [-23:10] [-10:17] [-201:21] [-19:17] [-34:20] [-16:12] [-17:13] [-35:54] [-112:26] [-32:31] [-17:13] [-15:12] [-10:29] [-40:21] [-40:27] [-10:22] [-24:15] [-12:29] [-16:119] [-19:10] [-90:19] [-8:14] [-18:8] [-29:13] [-25:30] [-18:16] [-22:11] [-15:17] [-17:28] [-85:15] [-20:15] [-13:35] [-16:14] [-17:16] [-50:10] [-14:118] [-12:11] [-21:17] [-17:30] [-91:32] [-59:93] [-12:115] [-19:11] [-11:30] [-86:30] [-21:11] [-17:12] [-118:17] [-162:9] [-27:91] [-13:56] [-17:14] [-26:29] [-28:25] [-21:21] [-11:24] [-14:12] [-21:21] [-14:16] [-10:84] [-10:37] [-14:15] [-83:11] [-20:24] [-10:26] [-13:24] [-17:20] [-22:8] [-92:35] [-7:38] [-10:10] [-15:16] [-89:12] [-12:12] [-27:15] [-118:16] [-9:29] [-37:19] [-88:18] [-15:35] [-17:90] [-35:12] [-42:13] [-18:23] [-17:36] [-10:14] [0:4294967296] [0:61070480] [0:16777354] [0:331300864] [0:55875348] [0:267202560] [0:3191769856] [0:2906158848] [0:4082706176] [0:3863093248] [0:2348796160] [0:267210752] [0:2588053248] [0:485207008] [0:1097035648] [0:1349805440] none none [0:204] [0:331313184] [0:3249271552] [0:2973805312] [0:4278219520] [0:1701995648] [0:18660876] [0:3914422016] [0:3771925760] [0:3823243264] [0:3364085760] [0:2784188672]
tree_sizes=243

Tree=0
num_leaves=1
num_cat=0
split_feature=
split_gain=
threshold=
decision_type=
left_child=
right_child=
leaf_value=34.539575992340879
leaf_weight=
leaf_count=12000
internal_value=
internal_weight=
internal_count=
is_linear=0
shrinkage=1


end of trees

feature_importances:

parameters:
[boosting: gbdt]
[objective: binary]
[metric: binary_logloss]
[tree_learner: serial]
[device_type: cpu]
[data_sample_strategy: bagging]
[data: ]
[valid: ]
[num_iterations: 2000]
[learning_rate: 0.01]
[num_leaves: 15]
[num_threads: 0]
[seed: 42]
[deterministic: 0]
[force_col_wise: 0]
[force_row_wise: 1]
[histogram_pool_size: -1]
[max_depth: 7]
[min_data_in_leaf: 30]
[min_sum_hessian_in_leaf: 0.001]
[bagging_fraction: 0.8]
[pos_bagging_fraction: 1]
[neg_bagging_fraction: 1]
[bagging_freq: 5]
[bagging_seed: 400]
[bagging_by_query: 0]
[feature_fraction: 0.8]
[feature_fraction_bynode: 1]
[feature_fraction_seed: 30056]
[extra_trees: 0]
[extra_seed: 12879]
[early_stopping_round: 0]
[early_stopping_min_delta: 0]
[first_metric_only: 0]
[max_delta_step: 0]
[lambda_l1: 0.1]
[lambda_l2: 0.1]
[linear_lambda: 0]
[min_gain_to_split: 0]
[drop_rate: 0.1]
[max_drop: 50]
[skip_drop: 0.5]
[xgboost_dart_mode: 0]
[uniform_drop: 0]
[drop_seed: 17869]
[top_rate: 0.2]
[other_rate: 0.1]
[min_data_per_group: 100]
[max_cat_threshold: 32]
[cat_l2: 10]
[cat_smooth: 10]
[max_cat_to_onehot: 4]
[top_k: 20]
[monotone_constraints: ]
[monotone_constraints_method: basic]
[monotone_penalty: 0]
[feature_contri: ]
[forcedsplits_filename: ]
[refit_decay_rate: 0.9]
[cegb_tradeoff: 1]
[cegb_penalty_split: 0]
[cegb_penalty_feature_lazy: ]
[cegb_penalty_feature_coupled: ]
[path_smooth: 0]
[interaction_constraints: ]
[verbosity: -1]
[saved_feature_importance_type: 0]
[use_quantized_grad: 0]
[num_grad_quant_bins: 4]
[quant_train_renew_leaf: 0]
[stochastic_rounding: 1]
[linear_tree: 0]
[max_bin: 255]
[max_bin_by_feature: ]
[min_data_in_bin: 3]
[bin_construct_sample_cnt: 200000]
[data_random_seed: 175]
[is_enable_sparse: 1]
[enable_bundle: 1]
[use_missing: 1]
[zero_as_missing: 0]
[feature_pre_filter: 1]
[pre_partition: 0]
[two_round: 0]
[header: 0]
[label_column: ]
[weight_column: ]
[group_column: ]
[ignore_column: ]
[categorical_feature: ]
[forcedbins_filename: ]
[precise_float_parser: 0]
[parser_config_file: ]
[objective_seed: 16083]
[num_class: 1]
[is_unbalance: 0]
[scale_pos_weight: 1]
[sigmoid: 1]
[boost_from_average: 1]
[reg_sqrt: 0]
[alpha: 0.9]
[fair_c: 1]
[poisson_max_delta_step: 0.7]
[tweedie_variance_power: 1.5]
[lambdarank_truncation_level: 30]
[lambdarank_norm: 1]
[label_gain: ]
[lambdarank_position_bias_regularization: 0]
[eval_at: ]
[multi_error_top_k: 1]
[auc_mu_weights: ]
[num_machines: 1]
[local_listen_port: 12400]
[time_out: 120]
[machine_list_filename: ]
[machines: ]
[gpu_platform_id: -1]
[gpu_device_id: -1]
[gpu_use_dp: 0]
[num_gpu: 1]

end of parameters

pandas_categorical:null
